sentiment je 0.0303030
I je 0.8181818
breaking je 0.0303030
drown je 0.0303030
NULL je 0.0909091
earth-- … 0.0370370
&quot; … 0.2592593
Madame … 0.0370370
sire … 0.0370370
I … 0.0370370
? … 0.0370370
− … 0.5555556
to redescendre 0.3333333
again redescendre 0.3333333
descend redescendre 0.3333333
groups groupes 1.0000000
Commence Commencez 0.5000000
Begin Commencez 0.5000000
vagabonds truands 1.0000000
confounding confondant 1.0000000
proposition proposition 0.5000000
produced proposition 0.5000000
live demeurer 1.0000000
route détour 0.5000000
circuitous détour 0.5000000
nymph nymphe 1.0000000
hoot huer 0.7500000
him huer 0.2500000
shoulder haillons 0.5000000
rags haillons 0.5000000
almost presque 0.4000000
lyric presque 0.2000000
entering presque 0.4000000
universal recueillement 1.0000000
remains restée 1.0000000
fireworks artifice 0.5000000
off artifice 0.5000000
better mieux 0.2666667
view mieux 0.1333333
get mieux 0.1333333
a mieux 0.1333333
to mieux 0.3333333
brave brave 0.1666667
a brave 0.1666667
good brave 0.3333333
fine brave 0.1666667
, brave 0.1666667
Has M 1.0000000
to parler 0.1666667
you parler 0.1666667
speak parler 0.5000000
with parler 0.1666667
Saint double 0.2500000
− double 0.2500000
double double 0.2500000
Jean double 0.2500000
pressed pressée 1.0000000
interlocutor interlocuteur 1.0000000
announce annoncez 1.0000000
ecclesiastical cortège 0.5000000
cortege cortège 0.5000000
had troublée 0.3333333
Hardly troublée 0.3333333
disturbed troublée 0.3333333
Holy sainte 1.0000000
grimaces simagrées 1.0000000
lips lèvres 1.0000000
shuddered frissonnait 0.5000000
And frissonnait 0.5000000
dram brigands 0.3333333
shop brigands 0.3333333
− brigands 0.3333333
magnificent magnifique 1.0000000
down sorts 1.0000000
new douzain 1.0000000
difficulty eut 0.1250000
enjoyed eut 0.1250000
in eut 0.1250000
NULL eut 0.1250000
Silence eut 0.1250000
considerable eut 0.1250000
found eut 0.1250000
smiling eut 0.1250000
flung jetèrent 1.0000000
actors acteurs 1.0000000
Austria Autriche 1.0000000
still toujours 0.2727273
NULL toujours 0.0909091
always toujours 0.2727273
stood toujours 0.1818182
increasing toujours 0.0909091
from toujours 0.0909091
alms aumône 1.0000000
leg hexamètre 1.0000000
Trouble Peine 1.0000000
wrath la 0.0036101
addressed la 0.0108303
ill la 0.0072202
the la 0.6895307
surprise la 0.0108303
NULL la 0.0577617
shake la 0.0036101
by la 0.0072202
Burgundian la 0.0036101
posterity la 0.0072202
followed la 0.0036101
head la 0.0072202
clearness la 0.0036101
well la 0.0072202
enter la 0.0036101
flight la 0.0036101
His la 0.0036101
life la 0.0072202
la la 0.0288809
a la 0.0180505
hand la 0.0180505
whole la 0.0036101
his la 0.0180505
tranquillity la 0.0036101
Candlemas la 0.0036101
allied la 0.0072202
offered la 0.0036101
deserve la 0.0072202
dagger la 0.0036101
their la 0.0072202
her la 0.0108303
interrupted la 0.0036101
to la 0.0072202
The la 0.0036101
understands la 0.0036101
glanced la 0.0036101
silk la 0.0036101
eminent éminentissime 0.4000000
ear éminentissime 0.4000000
NULL éminentissime 0.2000000
bent pencha 1.0000000
~ Ventre-Dieu 0.4000000
Ventre Ventre-Dieu 0.2000000
Dieu Ventre-Dieu 0.2000000
− Ventre-Dieu 0.2000000
fastened effrontés 1.0000000
tinsel chape 1.0000000
Begin Recommencez 1.0000000
cavalier cavalier 1.0000000
ought aurais 0.2500000
careful aurais 0.2500000
be aurais 0.2500000
will aurais 0.2500000
faces visages 1.0000000
Sun Soleil 1.0000000
were bancs 0.5000000
benches bancs 0.5000000
amazed émerveillé 0.2000000
in émerveillé 0.4000000
amazement émerveillé 0.4000000
preoccupied préoccupée 0.3333333
with préoccupée 0.3333333
visibly préoccupée 0.3333333
window croisée 1.0000000
: particulière 0.5000000
expression particulière 0.5000000
explained expliqua 1.0000000
us échappé 0.2500000
with échappé 0.2500000
content échappé 0.2500000
escaped échappé 0.2500000
numerous mainte 1.0000000
to dire 0.0769231
uttering dire 0.0769231
say dire 0.3076923
speak dire 0.1153846
add dire 0.0769231
. dire 0.0769231
meaning dire 0.0384615
sun dire 0.0384615
mean dire 0.1923077
bellringer cloches 0.6666667
bells cloches 0.3333333
much gagné 0.5000000
gained gagné 0.5000000
intoxicating coupe 1.0000000
fringes franges 1.0000000
happily heureusement 1.0000000
saluted vivant 0.2500000
tripod vivant 0.2500000
him vivant 0.2500000
living vivant 0.2500000
work ouvrage 0.5000000
required ouvrage 0.2500000
was ouvrage 0.2500000
He C 0.0851064
Perhaps C 0.0212766
It C 0.3617021
NULL C 0.1276596
They C 0.0212766
There C 0.0212766
That C 0.0425532
it C 0.0425532
Each C 0.0851064
This C 0.1489362
&apos; C 0.0425532
into pleuvaient 0.3333333
it pleuvaient 0.3333333
showered pleuvaient 0.3333333
why pourquoi 1.0000000
bosom sein 1.0000000
leaning appuyé 0.5000000
on appuyé 0.5000000
Only Seulement 1.0000000
tenderly tendrement 1.0000000
suspense suspens 1.0000000
still encore 0.1764706
NULL encore 0.0588235
yet encore 0.1764706
lower encore 0.0588235
loudly encore 0.0588235
attempt encore 0.0588235
Listen encore 0.0588235
more encore 0.1176471
, encore 0.1176471
fixedly encore 0.0588235
once encore 0.0588235
fine bon 0.1666667
Good bon 0.1666667
good bon 0.4166667
receive bon 0.1666667
hearts bon 0.0833333
adorable adorable 1.0000000
preaches prêche 1.0000000
to satisfaire 0.5000000
satisfy satisfaire 0.5000000
caritatem caritatem 0.3333333
~ caritatem 0.6666667
priest prêtre 1.0000000
brutal brutales 1.0000000
Usher Huissier 1.0000000
Cursed Maudits 1.0000000
NULL aie 0.3333333
have aie 0.6666667
enter entrent 1.0000000
child enfant 1.0000000
however pourtant 0.1428571
it pourtant 0.0714286
was pourtant 0.2857143
, pourtant 0.2142857
But pourtant 0.1428571
he pourtant 0.0714286
nevertheless pourtant 0.0714286
say dis 0.5000000
Thank dis 0.5000000
means veut 0.1428571
is veut 0.1428571
wishes veut 0.1428571
chooses veut 0.2857143
does veut 0.2857143
pearls Margaritas 1.0000000
to tâcha 0.3333333
tried tâcha 0.3333333
slip tâcha 0.3333333
fashion bourguignonne 1.0000000
knowing savoir 0.1666667
of savoir 0.1666667
than savoir 0.1666667
disposition savoir 0.1666667
better savoir 0.1666667
ignorance savoir 0.1666667
jobs secrètes 0.5000000
&apos;s secrètes 0.5000000
wax jaune 0.5000000
copper jaune 0.5000000
waited attendu 1.0000000
&apos;ll temps-là 1.0000000
appears paraît 1.0000000
~ mero 0.5000000
mero mero 0.5000000
back dos 0.2000000
but dos 0.4000000
backs dos 0.4000000
styles genres 1.0000000
Flemish géant 0.3333333
giant géant 0.6666667
dish barbe 0.5000000
beard barbe 0.5000000
admiration admiration 1.0000000
stamp frapper 0.3333333
bestow frapper 0.3333333
clap frapper 0.3333333
pointing indiquant 0.5000000
out indiquant 0.5000000
? 25 1.0000000
− Simone 0.6666667
Simone Simone 0.3333333
he celui 0.2500000
am celui 0.2500000
enormities celui 0.5000000
awakened éveillé 0.5000000
with éveillé 0.5000000
Your Vos 1.0000000
at scel 0.3333333
seals scel 0.6666667
estrade estrade 0.1578947
reserved estrade 0.1052632
gallery estrade 0.2631579
dais estrade 0.1052632
NULL estrade 0.1578947
train estrade 0.1052632
new estrade 0.1052632
her applaudit 0.2500000
fact applaudit 0.2500000
lovingly applaudit 0.2500000
applauded applaudit 0.2500000
before heure 0.1818182
while heure 0.1818182
little heure 0.1818182
good heure 0.1818182
hour heure 0.1818182
an heure 0.0909091
raised haussa 0.5000000
his haussa 0.5000000
exactly quel 0.1000000
judge quel 0.2000000
sentiment quel 0.1000000
month quel 0.1000000
what quel 0.5000000
neck cou 1.0000000
whispers chuchotements 0.5000000
over chuchotements 0.5000000
a épée 1.0000000
fired tiré 1.0000000
his tour 0.2500000
tower tour 0.2500000
turn tour 0.2500000
turned tour 0.2500000
gallant galants 0.2500000
verses galants 0.2500000
some galants 0.2500000
very galants 0.2500000
it y 0.1176471
gay y 0.0588235
running y 0.0294118
y y 0.0294118
sorcery y 0.0294118
copper y 0.0294118
was y 0.0882353
weary y 0.0294118
NULL y 0.2352941
diversion y 0.0294118
were y 0.0294118
trained y 0.0588235
lay y 0.0294118
hatred y 0.0588235
regaining y 0.0294118
handsome y 0.0294118
advantages y 0.0294118
connection y 0.0294118
Silence y 0.0294118
concealed cachait 0.5000000
its cachait 0.5000000
corner obscur 1.0000000
up boucha 1.0000000
blowing souffler 0.5000000
breathe souffler 0.5000000
aware c 0.0322581
there c 0.0322581
friendship c 0.0161290
He c 0.0322581
makes c 0.0161290
would c 0.0161290
that c 0.0806452
he c 0.0806452
NULL c 0.1129032
We c 0.0161290
emphasis c 0.0161290
wasn c 0.0161290
quarters c 0.0322581
&apos; c 0.1451613
she c 0.0806452
boldly c 0.0322581
That c 0.0161290
it c 0.2258065
planks planches 1.0000000
sire Monseigneur 0.2500000
Monseigneur Monseigneur 0.7500000
felt venir 1.0000000
overflow déborder 1.0000000
prevents empêche 1.0000000
~ Ondè 0.5000000
Onde Ondè 0.5000000
among curiosité 0.5000000
curiosity curiosité 0.5000000
in vêtu 0.5000000
clad vêtu 0.5000000
classicism classique 1.0000000
When Quando 1.0000000
&quot; vous 0.0869565
your vous 0.0217391
thank vous 0.0434783
you vous 0.5000000
told vous 0.0217391
gave vous 0.0217391
please vous 0.0652174
ask vous 0.0217391
service vous 0.0652174
wearies vous 0.0434783
Just vous 0.0217391
NULL vous 0.0217391
called vous 0.0217391
prevents vous 0.0434783
wine vin 0.5000000
with vin 0.5000000
notary notaire 0.5000000
at notaire 0.5000000
be soyez 0.5000000
at soyez 0.5000000
a dieu 0.5000000
god dieu 0.5000000
jollycompanion joyeux 0.5000000
a joyeux 0.5000000
* targes 1.0000000
rogue maraud 1.0000000
see regardent 1.0000000
himself multipliait 0.3333333
multiplied multipliait 0.3333333
had multipliait 0.3333333
so jusqu 0.1666667
as jusqu 0.1666667
NULL jusqu 0.3333333
bound jusqu 0.1666667
until jusqu 0.1666667
Many Grand 1.0000000
presentable présentables 1.0000000
&quot; » 0.9507042
bottom » 0.0070423
hair » 0.0070423
difference » 0.0070423
Nothing » 0.0070423
Thanks » 0.0070423
naked » 0.0070423
married » 0.0070423
falling tombe 1.0000000
interruption interruption 1.0000000
as passage 0.2857143
path passage 0.1428571
he passage 0.2857143
passed passage 0.2857143
flaming flamboyants 0.5000000
! flamboyants 0.5000000
these flamands 0.5000000
bears flamands 0.5000000
military militaire 1.0000000
twenty vingt 1.0000000
water bénitier 0.2500000
holy bénitier 0.2500000
vessel bénitier 0.2500000
− bénitier 0.2500000
wild rires 0.5000000
Laughter rires 0.5000000
little petit 1.0000000
into brisa 0.3333333
broke brisa 0.6666667
fresh fraîche 1.0000000
dared osa 1.0000000
violent froid 0.3333333
cold froid 0.6666667
bowed saluait 1.0000000
metamorphoses métamorphoses 1.0000000
leather veste 1.0000000
operation opération 1.0000000
grow impatienter 1.0000000
gallows potence 0.5000000
gibbet potence 0.5000000
NULL Saint-Jean 1.0000000
think crois 0.5000000
) crois 0.3333333
believe crois 0.1666667
to dû 0.1666667
done dû 0.1666667
ought dû 0.3333333
have dû 0.3333333
swore juraient 1.0000000
ranks rangs 1.0000000
hearts cœur 0.3333333
heart cœur 0.6666667
firmly crut 1.0000000
low révérence 1.0000000
looked il 0.0081967
As il 0.0081967
it il 0.0573770
please il 0.0245902
understanding il 0.0081967
if il 0.0245902
you il 0.0081967
, il 0.0081967
he il 0.6803279
advanced il 0.0081967
enjoyed il 0.0081967
three il 0.0081967
NULL il 0.0737705
there il 0.0737705
abrupt brusque 0.6000000
by brusque 0.4000000
Tour Tour-Roland 0.3333333
− Tour-Roland 0.3333333
Roland Tour-Roland 0.3333333
while tandis 0.5000000
as tandis 0.5000000
your mari 0.3000000
husband mari 0.7000000
Now Or 1.0000000
&apos;Etoile Étoile 1.0000000
stood tenait 1.0000000
uttered proférait 1.0000000
supper souper 1.0000000
festival fête 0.2000000
feast fête 0.8000000
no non 0.2000000
train non 0.2000000
either non 0.1000000
not non 0.5000000
Un Un 0.0588235
There Un 0.1176471
A Un 0.5882353
One Un 0.1176471
NULL Un 0.1176471
NULL instant 0.1666667
instant instant 0.5000000
from instant 0.3333333
accosted accosté 1.0000000
these coquins 1.0000000
way propos 0.5000000
the propos 0.5000000
in part 0.2500000
somewhere part 0.2500000
part part 0.5000000
energy énergiquement 0.5000000
with énergiquement 0.5000000
sacked sachette 0.5000000
nun sachette 0.5000000
eminence Éminence 1.0000000
Upon Sur 0.3333333
On Sur 0.6666667
pass passe 0.2500000
cannot passe 0.2500000
burgomasters passe 0.2500000
you passe 0.2500000
− demeure 0.5000000
remains demeure 0.5000000
their leur 0.8260870
was leur 0.0869565
triumph leur 0.0869565
measure moule 1.0000000
that ceci 0.3333333
displeases ceci 0.3333333
this ceci 0.3333333
centre centre 1.0000000
out montrerait 0.2000000
in montrerait 0.2000000
neighbor montrerait 0.2000000
them montrerait 0.2000000
pointing montrerait 0.2000000
this cet 0.6666667
that cet 0.3333333
Let Ajoutons 0.3333333
add Ajoutons 0.3333333
us Ajoutons 0.3333333
Comte comte 1.0000000
sickly malingreux 0.3333333
creature malingreux 0.3333333
see malingreux 0.3333333
barely peine 0.2500000
replied peine 0.2500000
Hardly peine 0.2500000
difficulty peine 0.2500000
placed mettait 0.3333333
often mettait 0.3333333
his mettait 0.3333333
Such J 0.2857143
I J 0.7142857
hollow creux 1.0000000
fox renard 1.0000000
charm charme 1.0000000
Nothing Rien 1.0000000
hour demi-heure 1.0000000
emboldened enhardit 1.0000000
candles chandelles 1.0000000
From Du 0.1000000
However Du 0.2000000
Of Du 0.1000000
Nevertheless Du 0.4000000
Moreover Du 0.2000000
suspense suspensifs 0.5000000
points suspensifs 0.5000000
away escamoté 0.5000000
conjured escamoté 0.5000000
ensued suivit 1.0000000
about vont 0.3333333
to vont 0.5000000
going vont 0.1666667
Martial distique 0.5000000
one distique 0.5000000
Subject Sujet 1.0000000
farce farce 1.0000000
in effrayée 0.5000000
affright effrayée 0.5000000
perceptible aucun 0.3333333
no aucun 0.6666667
fled enfuirent 0.5000000
in enfuirent 0.5000000
bring Annoncer 0.1666667
&apos;s Annoncer 0.1666667
self Annoncer 0.1666667
one Annoncer 0.1666667
One Annoncer 0.1666667
might Annoncer 0.1666667
the terre 0.4444444
earth terre 0.2222222
ground terre 0.3333333
one personne 0.3333333
perceiving personne 0.1666667
no personne 0.3333333
yet personne 0.1666667
her son 0.1477273
the son 0.0113636
to son 0.0340909
exercise son 0.0113636
its son 0.0227273
manifest son 0.0227273
passed son 0.0113636
conception son 0.0113636
&apos;s son 0.0454545
defend son 0.0113636
NULL son 0.0113636
his son 0.6477273
displeasure son 0.0113636
utterly ignorons 0.3333333
are ignorons 0.3333333
unable ignorons 0.3333333
a épanouissement 0.3333333
lighting épanouissement 0.3333333
up épanouissement 0.3333333
tones tue-tête 1.0000000
mind parti 1.0000000
he marchait 0.3333333
walked marchait 0.6666667
as passant 0.3333333
passed passant 0.3333333
he passant 0.3333333
applause applaudissements 1.0000000
able pût 0.1666667
swear pût 0.3333333
could pût 0.3333333
being pût 0.1666667
rather longue 0.5000000
long longue 0.5000000
dear cher 1.0000000
promise promettez 0.3333333
us promettez 0.3333333
you promettez 0.3333333
stir bougea 0.5000000
not bougea 0.5000000
steps hâta 0.3333333
hastened hâta 0.3333333
his hâta 0.3333333
upon tomba 0.5000000
fell tomba 0.5000000
of grimace-là 1.0000000
preserved gardait 1.0000000
an côtés 0.2000000
dilemmas côtés 0.2000000
; côtés 0.2000000
abyss côtés 0.2000000
only côtés 0.2000000
Now Maintenant 1.0000000
wench ribaude 1.0000000
revery rêverie 1.0000000
your servir 0.3333333
service servir 0.3333333
at servir 0.3333333
hand dessus 0.5000000
upper dessus 0.5000000
neighbors voisins 1.0000000
himself près 0.0909091
beside près 0.1818182
closer près 0.1818182
close près 0.1818182
NULL près 0.3636364
scholars écoliers 0.6250000
students écoliers 0.1250000
restrained écoliers 0.2500000
NULL m 0.1000000
marrying m 0.1000000
me m 0.2000000
explain m 0.1000000
suspected m 0.1000000
calls m 0.1000000
it m 0.3000000
a signe 0.1666667
sign signe 0.8333333
listening on 0.0476190
NULL on 0.0952381
noose on 0.0476190
one on 0.1428571
it on 0.0952381
to on 0.1428571
could on 0.0952381
wound on 0.0476190
was on 0.1428571
suppose on 0.0476190
, on 0.0476190
let on 0.0476190
shape image 1.0000000
started soubresaut 1.0000000
Hola Holà 1.0000000
Flanders Flandre 1.0000000
precisely flambe 0.2500000
, flambe 0.2500000
knife flambe 0.5000000
surveyor enquesteur 0.3333333
− enquesteur 0.3333333
Raguier enquesteur 0.3333333
curse malédiction 0.5000000
it malédiction 0.5000000
sonorous sonore 1.0000000
they écrièrent-ils 1.0000000
about a-t-il 1.0000000
have avoir 0.0714286
having avoir 0.2857143
soles avoir 0.0714286
be avoir 0.2142857
of avoir 0.0714286
going avoir 0.1428571
to avoir 0.0714286
could avoir 0.0714286
had pouvait 0.2500000
connection pouvait 0.1250000
NULL pouvait 0.1250000
to pouvait 0.2500000
fear pouvait 0.2500000
over épiderme 0.2500000
all épiderme 0.2500000
up épiderme 0.2500000
bristle épiderme 0.2500000
spectators spectateurs 1.0000000
knees genoux 0.6000000
his genoux 0.4000000
Rome Rome 0.5000000
well Rome 0.5000000
forced commencer 0.5000000
begun commencer 0.1666667
begin commencer 0.3333333
naked nues 1.0000000
noble noble 1.0000000
There Pas 0.3333333
was Pas 0.3333333
no Pas 0.3333333
his désignait 0.5000000
pointed désignait 0.5000000
pretty joli 1.0000000
Come Allons 1.0000000
hogshead tonneau 0.6666667
Near tonneau 0.3333333
call nommez 0.5000000
whom nommez 0.5000000
possession tentation 0.5000000
temptation tentation 0.5000000
did avez-vous 0.6000000
you avez-vous 0.4000000
very agréable 0.3333333
agreeable agréable 0.3333333
to agréable 0.3333333
are êtes 1.0000000
throne trône 1.0000000
luck survenu 1.0000000
permitted surprise 0.1666667
surprise surprise 0.8333333
beggars mendiants 1.0000000
rare Rare 0.5000000
A Rare 0.5000000
Liénarde Liénarde 1.0000000
to fallait 0.2000000
so fallait 0.2000000
do fallait 0.2000000
nevertheless fallait 0.2000000
obliged fallait 0.2000000
who qu 0.0142857
NULL qu 0.1714286
which qu 0.0571429
− qu 0.0142857
straw qu 0.0142857
scarlet qu 0.0285714
While qu 0.0285714
when qu 0.0428571
whom qu 0.0285714
that qu 0.3142857
wish qu 0.0285714
they qu 0.0714286
than qu 0.0571429
because qu 0.0142857
somewhere qu 0.0142857
disagreeable qu 0.0285714
what qu 0.0571429
shame qu 0.0142857
touched touché 1.0000000
public auteur 0.1428571
author auteur 0.4285714
of auteur 0.1428571
damsels auteur 0.1428571
it auteur 0.1428571
ecstacy lyrique 1.0000000
to écouté 0.4000000
listened écouté 0.4000000
heard écouté 0.2000000
felt bicoquet 0.5000000
cap bicoquet 0.5000000
procession procession 1.0000000
won oreilles 0.2222222
ears oreilles 0.7777778
figure figure 0.2857143
visage figure 0.1428571
a figure 0.1428571
face figure 0.4285714
Belly Ventre 1.0000000
an écluse 1.0000000
Cross Croix-Dieu 0.3333333
God Croix-Dieu 0.3333333
of Croix-Dieu 0.3333333
yes oui 0.6666667
&quot; oui 0.3333333
blasphemies blasphèmes 1.0000000
rag drapeau 1.0000000
pleasant plaisante 0.3333333
very plaisante 0.3333333
thing plaisante 0.3333333
Parisians Parisiens 1.0000000
understand Comprends-tu 0.3333333
you Comprends-tu 0.3333333
Do Comprends-tu 0.3333333
Let Laisse-toi 0.5000000
them Laisse-toi 0.5000000
poets poètes 1.0000000
athletic poings 1.0000000
pretty jolies 1.0000000
master maître 0.2307692
Master maître 0.6153846
explained maître 0.1538462
entire quart 0.5000000
quarter quart 0.5000000
not vaut 0.2000000
good vaut 0.2000000
anything vaut 0.2000000
for vaut 0.2000000
&apos;s vaut 0.2000000
cope clinquant 1.0000000
piercing perçait 1.0000000
space espace 1.0000000
us annoncer 0.3333333
announce annoncer 0.3333333
to annoncer 0.3333333
flight fuite 1.0000000
play autorité 0.2500000
their autorité 0.2500000
by autorité 0.2500000
authority autorité 0.2500000
play recommence 1.0000000
tiara tiare 1.0000000
Poor pauvre 0.2000000
poor pauvre 0.8000000
fixed fixés 0.3333333
were fixés 0.3333333
riveted fixés 0.3333333
tighter resserrer 1.0000000
Mercy grâce 0.1666667
in grâce 0.3333333
spare grâce 0.1666667
grace grâce 0.3333333
sing chanter 0.6666667
make chanter 0.3333333
continued reprit 0.0222222
went reprit 0.0444444
interposed reprit 0.0222222
pursued reprit 0.0222222
&quot; reprit 0.4222222
* reprit 0.0222222
responded reprit 0.0222222
repeated reprit 0.0444444
replied reprit 0.0444444
resumed reprit 0.3333333
cast promena 1.0000000
Egyptian l 0.0052083
effaced l 0.0052083
hear l 0.0156250
tore l 0.0052083
my l 0.0156250
have l 0.0052083
admiration l 0.0156250
in l 0.0052083
enjoy l 0.0052083
moreover l 0.0052083
love l 0.0052083
Hebrew l 0.0052083
dragged l 0.0052083
one l 0.0052083
usher l 0.0104167
around l 0.0104167
his l 0.0208333
horrible l 0.0104167
bristle l 0.0052083
your l 0.0052083
shouldered l 0.0052083
month l 0.0052083
people l 0.0052083
sword l 0.0052083
friendship l 0.0052083
assailed l 0.0052083
alms l 0.0156250
l l 0.0156250
those l 0.0156250
surrounded l 0.0156250
interest l 0.0104167
troubled l 0.0104167
gave l 0.0052083
it l 0.0156250
the l 0.6197917
NULL l 0.0781250
understands comprend 0.5000000
it comprend 0.5000000
expressly exprès 1.0000000
ever belle 0.2500000
beauty belle 0.2500000
handsomest belle 0.5000000
, exercer 0.5000000
creature exercer 0.5000000
Gone Adjugé 1.0000000
aside épaule 0.1428571
shake épaule 0.1428571
shoulder épaule 0.7142857
NULL Je 0.0344828
Certainly Je 0.0344828
I Je 0.9310345
&apos;s pourpoint 0.5000000
poet pourpoint 0.5000000
leads plombs 1.0000000
yourself iras-tu 0.1666667
you iras-tu 0.3333333
take iras-tu 0.1666667
Egyptian iras-tu 0.1666667
off iras-tu 0.1666667
recluse recluse 1.0000000
struck averti 1.0000000
yellow cire 1.0000000
precisely Précisément 1.0000000
nothing rien 0.5000000
NULL rien 0.1000000
know rien 0.2000000
anything rien 0.2000000
Nevertheless Cependant 0.3076923
In Cependant 0.0769231
Meanwhile Cependant 0.4615385
But Cependant 0.1538462
manikin mannequin 1.0000000
alacrity empressement 1.0000000
NULL fut 0.1250000
was fut 0.8750000
Emperor empereur 1.0000000
pitchfork fourche 1.0000000
stage échafaudage 0.5000000
. échafaudage 0.5000000
head tête 0.7777778
his tête 0.1666667
own tête 0.0555556
&quot; disait 0.2500000
manifest disait 0.2500000
her disait 0.1250000
− disait 0.1250000
monkey disait 0.2500000
no comprenant 0.5000000
understanding comprenant 0.5000000
reticence réticence 1.0000000
Death Mort-diable 0.3333333
of Mort-diable 0.3333333
devil Mort-diable 0.3333333
diabolical diabolique 1.0000000
over épaules 0.6666667
shoulders épaules 0.3333333
howling japper 0.5000000
gathered japper 0.5000000
caressed caressait 1.0000000
contrast contraste 0.5000000
a contraste 0.5000000
sorts sortes 1.0000000
mouth bouche 0.3333333
lips bouche 0.6666667
same autant 0.4444444
the autant 0.5555556
&apos;s Observations 0.3333333
Observations Observations 0.3333333
Burington Observations 0.3333333
slightly bras 0.3333333
arms bras 0.1666667
arm bras 0.5000000
unanimously unanimement 1.0000000
recognition reconnaissance 1.0000000
Turquant Turquant 1.0000000
Why Pourquoi 0.8000000
are Pourquoi 0.2000000
rise lever 0.5000000
raise lever 0.5000000
upon fixer 0.5000000
itself fixer 0.5000000
repeated répétèrent 1.0000000
, gauche 0.3333333
leg gauche 0.3333333
foot gauche 0.3333333
up étayer 0.5000000
prop étayer 0.5000000
spurs éperons 0.5000000
golden éperons 0.5000000
them accostés 0.5000000
accosted accostés 0.5000000
Anyway toute 0.1176471
different toute 0.0588235
, toute 0.0588235
all toute 0.1176471
very toute 0.0588235
confusion toute 0.0588235
at toute 0.0588235
perfectly toute 0.0588235
in toute 0.0588235
NULL toute 0.1764706
woodwork toute 0.0588235
any toute 0.1176471
blushing rougissant 1.0000000
break rompre 0.3333333
broke rompre 0.3333333
my rompre 0.3333333
turned détournaient 0.3333333
aside détournaient 0.3333333
their détournaient 0.3333333
communication eux 0.1428571
NULL eux 0.2857143
them eux 0.5714286
blind aveugle 0.5000000
man aveugle 0.5000000
black noir 1.0000000
ambassador ambassadeur 1.0000000
inspection faite 0.5000000
made faite 0.5000000
Candlemas Chandeleur 1.0000000
right certes 0.2000000
, certes 0.2000000
assuredly certes 0.2000000
certainly certes 0.4000000
smile souriant 0.3333333
a souriant 0.3333333
with souriant 0.3333333
for prépara 0.5000000
it prépara 0.5000000
Giborne Giborne 1.0000000
shall saurai 1.0000000
new neuve 1.0000000
displeasure mécontentement 1.0000000
ante ante 0.3333333
before ante 0.3333333
swine ante 0.3333333
seeming incongruité 1.0000000
? appeler 0.5000000
address appeler 0.5000000
morose morose 1.0000000
&quot; - 1.0000000
still se 0.0186916
fast se 0.0093458
NULL se 0.0654206
rushed se 0.0280374
covered se 0.0093458
directed se 0.0186916
himself se 0.0467290
flounce se 0.0093458
mingling se 0.0093458
fought se 0.0093458
felt se 0.0280374
caring se 0.0093458
broke se 0.0093458
created se 0.0186916
bit se 0.0186916
ceased se 0.0093458
set se 0.0093458
costume se 0.0093458
became se 0.0186916
lightning se 0.0093458
retired se 0.0093458
slipped se 0.0093458
taverns se 0.0093458
realized se 0.0186916
allowed se 0.0186916
can se 0.0093458
stopped se 0.0093458
multiplied se 0.0093458
fixed se 0.0093458
letting se 0.0093458
turned se 0.1121495
held se 0.0093458
drowned se 0.0093458
bent se 0.0093458
naming se 0.0186916
, se 0.0654206
and se 0.0560748
touch se 0.0093458
pointing se 0.0186916
bridling se 0.0093458
calmed se 0.0093458
venture se 0.0093458
turning se 0.0186916
hiding se 0.0093458
closed se 0.0093458
rose se 0.0186916
to se 0.0373832
began se 0.0467290
tapestry se 0.0093458
themselves se 0.0093458
Prune se 0.0093458
hide se 0.0186916
prologue prologue 1.0000000
aldermen échevins 1.0000000
bald chauve 1.0000000
scattering éparpillant 1.0000000
on éclat 0.3333333
in éclat 0.1666667
burst éclat 0.1666667
appearance éclat 0.3333333
shuddered tressaillit 0.5000000
shudder tressaillit 0.5000000
; unanime 0.5000000
unanimous unanime 0.5000000
ceiling cellule 1.0000000
If Si 1.0000000
swine porcos 1.0000000
experience expérience 1.0000000
figures banderasCon 1.0000000
Rym Rym 1.0000000
unhappy malheureux 1.0000000
implicitly plain 0.5000000
trusting plain 0.5000000
princess princesse 1.0000000
as bond 0.3333333
far bond 0.3333333
bound bond 0.3333333
distinctly distinctement 1.0000000
goat chèvre 1.0000000
visibly visiblement 1.0000000
it pièce 0.0769231
decorously pièce 0.1538462
piece pièce 0.4615385
play pièce 0.3076923
melancholy mélancolique 1.0000000
recognizing reconnaissant 1.0000000
NULL regardait 0.2500000
listening regardait 0.1250000
glared regardait 0.1250000
looked regardait 0.2500000
at regardait 0.1250000
them regardait 0.1250000
young jeune 1.0000000
believed fermement 1.0000000
own affaires 1.0000000
curt brèves 1.0000000
imperturbably imperturbable 1.0000000
ranged argotières 0.5000000
female argotières 0.5000000
until durer 0.2000000
last durer 0.2000000
to durer 0.2000000
from durer 0.2000000
noon durer 0.2000000
&apos;t sais 0.2857143
know sais 0.4761905
knows sais 0.0952381
don sais 0.0952381
sentiment sais 0.0476190
played joutaient 0.5000000
&quot; joutaient 0.5000000
saw scie 1.0000000
tiny mignon 0.5000000
poniard mignon 0.5000000
from haut 0.1250000
summit haut 0.1250000
exalted haut 0.2500000
an haut 0.2500000
heights haut 0.1250000
loudly haut 0.1250000
hall salle 0.5714286
whole salle 0.2857143
entire salle 0.1428571
bell sonnette 1.0000000
thorns épines 1.0000000
succeeded parvint 1.0000000
latter criant 1.0000000
pedaso pedaso 0.5000000
bit pedaso 0.5000000
themselves résigner 0.5000000
resign résigner 0.5000000
table table 1.0000000
enliven égayait 1.0000000
Galiot Galiot 1.0000000
brief court 0.2222222
short court 0.5555556
for court 0.2222222
Mademoiselle Mademoiselle 1.0000000
shame fausse 0.5000000
false fausse 0.5000000
you suivie 0.5000000
followed suivie 0.5000000
for dédain 0.5000000
disdain dédain 0.5000000
− poursuivit 0.1428571
went poursuivit 0.2142857
pursued poursuivit 0.2142857
continued poursuivit 0.1428571
on poursuivit 0.2142857
, poursuivit 0.0714286
disdained craignît 0.2500000
or craignît 0.2500000
feared craignît 0.2500000
either craignît 0.2500000
peculiar trait 0.5000000
dominating trait 0.5000000
tried essaya 1.0000000
hardly répondait 1.0000000
and coulant 0.5000000
noose coulant 0.5000000
ram bouc 1.0000000
( ( 1.0000000
angry tigre 0.5000000
an tigre 0.5000000
crozier crosse 1.0000000
was insoutenable 0.5000000
becoming insoutenable 0.5000000
damsels mesdamoiselles 1.0000000
shock électrique 0.3333333
electric électrique 0.6666667
expense frais 1.0000000
truth fond 0.2000000
by fond 0.4000000
heart fond 0.4000000
Peru Pérou 0.6666667
all Pérou 0.3333333
vintage royal 1.0000000
eminent oreille 0.5000000
most oreille 0.5000000
NULL as 0.3333333
possess as 0.6666667
effect théâtre 0.2500000
theatre théâtre 0.2500000
stage théâtre 0.5000000
fore leva 0.1666667
rose leva 0.3333333
its leva 0.1666667
lifted leva 0.1666667
raised leva 0.1666667
sabbath sabbat 0.5000000
&apos; sabbat 0.5000000
be soient 1.0000000
attained furent 1.0000000
carousing ripailler 1.0000000
want voulez-vous 0.1250000
would voulez-vous 0.2500000
you voulez-vous 0.3750000
have voulez-vous 0.2500000
absolutely tenez 0.3333333
insist tenez 0.3333333
so tenez 0.3333333
on Peste 0.3333333
plague Peste 0.3333333
A Peste 0.3333333
later tard 0.5000000
on tard 0.5000000
again rattacha 0.5000000
energy rattacha 0.5000000
deserted déserté 1.0000000
up là-dessus 0.2000000
be là-dessus 0.2000000
there là-dessus 0.2000000
here là-dessus 0.2000000
fine là-dessus 0.2000000
his hocha 0.5000000
tossed hocha 0.5000000
course doute 0.4000000
doubt doute 0.4000000
no doute 0.2000000
grave graves 1.0000000
and Robine 0.5000000
Rabine Robine 0.5000000
surface surface 1.0000000
mere seule 0.5000000
single seule 0.5000000
fellows diables 1.0000000
maidens curieuses 0.5000000
curious curieuses 0.5000000
morality moralité 0.7142857
perfectly moralité 0.1428571
a moralité 0.1428571
sorts douzaines 1.0000000
spare au 0.0103093
in au 0.1134021
fifteenth au 0.0309278
agreeable au 0.0206186
contrary au 0.0206186
witches au 0.0206186
at au 0.0824742
least au 0.0206186
salute au 0.0103093
seat au 0.0103093
reached au 0.0103093
spot au 0.0103093
let au 0.0103093
sprang au 0.0103093
to au 0.0309278
his au 0.0103093
NULL au 0.0103093
edge au 0.0103093
midst au 0.0206186
notary au 0.0103093
followed au 0.0103093
murder au 0.0103093
against au 0.0206186
rope au 0.0103093
curiosity au 0.0206186
the au 0.4536082
you semble 0.5000000
strike semble 0.5000000
in plaire 0.2500000
order plaire 0.2500000
to plaire 0.2500000
please plaire 0.2500000
displeased mécontent 1.0000000
for Quant 0.4000000
Joannes Quant 0.2000000
As Quant 0.4000000
descend passera 0.5000000
shall passera 0.5000000
concealed abeille 0.5000000
wasp abeille 0.5000000
above par-dessus 1.0000000
Gilles Gilles 1.0000000
behold voilà 0.1428571
&apos;s voilà 0.2857143
&quot; voilà 0.1428571
here voilà 0.1428571
fellow voilà 0.2857143
frightened effaré 1.0000000
took horrible 0.2500000
horrible horrible 0.5000000
temptation horrible 0.2500000
hall entière 0.4285714
entire entière 0.2857143
assembly entière 0.2857143
tone accent 0.3333333
NULL accent 0.3333333
accents accent 0.3333333
richness dentro 0.5000000
In dentro 0.5000000
messire messire 1.0000000
into dans 0.0757576
for dans 0.0151515
gracefully dans 0.0151515
in dans 0.5909091
NULL dans 0.0909091
stage dans 0.0303030
amid dans 0.0151515
during dans 0.0303030
purpose dans 0.0151515
blowing dans 0.0151515
from dans 0.0151515
eaves dans 0.0303030
selected dans 0.0303030
out dans 0.0151515
violent dans 0.0151515
undertake charge 0.5000000
to charge 0.5000000
Brussac Brussac 1.0000000
earth-- 29 1.0000000
what quels 0.5000000
knows quels 0.5000000
bar barrait 1.0000000
cardinal cardinale 1.0000000
flounce démener 0.5000000
about démener 0.5000000
trembled tremblait 0.6666667
still tremblait 0.3333333
good bons 1.0000000
hereditary héréditaire 1.0000000
opposite assise 0.2500000
him assise 0.2500000
watched assise 0.2500000
seated assise 0.2500000
day mœurs 1.0000000
Renauld Renault 1.0000000
pallet paillasse 1.0000000
&apos;s façons 0.2857143
it façons 0.1428571
impatient façons 0.2857143
behavior façons 0.2857143
seated accroupi 1.0000000
he pensait-il 0.3333333
half pensait-il 0.3333333
thought pensait-il 0.3333333
candid candide 1.0000000
sudden subites 1.0000000
farce sotie 0.5000000
well sotie 0.5000000
my mes 0.8333333
mine mes 0.1666667
quits maintenant 0.1666667
now maintenant 0.8333333
am trompe 0.5000000
mistaken trompe 0.5000000
she dit-elle 0.5000000
said dit-elle 0.5000000
drowned couvrirent 1.0000000
then aperçut 1.0000000
venture risquer 1.0000000
undid détacha 0.3333333
became détacha 0.3333333
unfastened détacha 0.3333333
interfered mêla 1.0000000
blanks petits-blancs 0.5000000
little petits-blancs 0.5000000
sacred chose 0.3333333
gazing chose 0.1666667
pleasant chose 0.1666667
something chose 0.3333333
The ambassade 0.2857143
embassy ambassade 0.7142857
me appelle-moi 0.2500000
call appelle-moi 0.2500000
comrade appelle-moi 0.2500000
what appelle-moi 0.2500000
true vrai 1.0000000
bottom sorcellerie 1.0000000
soldier soldat 1.0000000
age êtes-vous 0.2500000
ready êtes-vous 0.2500000
you êtes-vous 0.5000000
violent quoique 0.5000000
quaint quoique 0.5000000
NULL été 0.1666667
been été 0.6666667
comedians été 0.1666667
retreated retourné 1.0000000
he répéta-t-il 0.5000000
repeated répéta-t-il 0.5000000
melodies grandes 0.5000000
making grandes 0.5000000
what çà 0.6666667
lances çà 0.3333333
profound profond 0.5000000
a profond 0.5000000
hold tiendrait 0.3333333
would tiendrait 0.3333333
course tiendrait 0.3333333
songs obscène 1.0000000
had eût 0.1200000
have eût 0.4000000
NULL eût 0.0400000
ever eût 0.0800000
would eût 0.3600000
vied entraîna 0.2500000
Each entraîna 0.2500000
dragged entraîna 0.2500000
off entraîna 0.2500000
shops seules 0.5000000
only seules 0.5000000
comedians avaient 0.1250000
upper avaient 0.2500000
had avaient 0.6250000
faces visage 0.2500000
face visage 0.7500000
drew dédaigneuse 0.2500000
disdainful dédaigneuse 0.2500000
up dédaigneuse 0.2500000
her dédaigneuse 0.2500000
listened convenablement 1.0000000
clinked pots 0.3333333
pots pots 0.3333333
broken pots 0.3333333
attempt effort 1.0000000
ease tranquille 1.0000000
beer-drinkers bière 1.0000000
regaining retrouver 1.0000000
disorder désordre 0.5000000
perceptible désordre 0.5000000
accosting vieillards 0.3333333
men vieillards 0.3333333
old vieillards 0.3333333
to entamer 0.5000000
enter entamer 0.5000000
arrow flèche 1.0000000
somewhat peu 0.1304348
NULL peu 0.1304348
rather peu 0.0869565
little peu 0.1739130
hardly peu 0.0869565
revile peu 0.0869565
few peu 0.0869565
half peu 0.0869565
reestablished peu 0.0434783
restored peu 0.0869565
Further Plus 1.0000000
cavalry de 0.0019646
words de 0.0058939
Around de 0.0019646
effect de 0.0019646
&apos;s de 0.0373281
gossips de 0.0039293
created de 0.0039293
instantly de 0.0039293
velvet de 0.0078585
close de 0.0039293
causing de 0.0019646
shake de 0.0019646
soliciting de 0.0019646
feeling de 0.0039293
by de 0.0098232
Notre de 0.0078585
to de 0.0687623
jerkin de 0.0058939
this de 0.0019646
than de 0.0039293
eye de 0.0039293
found de 0.0019646
, de 0.0039293
instant de 0.0039293
gayety de 0.0019646
above de 0.0039293
between de 0.0019646
sorts de 0.0019646
bellringer de 0.0039293
from de 0.0373281
step de 0.0039293
over de 0.0039293
fingering de 0.0039293
redoubled de 0.0039293
reflection de 0.0019646
turpitude de 0.0039293
understood de 0.0019646
slip de 0.0019646
de de 0.0451866
of de 0.4125737
difficulty de 0.0019646
NULL de 0.1119843
on de 0.0196464
loose de 0.0078585
as de 0.0058939
Nothing de 0.0019646
Flemish de 0.0039293
passionate de 0.0019646
Egyptian de 0.0019646
clad de 0.0019646
at de 0.0196464
revery de 0.0039293
great de 0.0019646
in de 0.0117878
immediately de 0.0019646
upon de 0.0019646
laughing de 0.0019646
Hebrew de 0.0019646
rendered de 0.0019646
enjoyed de 0.0039293
into de 0.0039293
for de 0.0137525
soles de 0.0019646
pensive de 0.0019646
much de 0.0078585
railing de 0.0019646
with de 0.0294695
Philippe Philippot 1.0000000
dropped tomber 1.0000000
at jurer 0.3333333
do jurer 0.3333333
swear jurer 0.3333333
wasted perdue 0.2500000
nothing perdue 0.2500000
lost perdue 0.2500000
it perdue 0.2500000
wall occidental 1.0000000
cordially accueil 1.0000000
&quot; Messieurs 0.5000000
Messieurs Messieurs 0.5000000
directed tournée 1.0000000
arrived arrivèrent 1.0000000
they ils 1.0000000
hand main 1.0000000
lost perdu 1.0000000
eyes yeux 0.8333333
his yeux 0.0555556
impudent yeux 0.1111111
like plaira 1.0000000
However Toutefois 1.0000000
vague vague 1.0000000
tumult trouble 1.0000000
your votre 1.0000000
she grommela-t-elle 0.5000000
muttered grommela-t-elle 0.5000000
ago ans 0.3333333
years ans 0.6666667
visual rayons 1.0000000
harangue harangue 1.0000000
fought combattaient 1.0000000
small processionnellement 1.0000000
touched remué 1.0000000
sleeve manche 1.0000000
! messieurs 0.5000000
gentlemen messieurs 0.5000000
clamors clameurs 1.0000000
lowered pudiquement 0.3333333
modestly pudiquement 0.3333333
her pudiquement 0.3333333
beginning commencement 1.0000000
quick vif 0.5000000
alive vif 0.5000000
creeping difforme 1.0000000
throng bourdonnante 1.0000000
had guêpe 0.2500000
wasp guêpe 0.2500000
turned guêpe 0.2500000
into guêpe 0.2500000
clinging cramponner 0.3333333
been cramponner 0.3333333
fast cramponner 0.3333333
; boiserie 0.5000000
woodwork boiserie 0.5000000
NULL noire 0.6666667
doublet noire 0.3333333
coffer cofre 1.0000000
grave jeta 0.1666667
upon jeta 0.1666667
cast jeta 0.1666667
and jeta 0.1666667
said jeta 0.1666667
glance jeta 0.1666667
Murder meurtre 0.2500000
! meurtre 0.2500000
murder meurtre 0.5000000
gossips folles 0.6666667
foolish folles 0.3333333
Pierre Pierre 1.0000000
little médiocrement 0.3333333
a médiocrement 0.3333333
were médiocrement 0.3333333
annual orgie 1.0000000
displeasing bossu 0.2857143
hunchback bossu 0.7142857
bestowed aux 0.0588235
harden aux 0.0294118
the aux 0.1764706
to aux 0.2941176
start aux 0.0294118
expense aux 0.0294118
on aux 0.1470588
&apos;s aux 0.0294118
devotion aux 0.0588235
heels aux 0.0294118
ferryman aux 0.0588235
actors aux 0.0294118
latter aux 0.0294118
was tarda 0.5000000
slow tarda 0.5000000
gypsy bohémienne 0.9230769
law bohémienne 0.0769231
interest intérêt 1.0000000
transition transition 1.0000000
All Tous 1.0000000
without sans 0.9565217
doubt sans 0.0434783
ringing sonner 1.0000000
muzzle taureau 0.2500000
; taureau 0.2500000
it taureau 0.2500000
only taureau 0.2500000
long longtemps 0.4000000
grudge longtemps 0.2000000
ago longtemps 0.4000000
distinctive distinctif 0.5000000
trait distinctif 0.5000000
sister sœur 1.0000000
wisdom preudomies 1.0000000
rustics manants 0.5000000
, manants 0.5000000
knotted magique 1.0000000
quitted bougeait 0.5000000
one bougeait 0.5000000
retreated fit 0.0333333
audible fit 0.0333333
did fit 0.1000000
set fit 0.0333333
started fit 0.0333333
advance fit 0.0333333
advanced fit 0.0333333
made fit 0.3333333
produced fit 0.0666667
around fit 0.0666667
NULL fit 0.0333333
rout fit 0.0333333
noose fit 0.0333333
alarmed fit 0.0333333
abbés fit 0.0666667
pouted fit 0.0333333
obedience obéissance 1.0000000
highest comble 0.3333333
pitch comble 0.3333333
; comble 0.3333333
hanged pendu 0.3750000
hung pendu 0.6250000
turning lances 1.0000000
this Sur-le-champ 0.3333333
instant Sur-le-champ 0.3333333
very Sur-le-champ 0.3333333
that telle 0.3333333
murmur telle 0.3333333
do telle 0.3333333
deuce voulaient-ils 0.3333333
they voulaient-ils 0.3333333
did voulaient-ils 0.3333333
and bonne 0.2222222
good bonne 0.7777778
parts parties 1.0000000
tremble agiter 1.0000000
know savait 0.2500000
not savait 0.2500000
had savait 0.2500000
what savait 0.2500000
that assez 0.1818182
sufficiently assez 0.0909091
indifferent assez 0.1818182
quite assez 0.0909091
considerable assez 0.0909091
verses assez 0.0909091
flattering assez 0.0909091
a assez 0.0909091
enough assez 0.0909091
himself dressa 0.3333333
reared dressa 0.3333333
drew dressa 0.3333333
who brisé 0.2500000
broken brisé 0.2500000
had brisé 0.2500000
been brisé 0.2500000
rendered rendait 1.0000000
made tenta 1.0000000
harbour rancune 0.2857143
&apos;t rancune 0.2857143
grudge rancune 0.1428571
grudges rancune 0.2857143
friend ami 1.0000000
sou parisis 1.0000000
Fountain fontaine 0.5000000
Ponceau fontaine 0.5000000
humor mauvaise 0.5000000
&apos;s mauvaise 0.5000000
office office 1.0000000
each accostaient 0.5000000
other accostaient 0.5000000
suddenly coup 0.3636364
once coup 0.0909091
shot coup 0.0909091
gust coup 0.0909091
blow coup 0.0909091
shouted coup 0.0909091
grave coup 0.0909091
assailed coup 0.0909091
keep garder 1.0000000
himself redressant 0.3333333
drawing redressant 0.3333333
up redressant 0.3333333
strange étrange 1.0000000
Do Savez-vous 0.3333333
know Savez-vous 0.3333333
you Savez-vous 0.3333333
spare faisons 0.5000000
gladly faisons 0.5000000
figures figuras 0.5000000
to figuras 0.5000000
Chante Chante-Prune 0.3333333
Prune Chante-Prune 0.3333333
− Chante-Prune 0.3333333
violent gracieuse 0.5000000
though gracieuse 0.5000000
at déchiré 0.5000000
rent déchiré 0.5000000
rascals misérables 1.0000000
bare nu 1.0000000
vain vain 1.0000000
horrible vilain 1.0000000
( Voyez 1.0000000
deaf sourd 0.8000000
, sourd 0.2000000
fat gros 0.1818182
big gros 0.5454545
Loud gros 0.0909091
great gros 0.1818182
on groins 1.0000000
Nevertheless Pourtant 1.0000000
NULL argile 1.0000000
~ mancia 0.5000000
mancia mancia 0.5000000
geometrical géométriques 1.0000000
Guillemette Guillemette 1.0000000
a tant 0.1250000
thoroughly tant 0.1250000
so tant 0.7500000
will apaisera 0.5000000
appease apaisera 0.5000000
quality qualité 0.7500000
your qualité 0.2500000
to était-il 0.5000000
himself était-il 0.5000000
retorted reprenait 0.5000000
resumed reprenait 0.5000000
him vit 0.2500000
beheld vit 0.2500000
saw vit 0.2500000
that vit 0.2500000
they appartient-il 0.3333333
belong appartient-il 0.3333333
do appartient-il 0.3333333
removing enlever 1.0000000
Do Aimez-vous 0.3333333
love Aimez-vous 0.3333333
you Aimez-vous 0.3333333
provost prévôt 1.0000000
gift don 1.0000000
my ma 1.0000000
disrespect populaire 0.2500000
populace populaire 0.7500000
great mélodies 0.5000000
melodies mélodies 0.5000000
creeping reptile 1.0000000
pains coûte 1.0000000
disturbing troubler 1.0000000
taverns fermer 1.0000000
foot cap 0.3333333
with cap 0.3333333
his cap 0.3333333
end finisse 1.0000000
those Ou 0.5000000
Or Ou 0.5000000
intrigues intrigues 1.0000000
lent souvent 1.0000000
grimaces fastidieuses 1.0000000
points points 1.0000000
ugliness laideur 1.0000000
same même 0.6000000
one même 0.1000000
effaced même 0.1000000
even même 0.1000000
NULL même 0.1000000
sacred jour-là 0.1818182
customs jour-là 0.1818182
That jour-là 0.0909091
day jour-là 0.5454545
Father saint-père 1.0000000
think trouvez-vous 0.2000000
of trouvez-vous 0.2000000
it trouvez-vous 0.2000000
you trouvez-vous 0.2000000
do trouvez-vous 0.2000000
peal carillon 1.0000000
which laquelle 1.0000000
hungry faim 0.5000000
is faim 0.5000000
to semblait 0.5000000
seemed semblait 0.3750000
listen semblait 0.1250000
because peut-être 0.3333333
perhaps peut-être 0.3333333
probably peut-être 0.3333333
So Maraud 1.0000000
suppose si 0.0384615
if si 0.1538462
If si 0.0384615
so si 0.5384615
myself si 0.0384615
in si 0.0384615
NULL si 0.0769231
such si 0.0769231
aspects chantant 0.5000000
as chantant 0.5000000
spoke parlait 1.0000000
sirens sirènes 1.0000000
step léger 1.0000000
that apercevait 0.1666667
perceived apercevait 0.1666667
on apercevait 0.1666667
was apercevait 0.1666667
going apercevait 0.1666667
nothing apercevait 0.1666667
he Aussi 0.1000000
As Aussi 0.2000000
Thus Aussi 0.1000000
So Aussi 0.3000000
they Aussi 0.2000000
did Aussi 0.1000000
of produisit 0.3333333
produced produisit 0.3333333
the produisit 0.3333333
their amenèrent 0.2500000
him amenèrent 0.2500000
led amenèrent 0.2500000
clutches amenèrent 0.2500000
Each Chacun 0.6250000
one Chacun 0.3750000
mount sur 0.0188679
on sur 0.4716981
mounted sur 0.0377358
over sur 0.0566038
upper sur 0.0377358
upon sur 0.3396226
around sur 0.0377358
together ressoudé 0.5000000
again ressoudé 0.5000000
lodge loge 1.0000000
&apos;s entré 0.5000000
entrance entré 0.5000000
by gouttière 0.5000000
night gouttière 0.5000000
scowled fronça 1.0000000
NULL poète 0.0555556
poet poète 0.9444444
into conversation 0.2500000
a conversation 0.1250000
conversation conversation 0.6250000
this ce 0.1898734
know ce 0.0379747
unable ce 0.0126582
open ce 0.0126582
magic ce 0.0126582
numerous ce 0.0253165
streets ce 0.0126582
what ce 0.1139241
hereditary ce 0.0253165
aware ce 0.0253165
moment ce 0.0126582
breaking ce 0.0126582
that ce 0.2531646
meaning ce 0.0126582
sacred ce 0.0253165
few ce 0.0253165
hellish ce 0.0126582
the ce 0.0632911
NULL ce 0.0886076
be ce 0.0253165
politician politique 1.0000000
smiling sourire 0.1428571
smile sourire 0.5714286
hereditary sourire 0.2857143
pay payer 1.0000000
very échangeaient 0.3333333
were échangeaient 0.3333333
exchanging échangeaient 0.3333333
Remy Grand-Remy 0.3333333
Grand Grand-Remy 0.3333333
− Grand-Remy 0.3333333
laughter désordonnés 0.5000000
disorderly désordonnés 0.5000000
too fier 0.5000000
implicitly fier 0.5000000
ate mangeait 1.0000000
winter hiver 0.6666667
such hiver 0.3333333
Jehan Jehan 0.8888889
&quot; Jehan 0.1111111
a menait 0.2000000
joyous menait 0.2000000
cardinal menait 0.2000000
he menait 0.2000000
led menait 0.2000000
all tout-puissant 0.3333333
− tout-puissant 0.3333333
powerful tout-puissant 0.3333333
one probablement 1.0000000
Accursed Maudite 1.0000000
laying mettrait 0.3333333
thrusting mettrait 0.6666667
illustrious illustre 1.0000000
Poor Pauvre 1.0000000
delighted ravi 0.5000000
at ravi 0.5000000
man homme 1.0000000
comedians forcés 0.5000000
forced forcés 0.5000000
if digérerais 0.5000000
digested digérerais 0.5000000
behind entra 0.5000000
entered entra 0.5000000
concealed cacha 1.0000000
neither sachant 0.5000000
knowing sachant 0.5000000
; Saint-Michel 0.2000000
Pont Saint-Michel 0.2000000
Saint Saint-Michel 0.2000000
− Saint-Michel 0.2000000
Michel Saint-Michel 0.2000000
a diversion 1.0000000
again recommencer 0.2000000
all recommencer 0.2000000
over recommencer 0.2000000
it recommencer 0.2000000
begin recommencer 0.2000000
stratagem stratagème 1.0000000
We croire 1.0000000
living trépied 1.0000000
a paru 0.2500000
appearance paru 0.2500000
made paru 0.2500000
brilliant paru 0.2500000
figures nuevas 0.5000000
With nuevas 0.5000000
windows fenêtre 1.0000000
strike sembler 0.5000000
may sembler 0.5000000
that soucier 0.3333333
caring soucier 0.3333333
he soucier 0.3333333
they petits 0.3333333
sang petits 0.3333333
little petits 0.3333333
doing meilleure 0.2000000
best meilleure 0.4000000
grace meilleure 0.4000000
caress caresser 1.0000000
To Aujourd 1.0000000
! Djali 0.1250000
Djali Djali 0.8750000
impression elle 0.0909091
it elle 0.0454545
NULL elle 0.0909091
she elle 0.7272727
distiches elle 0.0454545
hopes amoureuses 0.3333333
. amoureuses 0.3333333
amorous amoureuses 0.3333333
Michel Michel 1.0000000
music musique 1.0000000
by passants 0.2000000
thus passants 0.2000000
passers passants 0.2000000
following passants 0.2000000
− passants 0.2000000
men gens 0.3333333
courtiers gens 0.1666667
people gens 0.1666667
dignitaries gens 0.3333333
tribe tribu 1.0000000
revile maugréer 1.0000000
are avantages 0.5000000
advantages avantages 0.5000000
their hausser 0.5000000
raise hausser 0.5000000
her cachant 0.5000000
hiding cachant 0.5000000
plunge enfoncer 0.5000000
into enfoncer 0.5000000
isn bête 0.2500000
yours bête 0.2500000
animal bête 0.2500000
of bête 0.2500000
sir &#93; 0.3333333
) &#93; 0.3333333
earth-- &#93; 0.3333333
Demoiselle demoiselle 0.2500000
− demoiselle 0.2500000
dragon demoiselle 0.2500000
fly demoiselle 0.2500000
applauded applaudissaient 1.0000000
Cupido Cupido 1.0000000
broad présentait 1.0000000
his Dès 0.1666667
soon Dès 0.1666667
illustrious Dès 0.1666667
As Dès 0.1666667
eminence Dès 0.1666667
as Dès 0.1666667
even jusque 1.0000000
hat chapeau 1.0000000
heavy lourde 1.0000000
Dame Notre-Dame 0.5000000
− Notre-Dame 0.5000000
throws nous 0.0869565
gentlemen nous 0.0434783
we nous 0.3913043
NULL nous 0.0434783
us nous 0.2173913
pains nous 0.0434783
archduke nous 0.0434783
to nous 0.0434783
unable nous 0.0434783
Marchand nous 0.0434783
called appelle-t-on 1.0000000
noose nœud 1.0000000
nature nature 0.6666667
different nature 0.3333333
pocket certainement 0.5000000
he certainement 0.5000000
bridal épithalame 0.5000000
song épithalame 0.5000000
chimera chimère 1.0000000
me me 0.4090909
&quot; me 0.0454545
do me 0.0454545
wilt me 0.0454545
does me 0.0454545
They me 0.0454545
took me 0.0454545
break me 0.0454545
undertake me 0.0454545
myself me 0.0454545
breaking me 0.0454545
mistaken me 0.0909091
comes me 0.0454545
on outre 0.5000000
passed outre 0.5000000
So Ainsi 1.0000000
interrupted danse 1.0000000
chin hauteur 1.0000000
Maugerepuis Maugerepuis 1.0000000
interrupting interrompre 0.3333333
interrupted interrompre 0.3333333
was interrompre 0.3333333
Deaf Sourd 1.0000000
) ) 1.0000000
enormities énormités 1.0000000
movement nouveau 0.1666667
newcomer nouveau 0.1666667
new nouveau 0.1666667
advanced nouveau 0.1666667
another nouveau 0.3333333
one celui-là 0.5000000
this celui-là 0.5000000
case cas 1.0000000
for Car 1.0000000
word parole 0.4000000
addressed parole 0.6000000
once fois 0.0909091
sought fois 0.0909091
both fois 0.1818182
more fois 0.1818182
Once fois 0.1818182
time fois 0.2727273
addressed adressa 1.0000000
age âge 0.5000000
did âge 0.5000000
Etc Etc 0.6666667
etc Etc 0.3333333
executed faites 1.0000000
wife femme 0.1666667
woman femme 0.8333333
his embarras 0.2000000
embarrassment embarras 0.2000000
him embarras 0.2000000
from embarras 0.2000000
rescue embarras 0.2000000
slightest moindre 1.0000000
fifteen quinze 1.0000000
moustache moustache 1.0000000
fidelity fidélité 1.0000000
bit mordit 0.5000000
his mordit 0.5000000
philosophers philosophes 1.0000000
dramatic dramatique 0.5000000
moment dramatique 0.5000000
land pays 0.5000000
the pays 0.5000000
humiliating humiliant 0.5000000
by humiliant 0.5000000
Saint Sainte-Geneviève 0.5000000
Geneviéve Sainte-Geneviève 0.5000000
in demi-voix 1.0000000
vas vas 0.5000000
are vas 0.5000000
parody parodie 1.0000000
crock cruche 0.6666667
jug cruche 0.3333333
muffled embéguinées 1.0000000
again respira 0.2000000
more respira 0.2000000
breathed respira 0.4000000
once respira 0.2000000
&apos;s mufle 0.5000000
bull mufle 0.5000000
pleasant riantes 1.0000000
familiarly familièrement 1.0000000
Chateau Château 1.0000000
hurling jeter 1.0000000
profanation profanation 1.0000000
buona buona 0.3333333
~ buona 0.3333333
La buona 0.3333333
everywhere partout 1.0000000
buen buen 0.5000000
echar buen 0.5000000
repleta repleta 1.0000000
Gadine Gadine 1.0000000
of cria 0.1428571
shouted cria 0.4285714
cried cria 0.4285714
de Ballestas 0.3333333
buen Ballestas 0.3333333
Ballestas Ballestas 0.3333333
glance alla 0.5000000
set alla 0.5000000
as violette 0.3333333
target violette 0.3333333
his violette 0.3333333
noonday midi 0.5000000
noon midi 0.5000000
stanza stance 1.0000000
well confier 1.0000000
charmed charmé 1.0000000
over comptait 0.5000000
counted comptait 0.5000000
triumph triomphe 0.6000000
lucky triomphe 0.4000000
uttering prononcer 1.0000000
M. M. 1.0000000
Monsieur monsieur 0.2500000
monsieur monsieur 0.5000000
appease monsieur 0.0625000
rector monsieur 0.0625000
sir monsieur 0.1250000
comedy comédie 1.0000000
stupor stupeur 0.3333333
having stupeur 0.3333333
passed stupeur 0.3333333
Old Vieux 1.0000000
fled envolée 0.2500000
has envolée 0.2500000
warbler envolée 0.2500000
and envolée 0.2500000
will seras 0.5000000
be seras 0.5000000
advantage avantage 0.3333333
to avantage 0.3333333
me avantage 0.3333333
addressing adressant 1.0000000
your pardon 0.5000000
pardon pardon 0.5000000
sharp aigre 0.5000000
voice aigre 0.5000000
a force 0.2500000
top force 0.2500000
consequence force 0.2500000
number force 0.2500000
scene excita 0.5000000
such excita 0.5000000
escort ecclésiastique 1.0000000
of du 0.3005780
devoutness du 0.0057803
artillery du 0.0057803
NULL du 0.0057803
Courts du 0.0057803
guts du 0.0057803
the du 0.4797688
Ponceau du 0.0057803
doublet du 0.0057803
neighboring du 0.0057803
Belly du 0.0115607
stamp du 0.0057803
at du 0.0115607
chin du 0.0057803
possession du 0.0057803
Nombrill du 0.0057803
trait du 0.0115607
procurator du 0.0115607
hour du 0.0057803
from du 0.0173410
Latin du 0.0057803
pointed du 0.0057803
darkest du 0.0057803
Menelean du 0.0057803
seals du 0.0231214
heart du 0.0115607
Subject du 0.0057803
bread du 0.0057803
object du 0.0115607
last Enfin 0.1666667
length Enfin 0.3333333
At Enfin 0.5000000
abstain faisaient-ils 1.0000000
beam transversale 1.0000000
in glisser 0.2500000
slipped glisser 0.2500000
slip glisser 0.2500000
from glisser 0.2500000
Cour Cour 0.6000000
Court Cour 0.4000000
events événements 1.0000000
monkey singe 0.5000000
! singe 0.5000000
elected élu 0.5000000
been élu 0.5000000
Hasn Est-ce 0.3333333
&apos;t Est-ce 0.3333333
Are Est-ce 0.3333333
devised imagina 1.0000000
held tenaient 1.0000000
were riaient 0.5000000
laughing riaient 0.5000000
me suiviez-vous 0.2500000
you suiviez-vous 0.2500000
were suiviez-vous 0.2500000
following suiviez-vous 0.2500000
hear entendait 0.3333333
heard entendait 0.6666667
many œil 0.2857143
too œil 0.2857143
eye œil 0.2857143
NULL œil 0.1428571
The Tout 0.3333333
All Tout 0.6666667
was promenait 0.5000000
sending promenait 0.5000000
me moi 0.4000000
NULL moi 0.1000000
− moi 0.2000000
I moi 0.3000000
Archbishop archevêque 1.0000000
Say Dites 0.6666667
&quot; Dites 0.3333333
Are Y 1.0000000
terrified terrifié 1.0000000
cassocks soutane 0.3333333
black soutane 0.6666667
cabin cabane 1.0000000
removed quittait 0.5000000
his quittait 0.5000000
about autour 0.1000000
howling autour 0.1000000
created autour 0.2000000
tip autour 0.1000000
was autour 0.2000000
around autour 0.2000000
round autour 0.1000000
mind distractions 0.3333333
absence distractions 0.3333333
of distractions 0.3333333
usher huissier 1.0000000
show doit 0.4000000
must doit 0.6000000
soliciting sollicitait 0.5000000
was sollicitait 0.5000000
legs derrière 0.3333333
behind derrière 0.6666667
bacchanal bacchanale 0.5000000
entire bacchanale 0.5000000
begin commencerons 0.5000000
will commencerons 0.5000000
it voici 0.3333333
is voici 0.3333333
here voici 0.3333333
speedily vite 0.5000000
quickly vite 0.5000000
habituated habitués 1.0000000
frail chétive 1.0000000
Pillar Maison-aux-Piliers 0.5000000
House Maison-aux-Piliers 0.5000000
to fouiller 0.5000000
search fouiller 0.5000000
deserves mérite 0.5000000
well mérite 0.5000000
layman laïque 1.0000000
Certainly Certes 1.0000000
... expliquer 1.0000000
on un 0.0111111
attach un 0.0111111
rather un 0.0111111
somewhat un 0.0055556
NULL un 0.0444444
lying un 0.0055556
clapping un 0.0055556
me un 0.0055556
an un 0.0611111
attempt un 0.0055556
, un 0.0277778
one un 0.1055556
the un 0.0166667
a un 0.5944444
another un 0.0388889
started un 0.0055556
Silence un 0.0055556
tambourine un 0.0055556
profound un 0.0055556
violent un 0.0055556
revile un 0.0111111
reestablished un 0.0055556
Holy un 0.0055556
cold froide 1.0000000
bread 23 1.0000000
Thanks Merci 1.0000000
confounding possible 0.5000000
himself possible 0.5000000
cause souci 1.0000000
His commotion 0.5000000
emotion commotion 0.5000000
themselves parts 0.3333333
sides parts 0.6666667
Should pendre 0.0833333
be pendre 0.1666667
hung pendre 0.0833333
you pendre 0.1666667
hanged pendre 0.0833333
to pendre 0.1666667
hang pendre 0.1666667
yourself pendre 0.0833333
door porte 0.4285714
threshold porte 0.2857143
wears porte 0.2857143
search fouillerai 0.3333333
&apos;ll fouillerai 0.3333333
anything fouillerai 0.3333333
Pardon Pardonnez-moi 1.0000000
magistrate magistrat 1.0000000
la Esmeralda 0.1250000
Esmeralda Esmeralda 0.5625000
&apos; Esmeralda 0.2500000
dagger Esmeralda 0.0625000
blarney matagraboliser 0.5000000
us matagraboliser 0.5000000
Gringoire Gringoire 1.0000000
was péripétie 0.3333333
change péripétie 0.6666667
selected venus 0.5000000
from venus 0.5000000
added ajoutait 0.5000000
&quot; ajoutait 0.5000000
Horrible Horrible 1.0000000
And Après 0.3333333
then Après 0.3333333
After Après 0.3333333
fine fière 1.0000000
&quot; maudite 0.5000000
accursed maudite 0.5000000
petrified pétrifiée 1.0000000
I Moi 1.0000000
NULL aussi 0.1250000
believe aussi 0.1250000
play aussi 0.1250000
talk aussi 0.1250000
also aussi 0.5000000
from manquait 0.3333333
himself manquait 0.3333333
conceal manquait 0.3333333
Coutellerie Coutellerie 0.6666667
la Coutellerie 0.3333333
hesitation hésitation 1.0000000
exclaimed écria 0.7500000
NULL écria 0.2500000
− serait 1.0000000
bull dogue 1.0000000
have laisser 0.3333333
allowed laisser 0.3333333
Should laisser 0.3333333
walk courent 1.0000000
on tache 0.5000000
a tache 0.5000000
nothing restait 1.0000000
became devenu 1.0000000
doublet feutre 1.0000000
keeper concierge 1.0000000
wished voulait 0.5000000
person voulait 0.5000000
also était 0.0090090
beautiful était 0.0090090
attacked était 0.0180180
water était 0.0090090
NULL était 0.0450450
man était 0.0360360
been était 0.0180180
had était 0.1531532
was était 0.6756757
were était 0.0180180
gratifying était 0.0090090
Go Allez 1.0000000
some émietter 0.5000000
crumble émietter 0.5000000
open ouvre 0.5000000
sluice ouvre 0.5000000
silent garda 0.5000000
remained garda 0.5000000
great grands 1.0000000
cauldron chaudron 1.0000000
~ Alarabes 1.0000000
name appelez-vous 0.3333333
is appelez-vous 0.3333333
your appelez-vous 0.3333333
she continua-t-elle 0.3333333
&quot; continua-t-elle 0.3333333
continued continua-t-elle 0.3333333
consequently conséquent 1.0000000
Quasimodo Quasimodo 0.9411765
made Quasimodo 0.0294118
shake Quasimodo 0.0294118
S Mort-Christ 0.5000000
&apos;death Mort-Christ 0.5000000
Frollo Frollo 1.0000000
cut à 0.0084388
some à 0.0042194
because à 0.0042194
to à 0.2995781
what à 0.0126582
deafening à 0.0084388
upon à 0.0168776
in à 0.1054852
along à 0.0042194
dancer à 0.0042194
poor à 0.0042194
seeing à 0.0084388
at à 0.0759494
&apos; à 0.0042194
beneath à 0.0042194
approbation à 0.0042194
reaching à 0.0084388
aloud à 0.0042194
a à 0.0126582
few à 0.0042194
suddenly à 0.0084388
alarmed à 0.0042194
with à 0.0421941
any à 0.0042194
unless à 0.0042194
his à 0.0210970
quick à 0.0042194
for à 0.0084388
turned à 0.0084388
into à 0.0042194
allied à 0.0084388
off à 0.0168776
pond à 0.0042194
untoward à 0.0042194
slipped à 0.0042194
well à 0.0084388
restored à 0.0042194
through à 0.0168776
welled à 0.0084388
attacked à 0.0084388
assailed à 0.0042194
lay à 0.0084388
addressing à 0.0042194
until à 0.0042194
passed à 0.0084388
attained à 0.0084388
before à 0.0042194
half à 0.0168776
surnames à 0.0084388
dish à 0.0042194
on à 0.0464135
lofty à 0.0042194
Frollo à 0.0084388
NULL à 0.0675105
far à 0.0042194
himself à 0.0042194
master Maître 0.0833333
Master Maître 0.6666667
&quot; Maître 0.2500000
&apos;s déplaisante 1.0000000
Alas Hélas 1.0000000
fallen endormait 0.3333333
had endormait 0.3333333
asleep endormait 0.3333333
fact effet 0.5500000
truth effet 0.1500000
in effet 0.0500000
effect effet 0.2500000
discharge décharge 1.0000000
been servi 0.3333333
played servi 0.3333333
yet servi 0.3333333
according règles 0.3333333
to règles 0.3333333
rules règles 0.3333333
Thibaut Thibaut 1.0000000
town ville 0.1428571
refreshments ville 0.1428571
city ville 0.7142857
Célestins Célestins 1.0000000
cats chats 1.0000000
gravity gravité 1.0000000
− vînt 1.0000000
passed passa 1.0000000
day journée 1.0000000
necessary faut 0.1111111
must faut 0.5555556
you faut 0.1111111
? faut 0.1111111
A faut 0.1111111
also entourait 0.1666667
which entourait 0.1666667
surrounded entourait 0.1666667
him entourait 0.1666667
auditors entourait 0.1666667
were entourait 0.1666667
clock horloge 1.0000000
pavements pavé 1.0000000
dog bouledogue 0.3333333
bull bouledogue 0.3333333
− bouledogue 0.3333333
directed étant 0.3333333
being étant 0.3333333
all étant 0.3333333
claws griffes 1.0000000
comedians comédiens 1.0000000
passers passantes 0.3333333
− passantes 0.3333333
by passantes 0.3333333
Laughter Les 0.0833333
Pots Les 0.0833333
The Les 0.7500000
Big Les 0.0833333
light allumer 0.5000000
it allumer 0.5000000
because cause 1.0000000
patiently patiemment 1.0000000
letting tirait 0.5000000
held tirait 0.5000000
NULL basque 1.0000000
sigh soupir 1.0000000
threshold seuil 1.0000000
Boudraque Boudraque 1.0000000
distiches Martial 1.0000000
even denier 1.0000000
assailed assaillir 1.0000000
good choqué 0.2500000
by choqué 0.2500000
shocked choqué 0.2500000
deal choqué 0.2500000
etc etc. 0.5000000
. etc. 0.5000000
quick plaie 1.0000000
together nouait 1.0000000
month mois 1.0000000
rescue secours 1.0000000
had revenait 0.5000000
returned revenait 0.5000000
wave geste 1.0000000
sort taille 0.3333333
waist taille 0.3333333
enjoy taille 0.3333333
play jouer 1.0000000
Marchand Marchand 1.0000000
earth-- tierra 1.0000000
NULL hardiment 1.0000000
deserve papauté 0.3333333
pope papauté 0.3333333
be papauté 0.3333333
ask Pouvez-vous 0.3333333
Can Pouvez-vous 0.3333333
you Pouvez-vous 0.3333333
enough comme 0.0270270
though comme 0.1891892
as comme 0.4864865
like comme 0.2702703
comrade comme 0.0270270
Grand grand-salle 0.5000000
Hall grand-salle 0.5000000
cudgelled battu 1.0000000
Guichard Guichard 1.0000000
chief chef 1.0000000
Menelean mont 1.0000000
advanced avança 1.0000000
remarks observa 0.4000000
&quot; observa 0.4000000
remarked observa 0.2000000
Duke duc 1.0000000
officer officier 1.0000000
ragged couverte 1.0000000
&quot; murmura 0.5000000
murmured murmura 0.5000000
Around Autour 1.0000000
lucky sortir 1.0000000
his face 0.2222222
opposite face 0.1111111
earth face 0.1111111
face face 0.5555556
Thunes Thunes 1.0000000
cross carrefours 0.5000000
roads carrefours 0.5000000
beat battrons 1.0000000
Dreux Dreux-Raguier 0.5000000
Raguier Dreux-Raguier 0.5000000
admire laissant 0.3333333
to laissant 0.3333333
them laissant 0.3333333
trait dominant 1.0000000
unknown foule 0.1333333
crowd foule 0.8000000
NULL foule 0.0666667
gayety gaieté 1.0000000
fact dissimuler 1.0000000
erected dressé 1.0000000
coins monnaie 1.0000000
your fais 0.3333333
do fais 0.3333333
call fais 0.3333333
presented entrer 1.0000000
heard entendu 1.0000000
buzzing cohue 0.5000000
populace cohue 0.5000000
running courant 1.0000000
myself noierais 0.2000000
would noierais 0.2000000
gladly noierais 0.2000000
drown noierais 0.2000000
were noierais 0.2000000
immediately suite 0.0833333
train suite 0.1666667
NULL suite 0.0833333
continuation suite 0.0833333
understood suite 0.0833333
instant suite 0.0833333
once suite 0.1666667
instantly suite 0.1666667
it suite 0.0833333
dignity dignité 1.0000000
me jetez-moi 0.5000000
toss jetez-moi 0.5000000
la Agnès 0.5000000
Agnes Agnès 0.5000000
! cape 0.5000000
cloak cape 0.5000000
knaves ces 0.0909091
unbridled ces 0.1818182
the ces 0.1818182
incongruous ces 0.0909091
NULL ces 0.0909091
these ces 0.3636364
of croix-Dieu 0.2500000
cross croix-Dieu 0.2500000
? croix-Dieu 0.2500000
God croix-Dieu 0.2500000
NULL critique 0.3333333
critical critique 0.6666667
clung lâchait 0.5000000
to lâchait 0.5000000
free libre 1.0000000
Charles Charles 1.0000000
speechless resta 0.1428571
remained resta 0.4285714
thoughtful resta 0.1428571
stopped resta 0.2857143
king roi 0.7200000
King roi 0.2800000
unknown ignorées 1.0000000
clerks basoche 0.2727273
corporation basoche 0.1818182
of basoche 0.2727273
fraternity basoche 0.0909091
Law basoche 0.1818182
me lâchez-moi 0.5000000
yield lâchez-moi 0.5000000
Perhaps Peut-être 1.0000000
lungs poumons 1.0000000
Messeigneurs Messeigneurs 1.0000000
&apos;t oiseaux 0.2500000
wasn oiseaux 0.2500000
birds oiseaux 0.5000000
thunder tonnerre 1.0000000
consecutive jours 0.3333333
day jours 0.3333333
days jours 0.3333333
amorous espérances 1.0000000
you dites-vous 0.5000000
say dites-vous 0.5000000
pots ébréchés 1.0000000
hooting huées 1.0000000
iron jatte 1.0000000
Monsieur monseigneur 0.1428571
monseigneur monseigneur 0.4285714
Monseigneur monseigneur 0.2857143
length monseigneur 0.1428571
passed passé 0.6666667
it passé 0.3333333
your politesses 0.2500000
&apos;s politesses 0.5000000
politeness politesses 0.2500000
limps boite 1.0000000
favor crédit 1.0000000
tambourine tambour 0.8000000
NULL tambour 0.2000000
to inutile 0.3333333
add inutile 0.3333333
useless inutile 0.3333333
Has Votre 0.1666667
Your Votre 0.8333333
especially surtout 0.3333333
joy surtout 0.3333333
surtout surtout 0.3333333
him ’ 0.0085227
Egyptian ’ 0.0042614
restrained ’ 0.0028409
some ’ 0.0014205
are ’ 0.0042614
hear ’ 0.0085227
Argot ’ 0.0028409
to ’ 0.0184659
then ’ 0.0014205
stranger ’ 0.0071023
have ’ 0.0113636
is ’ 0.0028409
He ’ 0.0014205
boldly ’ 0.0028409
entrance ’ 0.0056818
other ’ 0.0170455
, ’ 0.0028409
was ’ 0.0042614
one ’ 0.0028409
only ’ 0.0014205
man ’ 0.0056818
usher ’ 0.0085227
a ’ 0.0014205
sign ’ 0.0014205
student ’ 0.0014205
soul ’ 0.0028409
audience ’ 0.0071023
interior ’ 0.0014205
Archduke ’ 0.0014205
friendship ’ 0.0014205
embassy ’ 0.0014205
hosier ’ 0.0014205
that ’ 0.0085227
neither ’ 0.0071023
herself ’ 0.0014205
bald ’ 0.0042614
more ’ 0.0014205
went ’ 0.0014205
accents ’ 0.0014205
it ’ 0.0596591
the ’ 0.0028409
&apos;m ’ 0.0028409
NULL ’ 0.7514205
estrade ’ 0.0042614
insolence ’ 0.0014205
himself ’ 0.0042614
stolen fourvoyé 0.5000000
in fourvoyé 0.5000000
ceased cessé 0.6666667
never cessé 0.3333333
fortunate heureux 1.0000000
would mériterais 0.5000000
deserve mériterais 0.5000000
impression impression 0.3333333
produced impression 0.3333333
disagreeable impression 0.3333333
NULL envoie 1.0000000
reached arriva 1.0000000
been apaisés 0.5000000
stilled apaisés 0.5000000
are allez 0.5000000
going allez 0.5000000
, par 0.0263158
most par 0.0526316
troubled par 0.0526316
arched par 0.0263158
from par 0.0526316
brow par 0.0263158
pluck par 0.0263158
heedlessness par 0.0263158
our par 0.0526316
in par 0.0789474
begun par 0.0263158
by par 0.5263158
about par 0.0263158
repeating répétant 0.6666667
from répétant 0.3333333
bacchante bacchante 1.0000000
touch touchent 1.0000000
songs bergerettes 0.5000000
bergerettes bergerettes 0.5000000
friendship amitié 1.0000000
There Il 0.0533333
A Il 0.0133333
You Il 0.0133333
he Il 0.0266667
led Il 0.0266667
first Il 0.0133333
So Il 0.0266667
Assuming Il 0.0133333
He Il 0.5733333
It Il 0.0933333
We Il 0.0133333
Both Il 0.0133333
Silence Il 0.0133333
NULL Il 0.0933333
must Il 0.0133333
musical phrase 1.0000000
was souleva 0.5000000
raised souleva 0.5000000
present assistance 0.6000000
those assistance 0.4000000
followed succédé 1.0000000
venerable vénérables 1.0000000
Jew barbu 1.0000000
maids filles 0.1250000
girls filles 0.5000000
loose filles 0.2500000
played filles 0.1250000
among parmi 1.0000000
Theatrical Coup 1.0000000
on boues 0.5000000
mud boues 0.5000000
yellow cuivre 1.0000000
western mur 0.2500000
at mur 0.2500000
something mur 0.2500000
wall mur 0.2500000
Bailiff Monsieur 0.0909091
Monsieur Monsieur 0.9090909
Mademoiselle mademoiselle 0.3333333
mademoiselle mademoiselle 0.6666667
him rôder 0.3333333
round rôder 0.3333333
prowling rôder 0.3333333
clinked trinquaient 1.0000000
eye oculaire 0.5000000
witness oculaire 0.5000000
marrying épousant 1.0000000
chimneys les 0.0142857
eyes les 0.0214286
thorns les 0.0071429
eight les 0.0142857
roads les 0.0071429
bells les 0.0071429
Messieurs les 0.0142857
NULL les 0.0642857
muscles les 0.0071429
styles les 0.0071429
of les 0.0071429
front les 0.0071429
voices les 0.0071429
clasped les 0.0071429
the les 0.4071429
targes les 0.0071429
honest les 0.0071429
tighter les 0.0071429
taverns les 0.0071429
his les 0.1071429
Parisians les 0.0142857
assailants les 0.0071429
mouths les 0.0142857
female les 0.0071429
quarrels les 0.0071429
purpose les 0.0142857
laying les 0.0071429
parts les 0.0142857
plebeian les 0.0071429
two les 0.0071429
applause les 0.0142857
blanks les 0.0071429
dagger les 0.0071429
their les 0.0142857
first les 0.0071429
were les 0.0142857
gypsies les 0.0071429
heads les 0.0142857
ears les 0.0142857
them les 0.0642857
audience parterre 0.5000000
among parterre 0.5000000
Chains Chaînettes 1.0000000
; attaqué 1.0000000
lacks manque 1.0000000
then puis 1.0000000
address dois-je 1.0000000
saluted fièrement 1.0000000
Oh Ô 1.0000000
for pensive 1.0000000
ought aurait 0.1666667
would aurait 0.3333333
be aurait 0.3333333
university aurait 0.1666667
unseasonable intempestive 1.0000000
points dont 0.0769231
, dont 0.2307692
manner dont 0.0769231
personage dont 0.1538462
whose dont 0.2307692
which dont 0.2307692
went partit 0.5000000
suddenly partit 0.5000000
gently mollement 1.0000000
on casque 0.3333333
a casque 0.3333333
hemlet casque 0.3333333
abbé abbé 0.5000000
Abbé abbé 0.5000000
bleat bêler 1.0000000
themselves deux 0.0500000
Marchand deux 0.0500000
NULL deux 0.0500000
two deux 0.7500000
plunge deux 0.0500000
dames deux 0.0500000
Pont pont 1.0000000
children enfants 1.0000000
Trouillefou Trouillefou 0.7500000
saying Trouillefou 0.2500000
were écoutait 0.1666667
was écoutait 0.1666667
staring écoutait 0.1666667
listened écoutait 0.1666667
listening écoutait 0.3333333
hind pattes 1.0000000
me demander 1.0000000
conception conception 0.3333333
it conception 0.3333333
&apos;s conception 0.3333333
Your Ta 1.0000000
lose lâcher 0.3333333
prize lâcher 0.3333333
slip lâcher 0.3333333
He Lui 1.0000000
turned tournèrent 1.0000000
legs jambes 1.0000000
frisky pétulant 1.0000000
it arracher 1.0000000
caught attrapait 1.0000000
neither osait 1.0000000
thrown jeté 1.0000000
While Tandis 1.0000000
many plusieurs 1.0000000
knife couteau 1.0000000
opened ouvrit 1.0000000
have commencent 0.5000000
hardly commencent 0.5000000
welled surgissaient 0.5000000
up surgissaient 0.5000000
sign enseigne 1.0000000
~ Cappa 0.5000000
Cappa Cappa 0.5000000
Callebotte Callebotte 1.0000000
suddenly réveillée 0.5000000
though réveillée 0.5000000
It On 0.1428571
One On 0.1904762
Both On 0.0476190
judge On 0.0476190
NULL On 0.0952381
The On 0.1428571
They On 0.2857143
&quot; On 0.0476190
Châtelet Châtelet 1.0000000
gay las 0.5000000
the las 0.5000000
even seulement 1.0000000
quits quitte 1.0000000
All Toutes 1.0000000
laconics laconisme 0.5000000
again laconisme 0.5000000
Really vérité 0.5000000
truth vérité 0.5000000
bread pain 1.0000000
let contentons-nous 1.0000000
her tournant 0.1666667
turning tournant 0.8333333
&apos;m suis 0.1666667
am suis 0.5000000
exist suis 0.0833333
one suis 0.0833333
them suis 0.0833333
of suis 0.0833333
know bientôt 0.5000000
soon bientôt 0.5000000
his en 0.0178571
having en 0.0119048
commented en 0.0059524
into en 0.0119048
below en 0.0119048
jerky en 0.0059524
, en 0.1666667
a en 0.0238095
and en 0.0178571
in en 0.2261905
awakened en 0.0119048
have en 0.0119048
cherished en 0.0059524
marching en 0.0059524
perceive en 0.0059524
did en 0.0416667
officer en 0.0059524
interfered en 0.0059524
grasshopper en 0.0059524
fact en 0.0178571
stopping en 0.0059524
to en 0.0416667
lucky en 0.0119048
as en 0.0119048
needed en 0.0059524
NULL en 0.0952381
on en 0.0238095
humiliating en 0.0059524
pains en 0.0059524
am en 0.0059524
aspects en 0.0059524
should en 0.0119048
himself en 0.0059524
same en 0.0119048
admired en 0.0059524
addressed en 0.0119048
you en 0.0059524
more en 0.0119048
phrase en 0.0059524
strike en 0.0119048
trot en 0.0059524
suspected en 0.0059524
cost en 0.0119048
made en 0.0059524
know en 0.0178571
blushing en 0.0059524
Galilee en 0.0059524
smile en 0.0059524
making en 0.0059524
continued en 0.0059524
feet pieds 1.0000000
concert charivari 1.0000000
jabbering chantent 0.5000000
down chantent 0.5000000
All Toute 0.1428571
I Toute 0.1428571
The Toute 0.1428571
When Toute 0.1428571
whole Toute 0.1428571
was Toute 0.1428571
very Toute 0.1428571
to encourager 0.5000000
urge encourager 0.5000000
Andry Andry 1.0000000
surrounded enveloppait 0.5000000
him enveloppait 0.5000000
facitote facitote 1.0000000
retorted répliqua 1.0000000
of attention 0.2000000
attention attention 0.8000000
Charmolue Charmolue 1.0000000
valor vaillance 1.0000000
You Vous 0.5000000
That Vous 0.0714286
So Vous 0.2142857
Do Vous 0.0714286
you Vous 0.0714286
isn Vous 0.0714286
rushed précipitèrent 1.0000000
heedlessness insouciance 0.5000000
unconcern insouciance 0.5000000
fear craindre 0.5000000
was craindre 0.5000000
Fountain Ponceau 0.3333333
were Ponceau 0.3333333
there Ponceau 0.3333333
One écolier 0.2500000
student écolier 0.2500000
scholar écolier 0.2500000
( écolier 0.2500000
him entendre 0.0909091
NULL entendre 0.1818182
hear entendre 0.0909091
self entendre 0.1818182
&apos;s entendre 0.1818182
audible entendre 0.0909091
one entendre 0.1818182
delighted ravis 1.0000000
their défendre 0.5000000
defend défendre 0.5000000
night nuit 1.0000000
1653 1653 1.0000000
amazed étonné 0.5000000
himself étonné 0.5000000
been resté 0.2500000
his resté 0.2500000
left resté 0.2500000
remained resté 0.2500000
out sortit 0.3333333
stepped sortit 0.3333333
from sortit 0.3333333
song bizarre 0.5000000
vagabonds bizarre 0.5000000
interrupted interrompu 1.0000000
Noel Noël 0.6250000
good Noël 0.0625000
Good Noël 0.3125000
course soi 0.3333333
own soi 0.3333333
his soi 0.3333333
here archiduc 0.2500000
Archduke archiduc 0.2500000
sends archiduc 0.2500000
archduke archiduc 0.2500000
fall recueillie 0.5000000
upon recueillie 0.5000000
gratifying violente 0.3333333
a violente 0.3333333
one violente 0.3333333
begin commençait 0.1000000
begun commençait 0.1000000
beginning commençait 0.1000000
who commençait 0.1000000
to commençait 0.2000000
began commençait 0.2000000
had commençait 0.1000000
was commençait 0.1000000
capital chapiteau 0.5000000
in chapiteau 0.5000000
honest honnêtes 1.0000000
words incongrues 0.5000000
incongruous incongrues 0.5000000
de pan 0.2500000
pan pan 0.2500000
NULL pan 0.2500000
~ pan 0.2500000
You Camarade 0.2500000
unlucky Camarade 0.2500000
comrade Camarade 0.2500000
are Camarade 0.2500000
up Relevez-moi 0.2500000
Pick Relevez-moi 0.2500000
that Relevez-moi 0.2500000
me Relevez-moi 0.2500000
brass rendaient 1.0000000
man boiteux 0.4000000
lame boiteux 0.6000000
Miracles Miracles 1.0000000
with fixant 0.5000000
impudent fixant 0.5000000
higher monter 0.2500000
mount monter 0.5000000
to monter 0.2500000
shouted gaillardement 0.5000000
boldly gaillardement 0.5000000
formidable formidable 1.0000000
monk oblat 0.5000000
lay oblat 0.5000000
turn tourner 1.0000000
in cul-de-jatte 0.2222222
legless cul-de-jatte 0.1111111
bowl cul-de-jatte 0.2222222
cripple cul-de-jatte 0.2222222
the cul-de-jatte 0.2222222
noticed aperçu 1.0000000
shrill criarde 1.0000000
Flemish flamand 1.0000000
Virgin Vierge 1.0000000
morning matin 1.0000000
rare génie 0.5000000
genius génie 0.5000000
wild fou 0.5000000
fit fou 0.5000000
Perrette Perrette 1.0000000
directly au-dessus 0.2500000
above au-dessus 0.7500000
round détourna 1.0000000
poor pauvres 1.0000000
devotion dévotion 0.6666667
interested dévotion 0.3333333
but mais 1.0000000
victim patient 0.3333333
whom patient 0.6666667
thieves argotiers 0.3333333
slang argotiers 0.3333333
men argotiers 0.3333333
disappointed désappointé 1.0000000
Quite ennui 1.0000000
circle entier 1.0000000
have auras 1.0000000
were effaçaient 1.0000000
when bois 0.3333333
wood bois 0.3333333
Forest bois 0.3333333
him considéra 0.3333333
for considéra 0.3333333
examined considéra 0.3333333
the oeuvre 1.0000000
House sonna 0.5000000
rang sonna 0.5000000
Very Très 1.0000000
transverse solive 1.0000000
gibbet pierre 0.2500000
into pierre 0.2500000
stone pierre 0.5000000
; Le 0.0476190
Poor Le 0.0238095
Captain Le 0.0238095
Loud Le 0.0238095
le Le 0.0238095
The Le 0.8571429
feet rayon 1.0000000
lived vivait 0.3333333
had vivait 0.3333333
in vivait 0.3333333
gently rangeaient 0.3333333
along rangeaient 0.3333333
themselves rangeaient 0.3333333
illusions illusion 1.0000000
interior intérieur 0.5000000
conscience intérieur 0.5000000
Gisquette Gisquette 1.0000000
two voisines 0.3333333
neighbors voisines 0.3333333
female voisines 0.3333333
success croissant 0.5000000
increasing croissant 0.5000000
haughty altière 1.0000000
Master Denis 0.3333333
le Denis 0.3333333
Denis Denis 0.3333333
century siècle 1.0000000
Yes amour 0.1428571
lovingly amour 0.1428571
a amour 0.1428571
lover amour 0.1428571
love amour 0.1428571
− amour 0.2857143
NULL – 0.0085106
“ – 0.0042553
My – 0.0042553
Good – 0.0085106
emphasis – 0.0042553
Who – 0.0042553
&apos; – 0.0042553
&quot; – 0.9574468
Do – 0.0042553
, citoyens 0.5000000
citizens citoyens 0.5000000
curious curieux 0.5000000
, curieux 0.5000000
difficult difficile 1.0000000
but Mais 0.0952381
But Mais 0.9047619
through passer 1.0000000
joyous joyeuse 0.5000000
&apos;s joyeuse 0.5000000
pensioner pensionnaire 1.0000000
certain certaine 1.0000000
ideas gracieuses 1.0000000
watch guet 0.6666667
! guet 0.3333333
you donnée 0.2500000
on donnée 0.2500000
gave donnée 0.2500000
it donnée 0.2500000
selected nouveaux 1.0000000
was retroussait 0.5000000
up retroussait 0.5000000
difficulty difficulté 1.0000000
ferryman passeur 0.6666667
cow passeur 0.3333333
its admirait 1.0000000
NULL liards-à-l 1.0000000
face nez 1.0000000
What Qu 0.8000000
Who Qu 0.2000000
twist tourne 0.5000000
&quot; tourne 0.5000000
wench truande 0.3333333
vagabond truande 0.3333333
back truande 0.3333333
my casse 0.5000000
breaking casse 0.5000000
Jupiter Jupiter 1.0000000
articulate articulée 1.0000000
Do Entends-tu 0.3333333
you Entends-tu 0.3333333
hear Entends-tu 0.3333333
a grande 0.5000000
great grande 0.5000000
you veux-tu 0.1666667
suppose veux-tu 0.1666667
thou veux-tu 0.1666667
want veux-tu 0.1666667
dost veux-tu 0.1666667
did veux-tu 0.1666667
handsome très 0.2500000
very très 0.2500000
whispered très 0.2500000
beautiful très 0.2500000
friendship que 0.0078740
those que 0.0078740
that que 0.3464567
exerting que 0.0078740
these que 0.0078740
equal que 0.0078740
NULL que 0.1417323
rogue que 0.0078740
am que 0.0078740
beheld que 0.0157480
horns que 0.0157480
aware que 0.0157480
vigorously que 0.0078740
than que 0.0629921
wood que 0.0078740
breaking que 0.0078740
are que 0.0157480
pensioner que 0.0078740
unable que 0.0078740
Are que 0.0078740
enormities que 0.0157480
what que 0.0472441
as que 0.0551181
while que 0.0236220
required que 0.0078740
realized que 0.0157480
allusions que 0.0157480
unless que 0.0078740
be que 0.0157480
gladly que 0.0078740
which que 0.0551181
only que 0.0157480
NULL sentait 1.0000000
hearty luronnes 0.3333333
dames luronnes 0.3333333
are luronnes 0.3333333
orders ordonnance 0.5000000
NULL ordonnance 0.5000000
drawn courroies 0.5000000
tighter courroies 0.5000000
repeated répéta 1.0000000
archer archer 1.0000000
foreheads imposant 1.0000000
was interdit 0.2857143
he interdit 0.1428571
confused interdit 0.1428571
speechless interdit 0.1428571
that interdit 0.1428571
so interdit 0.1428571
Courts Palais 1.0000000
clinging venu 0.1666667
come venu 0.1666667
came venu 0.3333333
newcomer venu 0.1666667
step venu 0.1666667
sole unique 0.2000000
− unique 0.4000000
only unique 0.4000000
said dirent 1.0000000
seigneur seigneur 1.0000000
mean voulez 0.4000000
want voulez 0.4000000
&apos;t voulez 0.2000000
slashed tailladait 1.0000000
cuellos cuellos 1.0000000
bestowed faisait 0.1428571
was faisait 0.1428571
made faisait 0.1428571
caused faisait 0.0714286
a faisait 0.0714286
making faisait 0.0714286
to faisait 0.0714286
reticence faisait 0.0714286
commented faisait 0.0714286
fond faisait 0.0714286
pace faisait 0.0714286
great confuse 0.3333333
confusion confuse 0.3333333
; confuse 0.3333333
heads têtes 1.0000000
proceeding insolence 0.2500000
this insolence 0.2500000
insolence insolence 0.2500000
of insolence 0.2500000
obscene chanson 1.0000000
suppose recommençait 0.2000000
again recommençait 0.2000000
begin recommençait 0.2000000
. recommençait 0.2000000
we recommençait 0.2000000
heels or 0.2500000
hoof or 0.2500000
, or 0.2500000
gold or 0.2500000
Whew Buah 1.0000000
did NULL 0.0010941
along NULL 0.0010941
at NULL 0.0065646
whom NULL 0.0021882
aware NULL 0.0010941
in NULL 0.0109409
immediately NULL 0.0010941
is NULL 0.0021882
her NULL 0.0032823
Nevertheless NULL 0.0010941
while NULL 0.0010941
my NULL 0.0021882
deal NULL 0.0010941
not NULL 0.0010941
round NULL 0.0010941
jolly NULL 0.0021882
he NULL 0.0065646
remains NULL 0.0010941
were NULL 0.0032823
− NULL 0.0273523
tolerably NULL 0.0021882
audience NULL 0.0010941
grimace NULL 0.0021882
with NULL 0.0065646
and NULL 0.0054705
hand NULL 0.0021882
a NULL 0.0207877
forth NULL 0.0021882
was NULL 0.0120350
Margaritas NULL 0.0010941
? NULL 0.0021882
meantime NULL 0.0010941
~ NULL 0.0032823
from NULL 0.0010941
long NULL 0.0010941
off NULL 0.0010941
know NULL 0.0010941
going NULL 0.0010941
porcos NULL 0.0010941
following NULL 0.0021882
patient NULL 0.0021882
of NULL 0.0295405
on NULL 0.0054705
the NULL 0.0481400
you NULL 0.0065646
away NULL 0.0010941
means NULL 0.0010941
arrived NULL 0.0010941
begin NULL 0.0010941
toned NULL 0.0010941
we NULL 0.0010941
throng NULL 0.0021882
It NULL 0.0021882
little NULL 0.0032823
us NULL 0.0010941
shouted NULL 0.0010941
parts NULL 0.0010941
possible NULL 0.0010941
what NULL 0.0021882
to NULL 0.0240700
them NULL 0.0043764
Tours NULL 0.0021882
native NULL 0.0010941
this NULL 0.0010941
be NULL 0.0032823
kick NULL 0.0010941
low NULL 0.0010941
row NULL 0.0010941
sort NULL 0.0021882
between NULL 0.0010941
hearing NULL 0.0010941
his NULL 0.0010941
high NULL 0.0010941
tone NULL 0.0010941
timidly NULL 0.0021882
, NULL 0.2308534
monseigneur NULL 0.0010941
&apos; NULL 0.0010941
politeness NULL 0.0021882
lay NULL 0.0010941
they NULL 0.0010941
neither NULL 0.0010941
Within NULL 0.0010941
procession NULL 0.0010941
enter NULL 0.0010941
closing NULL 0.0010941
through NULL 0.0010941
well NULL 0.0043764
Frenchman NULL 0.0021882
triumph NULL 0.0021882
placed NULL 0.0010941
been NULL 0.0054705
most NULL 0.0010941
after NULL 0.0010941
words NULL 0.0010941
stentorian NULL 0.0010941
down NULL 0.0010941
shape NULL 0.0010941
should NULL 0.0010941
proceed NULL 0.0010941
during NULL 0.0010941
am NULL 0.0010941
unknown NULL 0.0010941
order NULL 0.0021882
quite NULL 0.0010941
. NULL 0.0032823
fear NULL 0.0010941
dog NULL 0.0010941
parties NULL 0.0010941
two NULL 0.0010941
as NULL 0.0032823
work NULL 0.0010941
) NULL 0.0010941
The NULL 0.0010941
utmost NULL 0.0010941
I NULL 0.0032823
friend NULL 0.0010941
earthenware NULL 0.0010941
returning NULL 0.0010941
Where NULL 0.0010941
Flemish NULL 0.0010941
remained NULL 0.0010941
take NULL 0.0043764
air NULL 0.0010941
for NULL 0.0087527
girl NULL 0.0010941
exclaimed NULL 0.0010941
such NULL 0.0010941
much NULL 0.0032823
having NULL 0.0043764
( NULL 0.0010941
sharper NULL 0.0010941
one NULL 0.0054705
last NULL 0.0021882
A NULL 0.0010941
me NULL 0.0021882
other NULL 0.0032823
that NULL 0.0043764
will NULL 0.0010941
: NULL 0.0043764
there NULL 0.0021882
swine NULL 0.0021882
She NULL 0.0010941
This NULL 0.0021882
side NULL 0.0010941
home NULL 0.0010941
You NULL 0.0010941
very NULL 0.0010941
step NULL 0.0010941
heart NULL 0.0010941
made NULL 0.0021882
too NULL 0.0010941
make NULL 0.0010941
year NULL 0.0010941
who NULL 0.0021882
it NULL 0.0076586
up NULL 0.0021882
shop NULL 0.0010941
dram NULL 0.0010941
want NULL 0.0010941
all NULL 0.0065646
but NULL 0.0032823
more NULL 0.0010941
an NULL 0.0021882
worry NULL 0.0021882
patience NULL 0.0010941
least NULL 0.0010941
; NULL 0.0010941
got NULL 0.0021882
At NULL 0.0021882
began NULL 0.0010941
then NULL 0.0021882
don NULL 0.0010941
fell NULL 0.0010941
&quot; NULL 0.1881838
him NULL 0.0098468
good NULL 0.0010941
lively NULL 0.0010941
are NULL 0.0021882
said NULL 0.0054705
added NULL 0.0010941
part NULL 0.0021882
day NULL 0.0010941
man NULL 0.0021882
Do NULL 0.0010941
vagabonds NULL 0.0010941
had NULL 0.0142232
whose NULL 0.0021882
&apos;s NULL 0.0087527
again NULL 0.0010941
amazed NULL 0.0021882
come NULL 0.0021882
straps NULL 0.0010941
new NULL 0.0010941
level NULL 0.0010941
gallery NULL 0.0010941
himself NULL 0.0032823
&apos;t NULL 0.0010941
chance NULL 0.0010941
by NULL 0.0010941
shrieked NULL 0.0010941
say NULL 0.0043764
before NULL 0.0032823
That NULL 0.0010941
thoughtfully NULL 0.0010941
do NULL 0.0032823
out NULL 0.0021882
ran courut 0.5000000
! courut 0.5000000
beer-drinkers buveurs 1.0000000
attracted attirèrent 1.0000000
chapel chapelle 1.0000000
consent consens 0.5000000
you consens 0.5000000
is gronde 0.5000000
scolding gronde 0.5000000
thunderbolt foudre 1.0000000
successively annoncés 1.0000000
Bourgeois Bourgeois 1.0000000
off arracha 0.5000000
tore arracha 0.5000000
seen vu 1.0000000
ceremony cérémonie 0.5000000
at cérémonie 0.5000000
into jeu 1.0000000
neighbor voisine 1.0000000
, est-ce 0.0500000
are est-ce 0.1500000
&quot; est-ce 0.2500000
does est-ce 0.0500000
is est-ce 0.3500000
am est-ce 0.0500000
that est-ce 0.0500000
− est-ce 0.0500000
handsome bel 0.5000000
fine bel 0.1666667
a bel 0.3333333
old chancelant 1.0000000
trust osait-il 0.3333333
to osait-il 0.3333333
dare osait-il 0.3333333
rough rudement 0.2500000
ceremony rudement 0.2500000
rudely rudement 0.5000000
Marguerite Marguerite 1.0000000
beggars lâchaient 0.3333333
loose lâchaient 0.3333333
their lâchaient 0.3333333
evening soir 1.0000000
romanticism romantique 1.0000000
that outrecuidance 0.3333333
for outrecuidance 0.3333333
audacity outrecuidance 0.3333333
gravely gravement 1.0000000
see Voyons 0.3333333
&apos;s Voyons 0.3333333
Let Voyons 0.3333333
thing merveilleux 0.3333333
a merveilleux 0.3333333
marvellous merveilleux 0.3333333
enliven volontiers 0.2857143
gladly volontiers 0.2857143
fond volontiers 0.1428571
himself volontiers 0.2857143
bourgeois bourgeois 1.0000000
pope pape 0.4285714
perfect pape 0.1428571
Pope pape 0.4285714
objected objecta 1.0000000
; ; 0.8035714
. ; 0.0357143
difficulty ; 0.0178571
conversation ; 0.0178571
beer-drinkers ; 0.0357143
walk ; 0.0178571
, ; 0.0535714
burgomasters ; 0.0178571
take t 0.1666667
harden t 0.1666667
you t 0.1666667
does t 0.3333333
enroll t 0.1666667
continue continuez 1.0000000
Bourbon Bourbon 1.0000000
grasshopper sauterelle 1.0000000
, front 0.3750000
foreheads front 0.1250000
brow front 0.1250000
abreast front 0.1250000
brows front 0.2500000
Châteaupers Châteaupers 1.0000000
incommensurable incommensurables 0.5000000
presence incommensurables 0.5000000
captain capitaine 0.7142857
Captain capitaine 0.2857143
howling hurlant 1.0000000
~ Caritatem 0.6666667
Caritatem Caritatem 0.3333333
again recommencez 0.6666667
begin recommencez 0.3333333
Coppenole Coppenole 1.0000000
comes vient 0.6666667
to vient 0.3333333
roused réveillé 0.3333333
aroused réveillé 0.6666667
whom qui 0.0338983
begin qui 0.0084746
vied qui 0.0338983
Here qui 0.0084746
took qui 0.0084746
ghost qui 0.0084746
wearies qui 0.0169492
falling qui 0.0084746
men qui 0.0084746
lacks qui 0.0169492
creature qui 0.0084746
NULL qui 0.0593220
who qui 0.4237288
habituated qui 0.0084746
following qui 0.0084746
which qui 0.2966102
piercing qui 0.0084746
instruments qui 0.0084746
respect qui 0.0169492
overturned qui 0.0084746
movement manège 1.0000000
take emporte 1.0000000
one moins 0.0952381
continued moins 0.0476190
this moins 0.0952381
hung moins 0.0476190
less moins 0.1904762
least moins 0.2857143
of moins 0.0952381
unless moins 0.0476190
NULL moins 0.0952381
contented contenta 0.3333333
himself contenta 0.3333333
with contenta 0.3333333
supports croc 1.0000000
prettier plus 0.0208333
later plus 0.0208333
either plus 0.0208333
step plus 0.0416667
longer plus 0.1250000
closer plus 0.0416667
less plus 0.0416667
than plus 0.0416667
escape plus 0.0208333
confounding plus 0.0208333
the plus 0.0416667
knowing plus 0.0208333
grimaces plus 0.0416667
more plus 0.3125000
no plus 0.0208333
ever plus 0.0208333
handsomest plus 0.0416667
still plus 0.0208333
soles plus 0.0208333
NULL plus 0.0625000
Luckily quelqu 0.5000000
any quelqu 0.5000000
liberties libertés 1.0000000
it donné 0.3333333
certainly donné 0.3333333
given donné 0.3333333
made indignait 1.0000000
ceased tut 1.0000000
for quatre 0.1666667
four quatre 0.8333333
groom palefrenier 0.3333333
who palefrenier 0.3333333
had palefrenier 0.3333333
Moreover D 0.5000000
Whence D 0.1666667
Yes D 0.1666667
As D 0.1666667
age venue 0.2500000
arrived venue 0.2500000
come venue 0.2500000
creating venue 0.2500000
rent lacéra 0.5000000
tinsel lacéra 0.5000000
continued continua 0.6666667
&quot; continua 0.3333333
clasped mains 0.1666667
hands mains 0.6666667
NULL mains 0.1666667
pleasure plaisir 1.0000000
bigoted dévote 1.0000000
Let Gare 1.0000000
dethroned détrôné 1.0000000
amulet amulette 1.0000000
ancient législation 0.5000000
English législation 0.5000000
What Que 0.6666667
How Que 0.2222222
Deuce Que 0.1111111
displeases déplaît 1.0000000
house maison 1.0000000
! expira 0.3333333
died expira 0.3333333
away expira 0.3333333
scowled sourcil 1.0000000
rolled roula 0.3333333
it roula 0.3333333
to roula 0.3333333
No Nul 1.0000000
stomach estomac 0.5000000
having estomac 0.5000000
redoubled redoublait 1.0000000
at doigt 0.3333333
finger doigt 0.6666667
understood compris 1.0000000
so tellement 1.0000000
is fait 0.1818182
NULL fait 0.2727273
contrive fait 0.0909091
invoked fait 0.0909091
over fait 0.0909091
been fait 0.1818182
wrote fait 0.0909091
air algarade 1.0000000
length long 1.0000000
continuance poursuite 1.0000000
fully réalisa 0.3333333
realized réalisa 0.3333333
too réalisa 0.3333333
NULL &#91; 0.3333333
~ &#91; 0.3333333
earth-- &#91; 0.3333333
A Truand 0.5000000
vagabond Truand 0.5000000
Hung Pendu 1.0000000
stool escabeau 1.0000000
procurator procureur 0.5000000
to procureur 0.5000000
spirit esprit 0.3333333
mind esprit 0.5000000
him esprit 0.1666667
spectre spectre 1.0000000
incident inattendu 1.0000000
gray ou 0.1538462
target ou 0.1538462
NULL ou 0.1538462
or ou 0.5384615
lover amant 1.0000000
ecstasy extase 0.5000000
almost extase 0.5000000
profound religieux 1.0000000
NULL faire 0.1666667
invoked faire 0.0833333
form faire 0.0833333
to faire 0.4166667
done faire 0.0833333
and faire 0.1666667
tapestry tapisserie 1.0000000
NULL afin 1.0000000
recognize reconnais 0.6000000
him reconnais 0.4000000
Our Notre 1.0000000
each chaque 0.5000000
every chaque 0.5000000
to attacher 0.5000000
attach attacher 0.5000000
at Non 0.1250000
Not Non 0.3125000
so Non 0.0625000
No Non 0.5000000
manage pu 1.0000000
&apos;s gaillarde 1.0000000
No « 0.0066667
NULL « 0.0066667
Give « 0.0066667
&quot; « 0.9733333
Hey « 0.0066667
happy bienheureuse 1.0000000
Philippe Philippe 0.5000000
says Philippe 0.5000000
Mount Ménaléen 1.0000000
unheard inconnu 0.2000000
stranger inconnu 0.8000000
here couraient 0.3333333
running couraient 0.3333333
about couraient 0.3333333
reaped largement 1.0000000
causing redoublement 0.5000000
redoubled redoublement 0.5000000
There En 0.1176471
Really En 0.0588235
So En 0.1764706
At En 0.2352941
In En 0.2352941
saying En 0.1764706
Flemish ours 1.0000000
Good Bonjour 0.3333333
− Bonjour 0.3333333
day Bonjour 0.3333333
orgy annuelle 1.0000000
disappeared disparut 0.5000000
poniard disparut 0.5000000
fantastic fantastique 1.0000000
sacred et 0.0080000
fine et 0.0040000
personage et 0.0080000
shuddered et 0.0040000
and et 0.9440000
NULL et 0.0120000
yet et 0.0040000
shouted et 0.0040000
diabolical et 0.0040000
sang et 0.0080000
under rentré 0.5000000
withdrawn rentré 0.5000000
blanks grands-blancs 1.0000000
do suis-je 0.2000000
am suis-je 0.2000000
exist suis-je 0.2000000
I suis-je 0.4000000
Well Bien 0.2500000
Good Bien 0.2500000
Quite Bien 0.5000000
councillor conseiller 1.0000000
wood coûtait 0.5000000
cost coûtait 0.5000000
day hui 0.3333333
today hui 0.1666667
− hui 0.5000000
only seul 0.5000000
sole seul 0.2000000
one seul 0.2000000
might seul 0.1000000
and promenant 0.5000000
speechless promenant 0.5000000
vociferated vociféraient 1.0000000
excited excitées 1.0000000
sense sens 1.0000000
open ouvertes 1.0000000
de Bellevigne 0.5000000
Bellevigne Bellevigne 0.5000000
first premiers 0.5000000
front premiers 0.5000000
hear point 0.2500000
culminating point 0.2500000
horse point 0.2500000
advance point 0.2500000
Help À 0.0666667
NULL À 0.1333333
To À 0.0666667
Down À 0.1333333
By À 0.1333333
to À 0.0666667
Hardly À 0.0666667
And À 0.0666667
At À 0.0666667
when À 0.0666667
From À 0.1333333
felt sentit 1.0000000
swearing jurant 1.0000000
dark rue 0.3333333
Rue rue 0.6666667
reminiscences souvenirs 1.0000000
armchair écarlate 0.6666667
scarlet écarlate 0.3333333
first première 1.0000000
Margaritam Margaritam 0.3333333
pearl Margaritam 0.3333333
~ Margaritam 0.3333333
forests forêts 1.0000000
&apos;s vaches 0.2500000
ferryman vaches 0.5000000
, vaches 0.2500000
blind aveugles 0.6666667
at aveugles 0.3333333
companion compagnon 1.0000000
please plaît 1.0000000
much moult 1.0000000
bandy bancal 0.3333333
legged bancal 0.3333333
− bancal 0.3333333
entire assemblée 0.5000000
an assemblée 0.5000000
purpose rues 1.0000000
audience ailleurs 0.1250000
elsewhere ailleurs 0.2500000
the ailleurs 0.1250000
Moreover ailleurs 0.1250000
, ailleurs 0.3750000
− borgne 0.2857143
one borgne 0.2857143
man borgne 0.1428571
eyed borgne 0.2857143
prepared Benserade 0.5000000
Benserade Benserade 0.5000000
what quoi 0.5000000
for quoi 0.3333333
subject quoi 0.1666667
even quand 0.1000000
when quand 0.9000000
Assuredly Certainement 1.0000000
Just Vois 0.5000000
look Vois 0.5000000
insist absolument 0.5000000
on absolument 0.5000000
covered couverts 1.0000000
enter lier 1.0000000
one Quiconque 0.3333333
who Quiconque 0.3333333
Any Quiconque 0.3333333
admire admirer 0.5000000
him admirer 0.5000000
me caballero 1.0000000
XI XI 0.7142857
. XI 0.2857143
supped soupé 1.0000000
her regard 0.1250000
glance regard 0.3750000
rather regard 0.2500000
indifferent regard 0.2500000
sight valait 1.0000000
one nattes 1.0000000
Nombrill Nombril 1.0000000
middle milieu 0.2500000
spot milieu 0.0833333
the milieu 0.0833333
midst milieu 0.5833333
tip pointe 1.0000000
an témoin 1.0000000
doublet malade 0.5000000
sickly malade 0.5000000
&apos;s montrer 0.2500000
one montrer 0.2500000
only montrer 0.2500000
show montrer 0.2500000
fifteenth quinzième 1.0000000
do mangez 0.5000000
eat mangez 0.5000000
novelty nouveauté 1.0000000
His Son 0.7272727
&quot; Son 0.2727273
− Français 1.0000000
thousand mille 0.5000000
a mille 0.5000000
buy comprar 1.0000000
confound confondre 0.5000000
mingling confondre 0.5000000
possession empara 1.0000000
pronounced dit 0.0220588
&quot; dit 0.4117647
suddenly dit 0.0073529
called dit 0.0073529
NULL dit 0.0073529
replied dit 0.0147059
says dit 0.0073529
said dit 0.5220588
serenity sérénité 1.0000000
deafening assourdissant 1.0000000
from complètement 0.5000000
completely complètement 0.5000000
emphasis Mesdamoiselles 0.5000000
I Mesdamoiselles 0.5000000
directly précisément 0.5000000
come précisément 0.5000000
pond grenouilles 1.0000000
Will T 1.0000000
dumb muet 1.0000000
himself asseoir 0.2500000
and asseoir 0.2500000
seat asseoir 0.2500000
lively asseoir 0.2500000
defence ta 0.1428571
your ta 0.8571429
eminence éminence 1.0000000
inquired timidement 0.5000000
remarked timidement 0.5000000
faith foi 1.0000000
Ho Ho 1.0000000
forth moment-là 0.5000000
moment moment-là 0.5000000
Jacques Jacques 1.0000000
a truand 0.4444444
vagabond truand 0.5555556
defensive défensive 1.0000000
said pensa 0.3333333
thought pensa 0.3333333
&quot; pensa 0.3333333
hypotheses hypothèses 1.0000000
figures figures 0.3333333
beamed figures 0.3333333
faces figures 0.3333333
. écoutez 0.5000000
listen écoutez 0.5000000
It Ce 0.3461538
Then Ce 0.0384615
NULL Ce 0.0384615
What Ce 0.0384615
The Ce 0.0769231
This Ce 0.1538462
That Ce 0.1923077
&quot; Ce 0.1153846
few autres 0.2000000
rest autres 0.2000000
other autres 0.4000000
advantages autres 0.2000000
Applaud Applaudissez 1.0000000
enjoined abord 1.0000000
married a 0.0357143
advantages a 0.0357143
called a 0.0357143
NULL a 0.2142857
left a 0.0714286
has a 0.3928571
away a 0.0357143
it a 0.0357143
gave a 0.0357143
hungry a 0.0357143
sorcery a 0.0357143
overturned a 0.0357143
affairs lui-même 0.5000000
astonished lui-même 0.5000000
our nos 1.0000000
retired retira 1.0000000
Truly Vraiment 1.0000000
thread fil 1.0000000
silent silence 0.1818182
silence silence 0.7272727
ensued silence 0.0909091
vault voûte 1.0000000
how comment 0.7500000
what comment 0.2500000
troop troupe 1.0000000
live vivre 0.5000000
primitive vivre 0.5000000
threadbare râpée 1.0000000
difference différent 0.3333333
a différent 0.3333333
responded différent 0.3333333
&quot; Tu 0.0833333
You Tu 0.7500000
Don Tu 0.0833333
Do Tu 0.0833333
mirth folie 1.0000000
Quatrelivres Quatrelivres 1.0000000
arrived arrivé 0.2500000
having arrivé 0.2500000
reached arrivé 0.2500000
arrives arrivé 0.2500000
resume reprendre 1.0000000
gallant galante 1.0000000
extent rétabli 0.3333333
some rétabli 0.3333333
to rétabli 0.3333333
tear déchirer 0.5000000
in déchirer 0.5000000
gayly gaiement 1.0000000
menear menear 0.3333333
poderse menear 0.3333333
Sin menear 0.3333333
Madame Madame 1.0000000
artillery artillerie 0.5000000
&apos;s artillerie 0.5000000
stupid sotte 1.0000000
before devant 0.1111111
front devant 0.1666667
opposite devant 0.0555556
, devant 0.1111111
of devant 0.1666667
dog devant 0.1111111
NULL devant 0.0555556
in devant 0.2222222
growing succès 0.5000000
her succès 0.5000000
herself asseyant 0.5000000
seating asseyant 0.5000000
electric secousse 1.0000000
Esmeralda La 0.0277778
NULL La 0.0277778
la La 0.0277778
The La 0.6388889
Charity La 0.0833333
La La 0.0833333
&quot; La 0.0555556
pitch La 0.0555556
closing fermant 1.0000000
litany litanie 1.0000000
step retirer 1.0000000
presence présence 1.0000000
lick lécher 1.0000000
Red Rouge 1.0000000
troubled importunait 0.5000000
him importunait 0.5000000
exclamation exclamation 1.0000000
nimbly lestement 1.0000000
abstain faute 0.6666667
mistake faute 0.3333333
Oh Oh 1.0000000
singing chantait 0.1666667
sang chantait 0.3333333
chanted chantait 0.3333333
was chantait 0.1666667
climb grimpe 0.5000000
&quot; grimpe 0.5000000
it prise 0.1428571
hold prise 0.2857143
his prise 0.1428571
their prise 0.1428571
prize prise 0.1428571
upon prise 0.1428571
sputter grésiller 1.0000000
astound espantar 1.0000000
uproar brouhaha 0.5000000
there brouhaha 0.5000000
who savaient 0.5000000
aware savaient 0.5000000
weakness faiblesse 1.0000000
, souffla-t-il 0.5000000
whispered souffla-t-il 0.5000000
perceive apercevoir 1.0000000
written écrite 1.0000000
not sacrée 0.5000000
sacred sacrée 0.5000000
arose éleva 1.0000000
hall bout 0.3333333
minute bout 0.3333333
end bout 0.3333333
row rang 1.0000000
song chant 1.0000000
NULL ici 0.3333333
here ici 0.5000000
firmly ici 0.1666667
abbés abbés 0.5000000
invaded abbés 0.5000000
dull-witted bouchée 1.0000000
language langue 0.5000000
tongue langue 0.3333333
beheld langue 0.1666667
prodigious prodigieuse 1.0000000
with baissa 0.3333333
lowered baissa 0.3333333
bent baissa 0.3333333
choice surnoms 0.5000000
a surnoms 0.5000000
was davantage 0.2500000
needed davantage 0.2500000
all davantage 0.2500000
that davantage 0.2500000
shock choc 1.0000000
was peur 0.1428571
afraid peur 0.1428571
as peur 0.2857143
fright peur 0.2857143
alarmed peur 0.1428571
reflection douce 0.3333333
sweet douce 0.3333333
soft douce 0.3333333
weary gêner 1.0000000
Mercier Mercier 1.0000000
mine amis 1.0000000
Guillaume Guillaume 1.0000000
make dépêche 0.5000000
haste dépêche 0.5000000
sword espadon 1.0000000
NULL disposition 1.0000000
been toucherait 0.2500000
probed toucherait 0.2500000
wound toucherait 0.2500000
has toucherait 0.2500000
street ténébreuse 0.5000000
narrow ténébreuse 0.5000000
was devait 1.0000000
Louis Louis 1.0000000
Harlay Harlay 0.5000000
de Harlay 0.5000000
own for 1.0000000
grudge gardèrent 1.0000000
wrath saccadait 0.5000000
rendered saccadait 0.5000000
it arriver 1.0000000
