je sentiment 0.2000000
je I 0.3253012
je breaking 0.1666667
je drown 0.5000000
je NULL 0.0028037
… earth-- 0.2000000
… &quot; 0.0069721
… Madame 0.1666667
… sire 0.3333333
… I 0.0120482
… ? 0.0072993
… − 0.1094891
redescendre to 0.0033784
redescendre again 0.0625000
redescendre descend 0.3333333
groupes groups 1.0000000
Commencez Commence 0.6666667
Commencez Begin 0.4000000
truands vagabonds 0.3333333
confondant confounding 0.2500000
proposition proposition 1.0000000
proposition produced 0.1250000
demeurer live 0.6666667
détour route 1.0000000
détour circuitous 1.0000000
nymphe nymph 1.0000000
huer hoot 1.0000000
huer him 0.0091743
haillons shoulder 0.1250000
haillons rags 1.0000000
presque almost 0.6666667
presque lyric 1.0000000
presque entering 1.0000000
recueillement universal 1.0000000
restée remains 0.1666667
artifice fireworks 1.0000000
artifice off 0.0833333
mieux better 0.4000000
mieux view 0.5000000
mieux get 0.5000000
mieux a 0.0072464
mieux to 0.0168919
brave brave 1.0000000
brave a 0.0036232
brave good 0.0769231
brave fine 0.0769231
brave , 0.0008525
M Has 0.5000000
parler to 0.0033784
parler you 0.0106383
parler speak 0.2500000
parler with 0.0089286
double Saint 0.3333333
double − 0.0072993
double double 1.0000000
double Jean 1.0000000
pressée pressed 1.0000000
interlocuteur interlocutor 1.0000000
annoncez announce 0.3333333
cortège ecclesiastical 0.6666667
cortège cortege 1.0000000
troublée had 0.0107527
troublée Hardly 0.3333333
troublée disturbed 1.0000000
sainte Holy 0.1428571
simagrées grimaces 0.1428571
lèvres lips 0.6666667
frissonnait shuddered 0.2500000
frissonnait And 0.0322581
brigands dram 0.5000000
brigands shop 0.5000000
brigands − 0.0072993
magnifique magnificent 1.0000000
sorts down 0.2500000
douzain new 0.2857143
eut difficulty 0.2000000
eut enjoyed 0.1428571
eut in 0.0052632
eut NULL 0.0009346
eut Silence 0.2500000
eut considerable 0.5000000
eut found 0.5000000
eut smiling 0.3333333
jetèrent flung 1.0000000
acteurs actors 0.3333333
Autriche Austria 1.0000000
toujours still 0.3000000
toujours NULL 0.0009346
toujours always 0.7500000
toujours stood 0.5000000
toujours increasing 0.5000000
toujours from 0.0169492
aumône alms 0.5000000
hexamètre leg 0.3333333
Peine Trouble 1.0000000
la wrath 0.3333333
la addressed 0.2000000
la ill 0.2857143
la the 0.2273810
la surprise 0.3750000
la NULL 0.0149533
la shake 0.2000000
la by 0.0425532
la Burgundian 1.0000000
la posterity 0.5000000
la followed 0.2000000
la head 0.1176471
la clearness 0.5000000
la well 0.1052632
la enter 0.2000000
la flight 0.2500000
la His 0.1000000
la life 0.2500000
la la 0.5714286
la a 0.0181159
la hand 0.2272727
la whole 0.2500000
la his 0.0256410
la tranquillity 0.3333333
la Candlemas 0.5000000
la allied 0.5000000
la offered 0.5000000
la deserve 0.3333333
la dagger 0.2500000
la their 0.0500000
la her 0.0555556
la interrupted 0.1666667
la to 0.0067568
la The 0.0098039
la understands 0.5000000
la glanced 0.5000000
la silk 0.5000000
éminentissime eminent 0.5000000
éminentissime ear 1.0000000
éminentissime NULL 0.0009346
pencha bent 0.2500000
Ventre-Dieu ~ 0.0869565
Ventre-Dieu Ventre 1.0000000
Ventre-Dieu Dieu 1.0000000
Ventre-Dieu − 0.0072993
effrontés fastened 1.0000000
chape tinsel 0.5000000
Recommencez Begin 0.4000000
cavalier cavalier 1.0000000
aurais ought 0.1666667
aurais careful 0.5000000
aurais be 0.0217391
aurais will 0.0526316
visages faces 0.1666667
Soleil Sun 1.0000000
bancs were 0.0227273
bancs benches 1.0000000
émerveillé amazed 0.2500000
émerveillé in 0.0105263
émerveillé amazement 1.0000000
préoccupée preoccupied 1.0000000
préoccupée with 0.0089286
préoccupée visibly 0.3333333
croisée window 0.3333333
particulière : 0.0555556
particulière expression 1.0000000
expliqua explained 0.6000000
échappé us 0.0909091
échappé with 0.0089286
échappé content 0.3333333
échappé escaped 1.0000000
mainte numerous 0.3333333
dire to 0.0067568
dire uttering 0.6666667
dire say 0.4444444
dire speak 0.2500000
dire add 0.4000000
dire . 0.0027510
dire meaning 0.3333333
dire sun 0.5000000
dire mean 0.6250000
cloches bellringer 0.4000000
cloches bells 0.4000000
gagné much 0.0625000
gagné gained 1.0000000
coupe intoxicating 1.0000000
franges fringes 1.0000000
heureusement happily 1.0000000
vivant saluted 0.5000000
vivant tripod 0.5000000
vivant him 0.0091743
vivant living 0.3333333
ouvrage work 0.6666667
ouvrage required 0.5000000
ouvrage was 0.0061728
C He 0.0714286
C Perhaps 0.5000000
C It 0.4146341
C NULL 0.0056075
C They 0.0909091
C There 0.0909091
C That 0.1333333
C it 0.0151515
C Each 0.4000000
C This 0.3684211
C &apos; 0.0645161
pleuvaient into 0.0454545
pleuvaient it 0.0075758
pleuvaient showered 0.5000000
pourquoi why 1.0000000
sein bosom 1.0000000
appuyé leaning 1.0000000
appuyé on 0.0227273
Seulement Only 1.0000000
tendrement tenderly 0.5000000
suspens suspense 0.5000000
encore still 0.3000000
encore NULL 0.0009346
encore yet 0.4285714
encore lower 0.5000000
encore loudly 0.3333333
encore attempt 0.3333333
encore Listen 0.5000000
encore more 0.0833333
encore , 0.0017050
encore fixedly 0.5000000
encore once 0.1111111
bon fine 0.1538462
bon Good 0.1538462
bon good 0.1923077
bon receive 0.2500000
bon hearts 0.5000000
adorable adorable 1.0000000
prêche preaches 1.0000000
satisfaire to 0.0033784
satisfaire satisfy 1.0000000
caritatem caritatem 1.0000000
caritatem ~ 0.0869565
prêtre priest 1.0000000
brutales brutal 0.5000000
Huissier Usher 1.0000000
Maudits Cursed 1.0000000
aie NULL 0.0009346
aie have 0.0400000
entrent enter 0.2000000
enfant child 0.3333333
pourtant however 1.0000000
pourtant it 0.0075758
pourtant was 0.0246914
pourtant , 0.0025575
pourtant But 0.0869565
pourtant he 0.0067114
pourtant nevertheless 0.2500000
dis say 0.0555556
dis Thank 1.0000000
veut means 0.5000000
veut is 0.0126582
veut wishes 1.0000000
veut chooses 1.0000000
veut does 0.1818182
Margaritas pearls 1.0000000
tâcha to 0.0033784
tâcha tried 0.5000000
tâcha slip 0.2500000
bourguignonne fashion 0.5000000
savoir knowing 0.2500000
savoir of 0.0024038
savoir than 0.0357143
savoir disposition 1.0000000
savoir better 0.1000000
savoir ignorance 0.5000000
secrètes jobs 0.5000000
secrètes &apos;s 0.0212766
jaune wax 1.0000000
jaune copper 0.5000000
attendu waited 0.5000000
temps-là &apos;ll 0.2500000
paraît appears 1.0000000
mero ~ 0.0869565
mero mero 1.0000000
dos back 0.3333333
dos but 0.0833333
dos backs 0.5000000
genres styles 0.5000000
géant Flemish 0.1250000
géant giant 1.0000000
barbe dish 0.5000000
barbe beard 1.0000000
admiration admiration 0.5000000
frapper stamp 0.3333333
frapper bestow 1.0000000
frapper clap 1.0000000
indiquant pointing 0.2000000
indiquant out 0.0714286
25 ? 0.0072993
Simone − 0.0291971
Simone Simone 1.0000000
celui he 0.0067114
celui am 0.0625000
celui enormities 0.2500000
éveillé awakened 0.2500000
éveillé with 0.0089286
Vos Your 0.1111111
scel at 0.0224719
scel seals 0.5000000
estrade estrade 0.5000000
estrade reserved 0.5000000
estrade gallery 0.8333333
estrade dais 1.0000000
estrade NULL 0.0028037
estrade train 0.3333333
estrade new 0.2857143
applaudit her 0.0185185
applaudit fact 0.0555556
applaudit lovingly 0.3333333
applaudit applauded 0.1666667
heure before 0.2000000
heure while 0.2222222
heure little 0.1111111
heure good 0.0769231
heure hour 0.2857143
heure an 0.0312500
haussa raised 0.2500000
haussa his 0.0051282
quel exactly 0.2500000
quel judge 0.4000000
quel sentiment 0.2000000
quel month 0.1428571
quel what 0.1086957
cou neck 0.6666667
chuchotements whispers 1.0000000
chuchotements over 0.0714286
épée a 0.0036232
tiré fired 1.0000000
tour his 0.0051282
tour tower 1.0000000
tour turn 0.3333333
tour turned 0.0384615
galants gallant 0.3333333
galants verses 0.3333333
galants some 0.0714286
galants very 0.0666667
y it 0.0303030
y gay 0.2857143
y running 0.3333333
y y 1.0000000
y sorcery 0.5000000
y copper 0.5000000
y was 0.0185185
y weary 0.3333333
y NULL 0.0074766
y diversion 1.0000000
y were 0.0227273
y trained 0.3333333
y lay 0.1428571
y hatred 0.5000000
y regaining 0.5000000
y handsome 0.1428571
y advantages 0.2000000
y connection 0.5000000
y Silence 0.2500000
cachait concealed 0.3333333
cachait its 0.1250000
obscur corner 0.3333333
boucha up 0.1052632
souffler blowing 0.5000000
souffler breathe 1.0000000
c aware 0.1538462
c there 0.0869565
c friendship 0.2000000
c He 0.0357143
c makes 1.0000000
c would 0.0476190
c that 0.0352113
c he 0.0335570
c NULL 0.0065421
c We 0.3333333
c emphasis 0.2000000
c wasn 0.5000000
c quarters 1.0000000
c &apos; 0.2903226
c she 0.1282051
c boldly 0.4000000
c That 0.0666667
c it 0.1060606
planches planks 1.0000000
Monseigneur sire 0.3333333
Monseigneur Monseigneur 0.6000000
venir felt 0.1000000
déborder overflow 1.0000000
empêche prevents 0.5000000
Ondè ~ 0.0434783
Ondè Onde 1.0000000
curiosité among 0.4000000
curiosité curiosity 0.5000000
vêtu in 0.0052632
vêtu clad 0.5000000
classique classicism 0.5000000
Quando When 0.3333333
vous &quot; 0.0039841
vous your 0.0238095
vous thank 0.5000000
vous you 0.2446809
vous told 0.5000000
vous gave 0.2500000
vous please 0.1764706
vous ask 0.2500000
vous service 0.5000000
vous wearies 0.3333333
vous Just 0.2000000
vous NULL 0.0009346
vous called 0.2000000
vous prevents 0.5000000
vin wine 1.0000000
vin with 0.0089286
notaire notary 0.5000000
notaire at 0.0112360
soyez be 0.0434783
soyez at 0.0224719
dieu a 0.0036232
dieu god 0.5000000
joyeux jollycompanion 0.5000000
joyeux a 0.0072464
targes * 0.2000000
maraud rogue 0.2500000
regardent see 0.0769231
multipliait himself 0.0303030
multipliait multiplied 0.5000000
multipliait had 0.0107527
jusqu so 0.0322581
jusqu as 0.0196078
jusqu NULL 0.0018692
jusqu bound 0.5000000
jusqu until 0.2500000
Grand Many 1.0000000
présentables presentable 1.0000000
» &quot; 0.1344622
» bottom 0.3333333
» hair 1.0000000
» difference 0.3333333
» Nothing 0.2500000
» Thanks 0.5000000
» naked 0.5000000
» married 0.3333333
tombe falling 0.5000000
interruption interruption 1.0000000
passage as 0.0392157
passage path 1.0000000
passage he 0.0134228
passage passed 0.1428571
flamboyants flaming 0.5000000
flamboyants ! 0.0040984
flamands these 0.0909091
flamands bears 0.5000000
militaire military 1.0000000
vingt twenty 1.0000000
bénitier water 0.3333333
bénitier holy 1.0000000
bénitier vessel 1.0000000
bénitier − 0.0072993
rires wild 0.3333333
rires Laughter 0.5000000
petit little 0.1111111
brisa into 0.0454545
brisa broke 0.2222222
fraîche fresh 1.0000000
osa dared 0.2500000
froid violent 0.1666667
froid cold 0.6666667
saluait bowed 0.3333333
métamorphoses metamorphoses 1.0000000
veste leather 0.6666667
opération operation 1.0000000
impatienter grow 0.2857143
potence gallows 0.3333333
potence gibbet 0.3333333
Saint-Jean NULL 0.0009346
crois think 0.6000000
crois ) 0.2222222
crois believe 0.5000000
dû to 0.0033784
dû done 0.1666667
dû ought 0.3333333
dû have 0.0400000
juraient swore 1.0000000
rangs ranks 1.0000000
cœur hearts 0.5000000
cœur heart 0.2857143
crut firmly 0.5000000
révérence low 0.1666667
il looked 0.1666667
il As 0.1000000
il it 0.0530303
il please 0.1764706
il understanding 0.2000000
il if 0.2307692
il you 0.0106383
il , 0.0008525
il he 0.5570470
il advanced 0.1428571
il enjoyed 0.1428571
il three 0.2000000
il NULL 0.0084112
il there 0.3913043
brusque abrupt 1.0000000
brusque by 0.0425532
Tour-Roland Tour 1.0000000
Tour-Roland − 0.0072993
Tour-Roland Roland 0.5000000
tandis while 0.1111111
tandis as 0.0196078
mari your 0.0714286
mari husband 0.7777778
Or Now 0.6000000
Étoile &apos;Etoile 0.7500000
tenait stood 0.5000000
proférait uttered 0.5000000
souper supper 1.0000000
fête festival 1.0000000
fête feast 1.0000000
non no 0.0714286
non train 0.3333333
non either 0.2500000
non not 0.0657895
Un Un 1.0000000
Un There 0.1818182
Un A 0.4545455
Un One 0.1818182
Un NULL 0.0018692
instant NULL 0.0009346
instant instant 0.4285714
instant from 0.0338983
accosté accosted 0.5000000
coquins these 0.0909091
propos way 1.0000000
propos the 0.0023810
part in 0.0052632
part somewhere 0.3333333
part part 0.3333333
énergiquement energy 0.5000000
énergiquement with 0.0089286
sachette sacked 1.0000000
sachette nun 1.0000000
Éminence eminence 0.6666667
Sur Upon 1.0000000
Sur On 1.0000000
passe pass 0.3333333
passe cannot 1.0000000
passe burgomasters 0.2500000
passe you 0.0106383
demeure − 0.0072993
demeure remains 0.1666667
leur their 0.4750000
leur was 0.0123457
leur triumph 0.2857143
moule measure 1.0000000
ceci that 0.0070423
ceci displeases 0.5000000
ceci this 0.0204082
centre centre 1.0000000
montrerait out 0.1428571
montrerait in 0.0105263
montrerait neighbor 0.2000000
montrerait them 0.0571429
montrerait pointing 0.4000000
cet this 0.0816327
cet that 0.0140845
Ajoutons Let 0.1428571
Ajoutons add 0.2000000
Ajoutons us 0.0909091
comte Comte 1.0000000
malingreux sickly 0.5000000
malingreux creature 0.2500000
malingreux see 0.0769231
peine barely 1.0000000
peine replied 0.0322581
peine Hardly 0.3333333
peine difficulty 0.2000000
mettait placed 0.2222222
mettait often 1.0000000
mettait his 0.0102564
J Such 0.3333333
J I 0.0602410
creux hollow 1.0000000
renard fox 1.0000000
charme charm 1.0000000
Rien Nothing 0.5000000
demi-heure hour 0.1428571
enhardit emboldened 0.5000000
chandelles candles 0.5000000
Du From 0.2000000
Du However 0.4000000
Du Of 0.1666667
Du Nevertheless 0.2500000
Du Moreover 0.2500000
suspensifs suspense 0.5000000
suspensifs points 0.3333333
escamoté away 0.1250000
escamoté conjured 1.0000000
suivit ensued 0.3333333
vont about 0.2000000
vont to 0.0101351
vont going 0.1000000
distique Martial 1.0000000
distique one 0.0133333
Sujet Subject 0.5000000
farce farce 0.5000000
effrayée in 0.0052632
effrayée affright 1.0000000
aucun perceptible 0.5000000
aucun no 0.0714286
enfuirent fled 0.2000000
enfuirent in 0.0052632
Annoncer bring 1.0000000
Annoncer &apos;s 0.0106383
Annoncer self 0.3333333
Annoncer one 0.0133333
Annoncer One 0.0909091
Annoncer might 0.5000000
terre the 0.0047619
terre earth 0.5000000
terre ground 1.0000000
personne one 0.0266667
personne perceiving 0.2500000
personne no 0.0714286
personne yet 0.1428571
son her 0.2407407
son the 0.0011905
son to 0.0101351
son exercise 0.5000000
son its 0.2500000
son manifest 0.5000000
son passed 0.0714286
son conception 0.5000000
son &apos;s 0.0425532
son defend 0.5000000
son NULL 0.0009346
son his 0.2923077
son displeasure 0.3333333
ignorons utterly 0.5000000
ignorons are 0.0303030
ignorons unable 0.2000000
épanouissement a 0.0036232
épanouissement lighting 0.5000000
épanouissement up 0.0526316
tue-tête tones 0.6666667
parti mind 0.1666667
marchait he 0.0067114
marchait walked 0.6666667
passant as 0.0196078
passant passed 0.0714286
passant he 0.0067114
applaudissements applause 0.7142857
pût able 1.0000000
pût swear 0.5000000
pût could 0.3333333
pût being 0.2000000
longue rather 0.1000000
longue long 0.2500000
cher dear 0.7500000
promettez promise 1.0000000
promettez us 0.0909091
promettez you 0.0106383
bougea stir 1.0000000
bougea not 0.0263158
hâta steps 0.5000000
hâta hastened 0.5000000
hâta his 0.0051282
tomba upon 0.0312500
tomba fell 0.2000000
grimace-là of 0.0048077
gardait preserved 0.5000000
côtés an 0.0312500
côtés dilemmas 1.0000000
côtés ; 0.0103093
côtés abyss 1.0000000
côtés only 0.0476190
Maintenant Now 0.2000000
ribaude wench 0.6666667
rêverie revery 0.6000000
servir your 0.0714286
servir service 0.5000000
servir at 0.0337079
dessus hand 0.0454545
dessus upper 0.1428571
voisins neighbors 0.6666667
près himself 0.0303030
près beside 0.6666667
près closer 0.5000000
près close 0.5000000
près NULL 0.0037383
écoliers scholars 1.0000000
écoliers students 0.3333333
écoliers restrained 0.5000000
m NULL 0.0009346
m marrying 0.5000000
m me 0.0606061
m explain 0.5000000
m suspected 0.2500000
m calls 0.5000000
m it 0.0227273
signe a 0.0036232
signe sign 0.7142857
on listening 0.2000000
on NULL 0.0018692
on noose 0.2000000
on one 0.0400000
on it 0.0151515
on to 0.0101351
on could 0.3333333
on wound 0.5000000
on was 0.0185185
on suppose 0.1666667
on , 0.0008525
on let 0.1428571
image shape 0.5000000
soubresaut started 0.3333333
Holà Hola 1.0000000
Flandre Flanders 1.0000000
flambe precisely 0.3333333
flambe , 0.0008525
flambe knife 0.4000000
enquesteur surveyor 0.5000000
enquesteur − 0.0072993
enquesteur Raguier 0.5000000
malédiction curse 1.0000000
malédiction it 0.0151515
sonore sonorous 0.3333333
écrièrent-ils they 0.0333333
a-t-il about 0.1000000
avoir have 0.0200000
avoir having 0.2666667
avoir soles 0.2500000
avoir be 0.0652174
avoir of 0.0024038
avoir going 0.2000000
avoir to 0.0033784
avoir could 0.1666667
pouvait had 0.0215054
pouvait connection 0.5000000
pouvait NULL 0.0009346
pouvait to 0.0067568
pouvait fear 0.4000000
épiderme over 0.0714286
épiderme all 0.0238095
épiderme up 0.0526316
épiderme bristle 0.5000000
spectateurs spectators 1.0000000
genoux knees 1.0000000
genoux his 0.0102564
Rome Rome 1.0000000
Rome well 0.1052632
commencer forced 0.4285714
commencer begun 0.3333333
commencer begin 0.1818182
nues naked 0.5000000
noble noble 1.0000000
Pas There 0.1818182
Pas was 0.0123457
Pas no 0.0714286
désignait his 0.0051282
désignait pointed 0.5000000
joli pretty 0.1250000
Allons Come 1.0000000
tonneau hogshead 0.6666667
tonneau Near 1.0000000
nommez call 0.3333333
nommez whom 0.0833333
tentation possession 0.2500000
tentation temptation 0.5000000
avez-vous did 0.0967742
avez-vous you 0.0212766
agréable very 0.1333333
agréable agreeable 0.5000000
agréable to 0.0067568
êtes are 0.2121212
trône throne 1.0000000
survenu luck 1.0000000
surprise permitted 0.5000000
surprise surprise 0.6250000
mendiants beggars 0.5000000
Rare rare 0.4000000
Rare A 0.0909091
Liénarde Liénarde 1.0000000
fallait to 0.0033784
fallait so 0.0322581
fallait do 0.0588235
fallait nevertheless 0.2500000
fallait obliged 0.2500000
qu who 0.0163934
qu NULL 0.0112150
qu which 0.0666667
qu − 0.0072993
qu straw 0.5000000
qu scarlet 0.2000000
qu While 0.4000000
qu when 0.1578947
qu whom 0.1666667
qu that 0.1549296
qu wish 0.2500000
qu they 0.1666667
qu than 0.1428571
qu because 0.2000000
qu somewhere 0.3333333
qu disagreeable 0.5000000
qu what 0.0869565
qu shame 0.3333333
touché touched 0.6666667
auteur public 0.2500000
auteur author 1.0000000
auteur of 0.0024038
auteur damsels 0.3333333
auteur it 0.0075758
lyrique ecstacy 1.0000000
écouté to 0.0067568
écouté listened 0.4000000
écouté heard 0.2500000
bicoquet felt 0.1000000
bicoquet cap 1.0000000
procession procession 0.6666667
oreilles won 1.0000000
oreilles ears 0.7777778
figure figure 1.0000000
figure visage 1.0000000
figure a 0.0036232
figure face 0.1500000
Ventre Belly 0.5000000
écluse an 0.0312500
Croix-Dieu Cross 1.0000000
Croix-Dieu God 0.6666667
Croix-Dieu of 0.0192308
oui yes 1.0000000
oui &quot; 0.0009960
blasphèmes blasphemies 1.0000000
drapeau rag 1.0000000
plaisante pleasant 0.3333333
plaisante very 0.0666667
plaisante thing 0.3333333
Parisiens Parisians 0.5000000
Comprends-tu understand 0.2857143
Comprends-tu you 0.0212766
Comprends-tu Do 0.2000000
Laisse-toi Let 0.1428571
Laisse-toi them 0.0285714
poètes poets 1.0000000
poings athletic 1.0000000
jolies pretty 0.2500000
maître master 0.7500000
maître Master 0.4705882
maître explained 0.4000000
quart entire 0.1250000
quart quarter 0.5000000
vaut not 0.0263158
vaut good 0.0769231
vaut anything 0.2857143
vaut for 0.0266667
vaut &apos;s 0.0212766
clinquant cope 1.0000000
perçait piercing 0.5000000
espace space 1.0000000
annoncer us 0.0909091
annoncer announce 0.3333333
annoncer to 0.0033784
fuite flight 0.2500000
autorité play 0.1818182
autorité their 0.0500000
autorité by 0.0425532
autorité authority 1.0000000
recommence play 0.0909091
tiare tiara 0.5000000
pauvre Poor 0.2500000
pauvre poor 0.5714286
fixés fixed 0.5000000
fixés were 0.0227273
fixés riveted 1.0000000
resserrer tighter 0.3333333
grâce Mercy 1.0000000
grâce in 0.0105263
grâce spare 0.3333333
grâce grace 0.5000000
chanter sing 0.6666667
chanter make 0.2500000
reprit continued 0.0833333
reprit went 0.2500000
reprit interposed 1.0000000
reprit pursued 0.2500000
reprit &quot; 0.0189243
reprit * 0.2000000
reprit responded 0.2000000
reprit repeated 0.2000000
reprit replied 0.0645161
reprit resumed 0.7894737
promena cast 0.5000000
l Egyptian 0.1111111
l effaced 0.2500000
l hear 0.2000000
l tore 0.2000000
l my 0.1034483
l have 0.0200000
l admiration 0.5000000
l in 0.0052632
l enjoy 0.3333333
l moreover 1.0000000
l love 0.3333333
l Hebrew 0.3333333
l dragged 0.5000000
l one 0.0133333
l usher 0.0909091
l around 0.2000000
l his 0.0205128
l horrible 0.3333333
l bristle 0.5000000
l your 0.0238095
l shouldered 0.3333333
l month 0.1428571
l people 0.0555556
l sword 0.5000000
l friendship 0.2000000
l assailed 0.2500000
l alms 0.5000000
l l 1.0000000
l those 0.3000000
l surrounded 0.5000000
l interest 0.3333333
l troubled 0.3333333
l gave 0.2500000
l it 0.0227273
l the 0.1416667
l NULL 0.0140187
comprend understands 0.5000000
comprend it 0.0075758
exprès expressly 1.0000000
belle ever 0.0909091
belle beauty 0.5000000
belle handsomest 0.5000000
exercer , 0.0008525
exercer creature 0.2500000
Adjugé Gone 1.0000000
épaule aside 0.5000000
épaule shake 0.2000000
épaule shoulder 0.6250000
Je NULL 0.0009346
Je Certainly 0.3333333
Je I 0.3253012
pourpoint &apos;s 0.0106383
pourpoint poet 0.0555556
plombs leads 1.0000000
iras-tu yourself 0.2000000
iras-tu you 0.0212766
iras-tu take 0.0666667
iras-tu Egyptian 0.1111111
iras-tu off 0.0833333
recluse recluse 1.0000000
averti struck 0.2500000
cire yellow 0.5000000
Précisément precisely 0.3333333
rien nothing 0.5000000
rien NULL 0.0009346
rien know 0.0769231
rien anything 0.2857143
Cependant Nevertheless 0.2500000
Cependant In 0.0769231
Cependant Meanwhile 1.0000000
Cependant But 0.0869565
mannequin manikin 1.0000000
empressement alacrity 1.0000000
fut NULL 0.0018692
fut was 0.0864198
empereur Emperor 1.0000000
fourche pitchfork 1.0000000
échafaudage stage 0.1428571
échafaudage . 0.0013755
tête head 0.8235294
tête his 0.0153846
tête own 0.1428571
disait &quot; 0.0019920
disait manifest 0.5000000
disait her 0.0185185
disait − 0.0072993
disait monkey 0.5000000
comprenant no 0.0357143
comprenant understanding 0.2000000
réticence reticence 0.2500000
Mort-diable Death 1.0000000
Mort-diable of 0.0024038
Mort-diable devil 0.1666667
diabolique diabolical 0.5000000
épaules over 0.1428571
épaules shoulders 1.0000000
japper howling 0.2500000
japper gathered 1.0000000
caressait caressed 1.0000000
contraste contrast 1.0000000
contraste a 0.0072464
sortes sorts 0.2500000
bouche mouth 1.0000000
bouche lips 0.3333333
autant same 0.2857143
autant the 0.0059524
Observations &apos;s 0.0106383
Observations Observations 1.0000000
Observations Burington 1.0000000
bras slightly 0.4000000
bras arms 0.5000000
bras arm 1.0000000
unanimement unanimously 1.0000000
reconnaissance recognition 1.0000000
Turquant Turquant 1.0000000
Pourquoi Why 1.0000000
Pourquoi are 0.0303030
lever rise 0.5000000
lever raise 0.5000000
fixer upon 0.0312500
fixer itself 0.5000000
répétèrent repeated 0.3000000
gauche , 0.0008525
gauche leg 0.3333333
gauche foot 0.1666667
étayer up 0.0526316
étayer prop 1.0000000
éperons spurs 1.0000000
éperons golden 0.3333333
accostés them 0.0285714
accostés accosted 0.5000000
toute Anyway 0.3333333
toute different 0.3333333
toute , 0.0008525
toute all 0.0476190
toute very 0.0666667
toute confusion 0.5000000
toute at 0.0112360
toute perfectly 0.5000000
toute in 0.0052632
toute NULL 0.0028037
toute woodwork 0.5000000
toute any 0.5000000
rougissant blushing 0.5000000
rompre break 0.2500000
rompre broke 0.1111111
rompre my 0.0344828
détournaient turned 0.0384615
détournaient aside 0.5000000
détournaient their 0.0250000
eux communication 0.5000000
eux NULL 0.0018692
eux them 0.1142857
aveugle blind 0.7142857
aveugle man 0.1063830
noir black 0.4000000
ambassadeur ambassador 1.0000000
faite inspection 1.0000000
faite made 0.0333333
Chandeleur Candlemas 0.5000000
certes right 0.3333333
certes , 0.0008525
certes assuredly 1.0000000
certes certainly 0.3333333
souriant smile 0.3000000
souriant a 0.0108696
souriant with 0.0267857
prépara for 0.0133333
prépara it 0.0075758
Giborne Giborne 1.0000000
saurai shall 0.2000000
neuve new 0.1428571
mécontentement displeasure 0.3333333
ante ante 0.5000000
ante before 0.1000000
ante swine 0.2500000
incongruité seeming 1.0000000
appeler ? 0.0072993
appeler address 0.2500000
morose morose 1.0000000
- &quot; 0.0019920
se still 0.2000000
se fast 0.5000000
se NULL 0.0065421
se rushed 0.5000000
se covered 0.3333333
se directed 0.2857143
se himself 0.1515152
se flounce 0.5000000
se mingling 0.5000000
se fought 0.5000000
se felt 0.3000000
se caring 0.3333333
se broke 0.1111111
se created 0.3333333
se bit 0.4000000
se ceased 0.1666667
se set 0.2000000
se costume 0.3333333
se became 0.4000000
se lightning 0.3333333
se retired 0.3333333
se slipped 0.2000000
se taverns 0.2500000
se realized 0.2500000
se allowed 0.4000000
se can 0.1111111
se stopped 0.1250000
se multiplied 0.5000000
se fixed 0.5000000
se letting 0.5000000
se turned 0.4615385
se held 0.2500000
se drowned 0.3333333
se bent 0.2500000
se naming 0.5000000
se , 0.0059676
se and 0.0216606
se touch 0.5000000
se pointing 0.4000000
se bridling 0.3333333
se calmed 0.5000000
se venture 0.5000000
se turning 0.2222222
se hiding 0.5000000
se closed 0.5000000
se rose 0.5000000
se to 0.0135135
se began 0.3333333
se tapestry 0.3333333
se themselves 0.1666667
se Prune 0.3333333
se hide 0.5000000
prologue prologue 1.0000000
échevins aldermen 1.0000000
chauve bald 0.5000000
éparpillant scattering 1.0000000
éclat on 0.0227273
éclat in 0.0052632
éclat burst 0.2000000
éclat appearance 0.5000000
tressaillit shuddered 0.2500000
tressaillit shudder 0.5000000
unanime ; 0.0206186
unanime unanimous 1.0000000
cellule ceiling 1.0000000
Si If 0.7142857
porcos swine 0.2500000
expérience experience 1.0000000
banderasCon figures 0.2500000
Rym Rym 0.8750000
malheureux unhappy 0.6666667
plain implicitly 0.6666667
plain trusting 1.0000000
princesse princess 1.0000000
bond as 0.0196078
bond far 0.1428571
bond bound 0.5000000
distinctement distinctly 1.0000000
chèvre goat 1.0000000
visiblement visibly 0.3333333
pièce it 0.0075758
pièce decorously 1.0000000
pièce piece 1.0000000
pièce play 0.3636364
mélancolique melancholy 1.0000000
reconnaissant recognizing 1.0000000
regardait NULL 0.0018692
regardait listening 0.2000000
regardait glared 0.5000000
regardait looked 0.3333333
regardait at 0.0112360
regardait them 0.0285714
jeune young 0.8695652
fermement believed 1.0000000
affaires own 0.1428571
brèves curt 1.0000000
imperturbable imperturbably 0.5000000
argotières ranged 1.0000000
argotières female 0.3333333
durer until 0.2500000
durer last 0.1428571
durer to 0.0033784
durer from 0.0169492
durer noon 0.5000000
sais &apos;t 0.1935484
sais know 0.3846154
sais knows 0.2857143
sais don 0.1666667
sais sentiment 0.2000000
joutaient played 0.2500000
joutaient &quot; 0.0009960
scie saw 0.2500000
mignon tiny 0.5000000
mignon poniard 0.5000000
haut from 0.0169492
haut summit 1.0000000
haut exalted 1.0000000
haut an 0.0625000
haut heights 1.0000000
haut loudly 0.3333333
salle hall 0.5000000
salle whole 0.5000000
salle entire 0.1250000
sonnette bell 1.0000000
épines thorns 0.5000000
parvint succeeded 1.0000000
criant latter 0.2500000
pedaso pedaso 1.0000000
pedaso bit 0.2000000
résigner themselves 0.1666667
résigner resign 0.5000000
table table 1.0000000
égayait enliven 0.5000000
Galiot Galiot 1.0000000
court brief 1.0000000
court short 1.0000000
court for 0.0266667
Mademoiselle Mademoiselle 0.4000000
fausse shame 0.3333333
fausse false 0.5000000
suivie you 0.0106383
suivie followed 0.2000000
dédain for 0.0266667
dédain disdain 1.0000000
poursuivit − 0.0145985
poursuivit went 0.3750000
poursuivit pursued 0.7500000
poursuivit continued 0.1666667
poursuivit on 0.0340909
poursuivit , 0.0008525
craignît disdained 1.0000000
craignît or 0.1818182
craignît feared 0.6666667
craignît either 0.5000000
trait peculiar 0.4000000
trait dominating 1.0000000
essaya tried 0.5000000
répondait hardly 0.1666667
coulant and 0.0036101
coulant noose 0.2000000
bouc ram 1.0000000
( ( 0.4545455
tigre angry 1.0000000
tigre an 0.0312500
crosse crozier 1.0000000
insoutenable was 0.0061728
insoutenable becoming 0.5000000
mesdamoiselles damsels 0.6666667
électrique shock 0.5000000
électrique electric 0.6666667
frais expense 0.5000000
fond truth 0.1666667
fond by 0.0425532
fond heart 0.2857143
Pérou Peru 0.5000000
Pérou all 0.0238095
royal vintage 1.0000000
oreille eminent 0.5000000
oreille most 0.2222222
as NULL 0.0009346
as possess 0.5000000
théâtre effect 0.1428571
théâtre theatre 1.0000000
théâtre stage 0.2857143
leva fore 0.5000000
leva rose 0.5000000
leva its 0.1250000
leva lifted 1.0000000
leva raised 0.2500000
sabbat sabbath 1.0000000
sabbat &apos; 0.0645161
soient be 0.0217391
furent attained 0.5000000
ripailler carousing 1.0000000
voulez-vous want 0.1000000
voulez-vous would 0.0952381
voulez-vous you 0.0319149
voulez-vous have 0.0400000
tenez absolutely 1.0000000
tenez insist 0.3333333
tenez so 0.0322581
Peste on 0.0113636
Peste plague 1.0000000
Peste A 0.0454545
tard later 0.5000000
tard on 0.0113636
rattacha again 0.0625000
rattacha energy 0.5000000
déserté deserted 0.5000000
là-dessus up 0.0526316
là-dessus be 0.0217391
là-dessus there 0.0434783
là-dessus here 0.0714286
là-dessus fine 0.0769231
hocha his 0.0051282
hocha tossed 1.0000000
doute course 0.3333333
doute doubt 0.5000000
doute no 0.0357143
graves grave 0.1666667
Robine and 0.0072202
Robine Rabine 1.0000000
surface surface 0.5000000
seule mere 1.0000000
seule single 1.0000000
diables fellows 1.0000000
curieuses maidens 0.5000000
curieuses curious 0.5000000
moralité morality 0.8333333
moralité perfectly 0.5000000
moralité a 0.0036232
douzaines sorts 0.2500000
au spare 0.3333333
au in 0.0578947
au fifteenth 0.5000000
au agreeable 0.5000000
au contrary 0.3333333
au witches 1.0000000
au at 0.0898876
au least 0.2000000
au salute 0.5000000
au seat 0.5000000
au reached 0.3333333
au spot 0.3333333
au let 0.1428571
au sprang 0.5000000
au to 0.0101351
au his 0.0051282
au NULL 0.0009346
au edge 0.5000000
au midst 0.2222222
au notary 0.5000000
au followed 0.2000000
au murder 0.3333333
au against 1.0000000
au rope 0.5000000
au curiosity 0.5000000
au the 0.0523810
semble you 0.0212766
semble strike 0.4000000
plaire in 0.0052632
plaire order 0.1000000
plaire to 0.0033784
plaire please 0.0588235
mécontent displeased 1.0000000
Quant for 0.0533333
Quant Joannes 0.2222222
Quant As 0.4000000
passera descend 0.6666667
passera shall 0.4000000
abeille concealed 0.3333333
abeille wasp 0.5000000
par-dessus above 0.1666667
Gilles Gilles 1.0000000
voilà behold 0.5000000
voilà &apos;s 0.0212766
voilà &quot; 0.0009960
voilà here 0.0714286
voilà fellow 0.5000000
effaré frightened 1.0000000
horrible took 0.0833333
horrible horrible 0.3333333
horrible temptation 0.5000000
entière hall 0.3750000
entière entire 0.2500000
entière assembly 1.0000000
accent tone 0.5000000
accent NULL 0.0009346
accent accents 0.5000000
dentro richness 0.5000000
dentro In 0.0769231
messire messire 0.5000000
dans into 0.2272727
dans for 0.0133333
dans gracefully 0.2500000
dans in 0.2052632
dans NULL 0.0056075
dans stage 0.2857143
dans amid 0.3333333
dans during 0.2857143
dans purpose 0.1666667
dans blowing 0.5000000
dans from 0.0169492
dans eaves 1.0000000
dans selected 0.3333333
dans out 0.0714286
dans violent 0.1666667
charge undertake 0.3333333
charge to 0.0033784
Brussac Brussac 1.0000000
29 earth-- 0.2000000
quels what 0.0434783
quels knows 0.2857143
barrait bar 0.5000000
cardinale cardinal 0.0212766
démener flounce 0.5000000
démener about 0.1000000
tremblait trembled 0.6666667
tremblait still 0.1000000
bons good 0.0769231
héréditaire hereditary 0.3333333
assise opposite 0.2500000
assise him 0.0091743
assise watched 1.0000000
assise seated 0.5000000
mœurs day 0.0869565
Renault Renauld 1.0000000
paillasse pallet 1.0000000
façons &apos;s 0.0212766
façons it 0.0075758
façons impatient 1.0000000
façons behavior 1.0000000
accroupi seated 0.5000000
pensait-il he 0.0067114
pensait-il half 0.1000000
pensait-il thought 0.1428571
candide candid 1.0000000
subites sudden 0.2500000
sotie farce 0.5000000
sotie well 0.0526316
mes my 0.1724138
mes mine 0.5000000
maintenant quits 0.5000000
maintenant now 1.0000000
trompe am 0.1250000
trompe mistaken 0.5000000
dit-elle she 0.2307692
dit-elle said 0.0865385
couvrirent drowned 0.3333333
aperçut then 0.0454545
risquer venture 0.5000000
détacha undid 1.0000000
détacha became 0.2000000
détacha unfastened 1.0000000
mêla interfered 0.3333333
petits-blancs blanks 0.3333333
petits-blancs little 0.0555556
chose sacred 0.1428571
chose gazing 0.3333333
chose pleasant 0.3333333
chose something 0.4000000
ambassade The 0.0196078
ambassade embassy 0.8333333
appelle-moi me 0.0303030
appelle-moi call 0.3333333
appelle-moi comrade 0.2000000
appelle-moi what 0.0217391
vrai true 1.0000000
sorcellerie bottom 0.3333333
soldat soldier 1.0000000
êtes-vous age 0.3333333
êtes-vous ready 1.0000000
êtes-vous you 0.0212766
quoique violent 0.1666667
quoique quaint 1.0000000
été NULL 0.0009346
été been 0.1666667
été comedians 0.2500000
retourné retreated 0.3333333
répéta-t-il he 0.0067114
répéta-t-il repeated 0.1000000
grandes melodies 0.5000000
grandes making 0.2000000
çà what 0.0434783
çà lances 1.0000000
profond profound 0.5000000
profond a 0.0072464
tiendrait hold 0.2500000
tiendrait would 0.0476190
tiendrait course 0.1666667
obscène songs 0.3333333
eût had 0.0322581
eût have 0.2000000
eût NULL 0.0009346
eût ever 0.1818182
eût would 0.4285714
entraîna vied 0.2000000
entraîna Each 0.1000000
entraîna dragged 0.5000000
entraîna off 0.0833333
seules shops 0.3333333
seules only 0.0476190
avaient comedians 0.2500000
avaient upper 0.2857143
avaient had 0.0537634
visage faces 0.3333333
visage face 0.3000000
dédaigneuse drew 0.3333333
dédaigneuse disdainful 0.3333333
dédaigneuse up 0.0526316
dédaigneuse her 0.0185185
convenablement listened 0.4000000
pots clinked 0.5000000
pots pots 0.5000000
pots broken 0.3333333
effort attempt 0.3333333
tranquille ease 0.5000000
bière beer-drinkers 0.3333333
retrouver regaining 0.5000000
désordre disorder 0.5000000
désordre perceptible 0.5000000
vieillards accosting 0.5000000
vieillards men 0.1111111
vieillards old 0.1250000
entamer to 0.0033784
entamer enter 0.2000000
flèche arrow 1.0000000
peu somewhat 0.7500000
peu NULL 0.0028037
peu rather 0.2000000
peu little 0.2222222
peu hardly 0.3333333
peu revile 0.3333333
peu few 0.1538462
peu half 0.2000000
peu reestablished 0.3333333
peu restored 0.6666667
Plus Further 0.5000000
de cavalry 0.5000000
de words 0.2727273
de Around 0.5000000
de effect 0.1428571
de &apos;s 0.2021277
de gossips 0.3333333
de created 0.3333333
de instantly 0.3333333
de velvet 0.5000000
de close 0.5000000
de causing 0.3333333
de shake 0.2000000
de soliciting 0.5000000
de feeling 0.3333333
de by 0.1063830
de Notre 1.0000000
de to 0.1182432
de jerkin 0.6000000
de this 0.0204082
de than 0.0714286
de eye 0.4000000
de found 0.5000000
de , 0.0017050
de instant 0.2857143
de gayety 0.5000000
de above 0.3333333
de between 0.1000000
de sorts 0.2500000
de bellringer 0.2000000
de from 0.3220339
de step 0.1666667
de over 0.1428571
de fingering 0.5000000
de redoubled 0.3333333
de reflection 0.2500000
de turpitude 0.5000000
de understood 0.3333333
de slip 0.2500000
de de 0.7666667
de of 0.5048077
de difficulty 0.2000000
de NULL 0.0532710
de on 0.1136364
de loose 0.5714286
de as 0.0588235
de Nothing 0.2500000
de Flemish 0.1250000
de passionate 0.3333333
de Egyptian 0.1111111
de clad 0.5000000
de at 0.1123596
de revery 0.4000000
de great 0.0833333
de in 0.0315789
de immediately 0.2500000
de upon 0.0312500
de laughing 0.3333333
de Hebrew 0.3333333
de rendered 0.2500000
de enjoyed 0.2857143
de into 0.0909091
de for 0.0933333
de soles 0.2500000
de pensive 0.3333333
de much 0.2500000
de railing 0.3333333
de with 0.1339286
Philippot Philippe 0.5000000
tomber dropped 0.3333333
jurer at 0.0224719
jurer do 0.1176471
jurer swear 0.5000000
perdue wasted 1.0000000
perdue nothing 0.1000000
perdue lost 0.2500000
perdue it 0.0075758
occidental wall 0.5000000
accueil cordially 1.0000000
Messieurs &quot; 0.0019920
Messieurs Messieurs 0.5000000
tournée directed 0.1428571
arrivèrent arrived 0.4000000
ils they 0.4666667
main hand 0.5000000
perdu lost 0.2500000
yeux eyes 0.7500000
yeux his 0.0051282
yeux impudent 0.2857143
plaira like 0.1666667
Toutefois However 0.2000000
vague vague 1.0000000
trouble tumult 0.1428571
votre your 0.2142857
grommela-t-elle she 0.0256410
grommela-t-elle muttered 0.5000000
ans ago 0.5000000
ans years 1.0000000
rayons visual 1.0000000
harangue harangue 1.0000000
combattaient fought 0.5000000
processionnellement small 1.0000000
remué touched 0.3333333
manche sleeve 0.5000000
messieurs ! 0.0040984
messieurs gentlemen 0.3333333
clameurs clamors 1.0000000
pudiquement lowered 0.5000000
pudiquement modestly 1.0000000
pudiquement her 0.0185185
commencement beginning 0.5000000
vif quick 0.3333333
vif alive 1.0000000
difforme creeping 0.5000000
bourdonnante throng 0.3333333
guêpe had 0.0107527
guêpe wasp 0.5000000
guêpe turned 0.0384615
guêpe into 0.0454545
cramponner clinging 0.5000000
cramponner been 0.0416667
cramponner fast 0.5000000
boiserie ; 0.0103093
boiserie woodwork 0.5000000
noire NULL 0.0018692
noire doublet 0.2500000
cofre coffer 0.5000000
jeta grave 0.1666667
jeta upon 0.0312500
jeta cast 0.5000000
jeta and 0.0036101
jeta said 0.0096154
jeta glance 0.1428571
meurtre Murder 0.5000000
meurtre ! 0.0040984
meurtre murder 0.6666667
folles gossips 0.3333333
folles foolish 1.0000000
Pierre Pierre 1.0000000
médiocrement little 0.0555556
médiocrement a 0.0036232
médiocrement were 0.0227273
orgie annual 1.0000000
bossu displeasing 1.0000000
bossu hunchback 0.8333333
aux bestowed 0.5000000
aux harden 0.3333333
aux the 0.0071429
aux to 0.0337838
aux start 0.3333333
aux expense 0.5000000
aux on 0.0568182
aux &apos;s 0.0106383
aux devotion 0.5000000
aux heels 0.3333333
aux ferryman 0.3333333
aux actors 0.3333333
aux latter 0.2500000
tarda was 0.0061728
tarda slow 0.5000000
bohémienne gypsy 0.6666667
bohémienne law 0.3333333
intérêt interest 0.6666667
transition transition 1.0000000
Tous All 0.3000000
sans without 0.9565217
sans doubt 0.2500000
sonner ringing 1.0000000
taureau muzzle 1.0000000
taureau ; 0.0206186
taureau it 0.0151515
taureau only 0.0952381
longtemps long 0.5000000
longtemps grudge 0.3333333
longtemps ago 0.5000000
distinctif distinctive 0.5000000
distinctif trait 0.3333333
sœur sister 1.0000000
preudomies wisdom 1.0000000
manants rustics 1.0000000
manants , 0.0008525
magique knotted 1.0000000
bougeait quitted 1.0000000
bougeait one 0.0133333
fit retreated 0.3333333
fit audible 0.5000000
fit did 0.0967742
fit set 0.2000000
fit started 0.3333333
fit advance 0.5000000
fit advanced 0.1428571
fit made 0.3333333
fit produced 0.2500000
fit around 0.2000000
fit NULL 0.0009346
fit rout 1.0000000
fit noose 0.2000000
fit alarmed 0.3333333
fit abbés 0.2500000
fit pouted 0.3333333
obéissance obedience 0.5000000
comble highest 1.0000000
comble pitch 0.5000000
comble ; 0.0206186
pendu hanged 0.7500000
pendu hung 0.5555556
lances turning 0.1111111
Sur-le-champ this 0.0204082
Sur-le-champ instant 0.1428571
Sur-le-champ very 0.0666667
telle that 0.0070423
telle murmur 0.3333333
telle do 0.0588235
voulaient-ils deuce 0.3333333
voulaient-ils they 0.0333333
voulaient-ils did 0.0322581
bonne and 0.0072202
bonne good 0.2692308
parties parts 0.4000000
agiter tremble 1.0000000
savait know 0.0384615
savait not 0.0131579
savait had 0.0107527
savait what 0.0217391
assez that 0.0140845
assez sufficiently 1.0000000
assez indifferent 0.5000000
assez quite 0.1428571
assez considerable 0.5000000
assez verses 0.3333333
assez flattering 0.5000000
assez a 0.0036232
assez enough 0.2500000
dressa himself 0.0303030
dressa reared 1.0000000
dressa drew 0.3333333
brisé who 0.0327869
brisé broken 0.6666667
brisé had 0.0215054
brisé been 0.0833333
rendait rendered 0.2500000
tenta made 0.0333333
rancune harbour 1.0000000
rancune &apos;t 0.0645161
rancune grudge 0.3333333
rancune grudges 1.0000000
ami friend 0.6000000
parisis sou 1.0000000
fontaine Fountain 0.5000000
fontaine Ponceau 0.5000000
mauvaise humor 0.3333333
mauvaise &apos;s 0.0106383
office office 1.0000000
accostaient each 0.3333333
accostaient other 0.0322581
coup suddenly 0.2000000
coup once 0.1111111
coup shot 0.5000000
coup gust 1.0000000
coup blow 1.0000000
coup shouted 0.0714286
coup grave 0.1666667
coup assailed 0.2500000
garder keep 1.0000000
redressant himself 0.0303030
redressant drawing 1.0000000
redressant up 0.0526316
étrange strange 1.0000000
Savez-vous Do 0.2000000
Savez-vous know 0.0769231
Savez-vous you 0.0212766
faisons spare 0.3333333
faisons gladly 0.2000000
figuras figures 0.2500000
figuras to 0.0033784
Chante-Prune Chante 1.0000000
Chante-Prune Prune 0.3333333
Chante-Prune − 0.0072993
gracieuse violent 0.1666667
gracieuse though 0.1000000
déchiré at 0.0224719
déchiré rent 0.3333333
misérables rascals 0.5000000
nu bare 1.0000000
vain vain 1.0000000
vilain horrible 0.3333333
Voyez ( 0.0909091
sourd deaf 1.0000000
sourd , 0.0017050
gros fat 1.0000000
gros big 1.0000000
gros Loud 0.3333333
gros great 0.1666667
groins on 0.0113636
Pourtant Nevertheless 0.1250000
argile NULL 0.0009346
mancia ~ 0.0434783
mancia mancia 1.0000000
géométriques geometrical 0.4000000
Guillemette Guillemette 1.0000000
tant a 0.0036232
tant thoroughly 1.0000000
tant so 0.1935484
apaisera will 0.0526316
apaisera appease 0.3333333
qualité quality 1.0000000
qualité your 0.0238095
était-il to 0.0033784
était-il himself 0.0303030
reprenait retorted 0.3333333
reprenait resumed 0.1052632
vit him 0.0091743
vit beheld 0.1111111
vit saw 0.2500000
vit that 0.0070423
appartient-il they 0.0333333
appartient-il belong 1.0000000
appartient-il do 0.0588235
enlever removing 1.0000000
Aimez-vous Do 0.1000000
Aimez-vous love 0.3333333
Aimez-vous you 0.0106383
prévôt provost 1.0000000
don gift 1.0000000
ma my 0.3103448
populaire disrespect 0.5000000
populaire populace 0.6000000
mélodies great 0.0833333
mélodies melodies 0.5000000
reptile creeping 0.5000000
coûte pains 0.3333333
troubler disturbing 1.0000000
fermer taverns 0.2500000
cap foot 0.1666667
cap with 0.0089286
cap his 0.0051282
finisse end 0.5000000
Ou those 0.2000000
Ou Or 1.0000000
intrigues intrigues 1.0000000
souvent lent 1.0000000
fastidieuses grimaces 0.2857143
points points 0.3333333
laideur ugliness 0.5000000
même same 0.4285714
même one 0.0133333
même effaced 0.2500000
même even 0.1428571
même NULL 0.0009346
jour-là sacred 0.1428571
jour-là customs 1.0000000
jour-là That 0.0666667
jour-là day 0.2608696
saint-père Father 0.3333333
trouvez-vous think 0.4000000
trouvez-vous of 0.0048077
trouvez-vous it 0.0151515
trouvez-vous you 0.0212766
trouvez-vous do 0.1176471
carillon peal 1.0000000
laquelle which 0.0333333
faim hungry 0.5000000
faim is 0.0126582
semblait to 0.0135135
semblait seemed 0.5000000
semblait listen 0.5000000
peut-être because 0.2000000
peut-être perhaps 1.0000000
peut-être probably 1.0000000
Maraud So 0.0555556
si suppose 0.1666667
si if 0.3076923
si If 0.1428571
si so 0.4516129
si myself 0.3333333
si in 0.0052632
si NULL 0.0018692
si such 0.3333333
chantant aspects 0.3333333
chantant as 0.0196078
parlait spoke 1.0000000
sirènes sirens 1.0000000
léger step 0.0833333
apercevait that 0.0070423
apercevait perceived 0.2500000
apercevait on 0.0113636
apercevait was 0.0061728
apercevait going 0.1000000
apercevait nothing 0.1000000
Aussi he 0.0067114
Aussi As 0.2000000
Aussi Thus 1.0000000
Aussi So 0.1666667
Aussi they 0.0666667
Aussi did 0.0322581
produisit of 0.0048077
produisit produced 0.2500000
produisit the 0.0023810
amenèrent their 0.0250000
amenèrent him 0.0091743
amenèrent led 0.2000000
amenèrent clutches 1.0000000
Chacun Each 0.5000000
Chacun one 0.0400000
sur mount 0.3333333
sur on 0.2840909
sur mounted 0.5000000
sur over 0.2142857
sur upper 0.2857143
sur upon 0.5625000
sur around 0.2000000
ressoudé together 0.6666667
ressoudé again 0.1250000
loge lodge 0.5000000
entré &apos;s 0.0106383
entré entrance 0.1111111
gouttière by 0.0425532
gouttière night 0.4000000
fronça scowled 0.3333333
poète NULL 0.0009346
poète poet 0.9444444
conversation into 0.0909091
conversation a 0.0036232
conversation conversation 0.7142857
ce this 0.3061224
ce know 0.1153846
ce unable 0.2000000
ce open 0.3333333
ce magic 1.0000000
ce numerous 0.3333333
ce streets 1.0000000
ce what 0.1956522
ce hereditary 0.3333333
ce aware 0.1538462
ce moment 0.0500000
ce breaking 0.1666667
ce that 0.1408451
ce meaning 0.3333333
ce sacred 0.1428571
ce few 0.1538462
ce hellish 0.5000000
ce the 0.0059524
ce NULL 0.0065421
ce be 0.0434783
politique politician 1.0000000
sourire smiling 0.3333333
sourire smile 0.4000000
sourire hereditary 0.3333333
payer pay 1.0000000
échangeaient very 0.0666667
échangeaient were 0.0227273
échangeaient exchanging 1.0000000
Grand-Remy Remy 1.0000000
Grand-Remy Grand 0.5000000
Grand-Remy − 0.0072993
désordonnés laughter 0.1666667
désordonnés disorderly 1.0000000
fier too 0.0526316
fier implicitly 0.3333333
mangeait ate 1.0000000
hiver winter 1.0000000
hiver such 0.1666667
Jehan Jehan 0.8000000
Jehan &quot; 0.0009960
menait a 0.0072464
menait joyous 0.3333333
menait cardinal 0.0425532
menait he 0.0134228
menait led 0.4000000
tout-puissant all 0.0238095
tout-puissant − 0.0072993
tout-puissant powerful 0.5000000
probablement one 0.0133333
Maudite Accursed 1.0000000
mettrait laying 0.5000000
mettrait thrusting 1.0000000
illustre illustrious 0.5000000
Pauvre Poor 0.5000000
ravi delighted 0.2000000
ravi at 0.0112360
homme man 0.5957447
forcés comedians 0.2500000
forcés forced 0.1428571
digérerais if 0.0769231
digérerais digested 1.0000000
entra behind 0.5000000
entra entered 1.0000000
cacha concealed 0.3333333
sachant neither 0.0500000
sachant knowing 0.2500000
Saint-Michel ; 0.0103093
Saint-Michel Pont 0.5000000
Saint-Michel Saint 0.3333333
Saint-Michel − 0.0072993
Saint-Michel Michel 0.3333333
diversion a 0.0036232
recommencer again 0.0625000
recommencer all 0.0238095
recommencer over 0.0714286
recommencer it 0.0075758
recommencer begin 0.0909091
stratagème stratagem 1.0000000
croire We 0.3333333
trépied living 0.3333333
paru a 0.0072464
paru appearance 0.5000000
paru made 0.0666667
paru brilliant 0.5000000
nuevas figures 0.2500000
nuevas With 0.2500000
fenêtre windows 0.5000000
sembler strike 0.2000000
sembler may 1.0000000
soucier that 0.0070423
soucier caring 0.3333333
soucier he 0.0067114
petits they 0.0333333
petits sang 0.2000000
petits little 0.0555556
meilleure doing 1.0000000
meilleure best 0.5000000
meilleure grace 0.5000000
caresser caress 1.0000000
Aujourd To 0.3333333
Djali ! 0.0081967
Djali Djali 1.0000000
elle impression 0.3333333
elle it 0.0075758
elle NULL 0.0018692
elle she 0.4102564
elle distiches 0.5000000
amoureuses hopes 1.0000000
amoureuses . 0.0013755
amoureuses amorous 0.5000000
Michel Michel 0.6666667
musique music 0.5000000
passants by 0.0212766
passants thus 0.2000000
passants passers 0.5000000
passants following 0.1666667
passants − 0.0072993
gens men 0.2222222
gens courtiers 0.5000000
gens people 0.0555556
gens dignitaries 1.0000000
tribu tribe 1.0000000
maugréer revile 0.3333333
avantages are 0.0303030
avantages advantages 0.2000000
hausser their 0.0250000
hausser raise 0.5000000
cachant her 0.0185185
cachant hiding 0.5000000
enfoncer plunge 0.3333333
enfoncer into 0.0454545
bête isn 0.2000000
bête yours 1.0000000
bête animal 1.0000000
bête of 0.0024038
&#93; sir 0.1428571
&#93; ) 0.1111111
&#93; earth-- 0.2000000
demoiselle Demoiselle 1.0000000
demoiselle − 0.0072993
demoiselle dragon 1.0000000
demoiselle fly 0.3333333
applaudissaient applauded 0.3333333
Cupido Cupido 1.0000000
présentait broad 1.0000000
Dès his 0.0051282
Dès soon 0.3333333
Dès illustrious 0.5000000
Dès As 0.1000000
Dès eminence 0.0666667
Dès as 0.0196078
jusque even 0.2857143
chapeau hat 1.0000000
lourde heavy 1.0000000
Notre-Dame Dame 1.0000000
Notre-Dame − 0.0291971
nous throws 1.0000000
nous gentlemen 0.3333333
nous we 0.8181818
nous NULL 0.0009346
nous us 0.4545455
nous pains 0.3333333
nous archduke 0.3333333
nous to 0.0033784
nous unable 0.2000000
nous Marchand 0.1666667
appelle-t-on called 0.2000000
nœud noose 0.2000000
nature nature 0.5000000
nature different 0.3333333
certainement pocket 0.5000000
certainement he 0.0067114
épithalame bridal 1.0000000
épithalame song 0.3333333
chimère chimera 1.0000000
me me 0.2727273
me &quot; 0.0009960
me do 0.0588235
me wilt 1.0000000
me does 0.0909091
me They 0.0909091
me took 0.0833333
me break 0.2500000
me undertake 0.3333333
me myself 0.3333333
me breaking 0.1666667
me mistaken 0.5000000
me comes 0.2000000
outre on 0.0113636
outre passed 0.0714286
Ainsi So 0.0555556
danse interrupted 0.1666667
hauteur chin 0.3333333
Maugerepuis Maugerepuis 1.0000000
interrompre interrupting 1.0000000
interrompre interrupted 0.1666667
interrompre was 0.0061728
Sourd Deaf 1.0000000
) ) 0.5555556
énormités enormities 0.2500000
nouveau movement 0.5000000
nouveau newcomer 0.5000000
nouveau new 0.1428571
nouveau advanced 0.1428571
nouveau another 0.1250000
celui-là one 0.0133333
celui-là this 0.0204082
cas case 1.0000000
Car for 0.0133333
parole word 0.2857143
parole addressed 0.2000000
fois once 0.1111111
fois sought 0.5000000
fois both 0.5000000
fois more 0.0833333
fois Once 0.5000000
fois time 0.1764706
adressa addressed 0.2000000
âge age 0.3333333
âge did 0.0322581
Etc Etc 1.0000000
Etc etc 0.1666667
faites executed 1.0000000
femme wife 1.0000000
femme woman 0.7142857
embarras his 0.0051282
embarras embarrassment 1.0000000
embarras him 0.0091743
embarras from 0.0169492
embarras rescue 0.5000000
moindre slightest 1.0000000
quinze fifteen 1.0000000
moustache moustache 1.0000000
fidélité fidelity 1.0000000
mordit bit 0.4000000
mordit his 0.0102564
philosophes philosophers 1.0000000
dramatique dramatic 1.0000000
dramatique moment 0.1000000
pays land 1.0000000
pays the 0.0011905
humiliant humiliating 0.5000000
humiliant by 0.0212766
Sainte-Geneviève Saint 0.3333333
Sainte-Geneviève Geneviéve 1.0000000
demi-voix in 0.0052632
vas vas 1.0000000
vas are 0.0303030
parodie parody 1.0000000
cruche crock 1.0000000
cruche jug 1.0000000
embéguinées muffled 0.5000000
respira again 0.0625000
respira more 0.0416667
respira breathed 0.6666667
respira once 0.1111111
mufle &apos;s 0.0212766
mufle bull 0.4000000
riantes pleasant 0.3333333
familièrement familiarly 1.0000000
Château Chateau 1.0000000
jeter hurling 1.0000000
profanation profanation 1.0000000
buona buona 1.0000000
buona ~ 0.0434783
buona La 0.2500000
partout everywhere 1.0000000
buen buen 0.5000000
buen echar 0.5000000
repleta repleta 1.0000000
Gadine Gadine 1.0000000
cria of 0.0024038
cria shouted 0.2142857
cria cried 0.5000000
Ballestas de 0.0333333
Ballestas buen 0.5000000
Ballestas Ballestas 1.0000000
alla glance 0.1428571
alla set 0.2000000
violette as 0.0392157
violette target 0.5000000
violette his 0.0102564
midi noonday 1.0000000
midi noon 0.5000000
stance stanza 1.0000000
confier well 0.1052632
charmé charmed 0.5000000
comptait over 0.0714286
comptait counted 1.0000000
triomphe triumph 0.4285714
triomphe lucky 0.2500000
prononcer uttering 0.3333333
M. M. 1.0000000
monsieur Monsieur 0.2666667
monsieur monsieur 1.0000000
monsieur appease 0.3333333
monsieur rector 0.5000000
monsieur sir 0.2857143
comédie comedy 1.0000000
stupeur stupor 0.5000000
stupeur having 0.0666667
stupeur passed 0.0714286
Vieux Old 1.0000000
envolée fled 0.2000000
envolée has 0.0625000
envolée warbler 1.0000000
envolée and 0.0036101
seras will 0.3157895
seras be 0.1304348
avantage advantage 1.0000000
avantage to 0.0033784
avantage me 0.0303030
adressant addressing 0.3333333
pardon your 0.0238095
pardon pardon 1.0000000
aigre sharp 1.0000000
aigre voice 0.0526316
force a 0.0036232
force top 1.0000000
force consequence 1.0000000
force number 1.0000000
excita scene 0.3333333
excita such 0.1666667
ecclésiastique escort 1.0000000
du of 0.1250000
du devoutness 0.5000000
du artillery 0.5000000
du NULL 0.0009346
du Courts 0.2000000
du guts 0.5000000
du the 0.0988095
du Ponceau 0.5000000
du doublet 0.2500000
du neighboring 1.0000000
du Belly 0.5000000
du stamp 0.3333333
du at 0.0224719
du chin 0.3333333
du possession 0.2500000
du Nombrill 0.5000000
du trait 0.3333333
du procurator 0.5000000
du hour 0.1428571
du from 0.0508475
du Latin 0.3333333
du pointed 0.5000000
du darkest 0.5000000
du Menelean 0.5000000
du seals 0.5000000
du heart 0.2857143
du Subject 0.5000000
du bread 0.3333333
du object 0.5000000
Enfin last 0.1428571
Enfin length 0.3333333
Enfin At 0.3000000
faisaient-ils abstain 0.3333333
transversale beam 0.3333333
glisser in 0.0052632
glisser slipped 0.2000000
glisser slip 0.2500000
glisser from 0.0169492
Cour Cour 1.0000000
Cour Court 0.5000000
événements events 1.0000000
singe monkey 0.5000000
singe ! 0.0081967
élu elected 1.0000000
élu been 0.0833333
Est-ce Hasn 1.0000000
Est-ce &apos;t 0.0322581
Est-ce Are 0.3333333
imagina devised 1.0000000
tenaient held 0.2500000
riaient were 0.0227273
riaient laughing 0.3333333
suiviez-vous me 0.0303030
suiviez-vous you 0.0106383
suiviez-vous were 0.0227273
suiviez-vous following 0.1666667
entendait hear 0.0666667
entendait heard 0.5000000
œil many 0.5000000
œil too 0.1052632
œil eye 0.4000000
œil NULL 0.0009346
Tout The 0.0098039
Tout All 0.2000000
promenait was 0.0123457
promenait sending 1.0000000
moi me 0.1212121
moi NULL 0.0009346
moi − 0.0145985
moi I 0.0361446
archevêque Archbishop 1.0000000
Dites Say 0.6666667
Dites &quot; 0.0009960
Y Are 0.3333333
terrifié terrified 1.0000000
soutane cassocks 0.5000000
soutane black 0.4000000
cabane cabin 1.0000000
quittait removed 0.5000000
quittait his 0.0051282
autour about 0.1000000
autour howling 0.2500000
autour created 0.3333333
autour tip 0.3333333
autour was 0.0123457
autour around 0.2000000
autour round 0.1000000
distractions mind 0.1666667
distractions absence 0.5000000
distractions of 0.0024038
huissier usher 0.5000000
doit show 0.5000000
doit must 0.2000000
sollicitait soliciting 0.5000000
sollicitait was 0.0061728
derrière legs 0.5000000
derrière behind 0.5000000
bacchanale bacchanal 1.0000000
bacchanale entire 0.1250000
commencerons begin 0.0909091
commencerons will 0.0526316
voici it 0.0075758
voici is 0.0126582
voici here 0.0714286
vite speedily 0.5000000
vite quickly 1.0000000
habitués habituated 0.2500000
chétive frail 0.5000000
Maison-aux-Piliers Pillar 1.0000000
Maison-aux-Piliers House 0.6666667
fouiller to 0.0033784
fouiller search 0.5000000
mérite deserves 0.5000000
mérite well 0.0526316
laïque layman 1.0000000
Certes Certainly 0.3333333
expliquer ... 0.3333333
un on 0.0227273
un attach 0.5000000
un rather 0.2000000
un somewhat 0.2500000
un NULL 0.0074766
un lying 1.0000000
un clapping 0.5000000
un me 0.0303030
un an 0.3437500
un attempt 0.3333333
un , 0.0042626
un one 0.2533333
un the 0.0035714
un a 0.3876812
un another 0.4375000
un started 0.3333333
un Silence 0.2500000
un tambourine 0.1428571
un profound 0.2500000
un violent 0.1666667
un revile 0.3333333
un reestablished 0.3333333
un Holy 0.1428571
froide cold 0.3333333
23 bread 0.3333333
Merci Thanks 0.5000000
possible confounding 0.2500000
possible himself 0.0303030
souci cause 0.5000000
commotion His 0.1000000
commotion emotion 1.0000000
parts themselves 0.1666667
parts sides 1.0000000
pendre Should 0.2500000
pendre be 0.0434783
pendre hung 0.1111111
pendre you 0.0212766
pendre hanged 0.2500000
pendre to 0.0067568
pendre hang 0.6666667
pendre yourself 0.2000000
porte door 0.6000000
porte threshold 0.5000000
porte wears 0.5000000
fouillerai search 0.5000000
fouillerai &apos;ll 0.2500000
fouillerai anything 0.1428571
Pardonnez-moi Pardon 0.5000000
magistrat magistrate 1.0000000
Esmeralda la 0.1428571
Esmeralda Esmeralda 0.8181818
Esmeralda &apos; 0.1290323
Esmeralda dagger 0.2500000
matagraboliser blarney 1.0000000
matagraboliser us 0.0909091
Gringoire Gringoire 1.0000000
péripétie was 0.0061728
péripétie change 1.0000000
venus selected 0.3333333
venus from 0.0338983
ajoutait added 0.2222222
ajoutait &quot; 0.0019920
Horrible Horrible 1.0000000
Après And 0.0322581
Après then 0.0454545
Après After 1.0000000
fière fine 0.0769231
maudite &quot; 0.0009960
maudite accursed 0.5000000
pétrifiée petrified 1.0000000
Moi I 0.0120482
aussi NULL 0.0009346
aussi believe 0.5000000
aussi play 0.0909091
aussi talk 1.0000000
aussi also 0.6666667
manquait from 0.0169492
manquait himself 0.0303030
manquait conceal 1.0000000
Coutellerie Coutellerie 1.0000000
Coutellerie la 0.0714286
hésitation hesitation 0.5000000
écria exclaimed 0.3750000
écria NULL 0.0009346
serait − 0.0072993
dogue bull 0.2000000
laisser have 0.0200000
laisser allowed 0.2000000
laisser Should 0.2500000
courent walk 0.5000000
tache on 0.0113636
tache a 0.0036232
restait nothing 0.1000000
devenu became 0.4000000
feutre doublet 0.2500000
concierge keeper 1.0000000
voulait wished 0.6666667
voulait person 0.6666667
était also 0.1666667
était beautiful 0.3333333
était attacked 0.5000000
était water 0.3333333
était NULL 0.0046729
était man 0.0851064
était been 0.0833333
était had 0.1827957
était was 0.4629630
était were 0.0454545
était gratifying 0.5000000
Allez Go 1.0000000
émietter some 0.0714286
émietter crumble 1.0000000
ouvre open 0.3333333
ouvre sluice 1.0000000
garda silent 0.2500000
garda remained 0.1111111
grands great 0.2500000
chaudron cauldron 1.0000000
Alarabes ~ 0.0434783
appelez-vous name 0.0769231
appelez-vous is 0.0126582
appelez-vous your 0.0238095
continua-t-elle she 0.0256410
continua-t-elle &quot; 0.0009960
continua-t-elle continued 0.0833333
conséquent consequently 1.0000000
Quasimodo Quasimodo 0.9696970
Quasimodo made 0.0333333
Quasimodo shake 0.2000000
Mort-Christ S 1.0000000
Mort-Christ &apos;death 1.0000000
Frollo Frollo 0.5555556
à cut 0.3333333
à some 0.0714286
à because 0.2000000
à to 0.2398649
à what 0.0652174
à deafening 0.6666667
à upon 0.1250000
à in 0.1315789
à along 0.2500000
à dancer 0.3333333
à poor 0.1428571
à seeing 0.3333333
à at 0.2022472
à &apos; 0.0322581
à beneath 0.2000000
à approbation 0.5000000
à reaching 1.0000000
à aloud 1.0000000
à a 0.0108696
à few 0.0769231
à suddenly 0.1000000
à alarmed 0.3333333
à with 0.0892857
à any 0.2500000
à unless 0.3333333
à his 0.0256410
à quick 0.3333333
à for 0.0266667
à turned 0.0769231
à into 0.0454545
à allied 0.5000000
à off 0.3333333
à pond 0.5000000
à untoward 0.5000000
à slipped 0.2000000
à well 0.1052632
à restored 0.3333333
à through 0.4444444
à welled 0.5000000
à attacked 0.5000000
à assailed 0.2500000
à lay 0.2857143
à addressing 0.3333333
à until 0.2500000
à passed 0.1428571
à attained 0.5000000
à before 0.1000000
à half 0.4000000
à surnames 0.5000000
à dish 0.5000000
à on 0.1250000
à lofty 0.3333333
à Frollo 0.2222222
à NULL 0.0149533
à far 0.1428571
à himself 0.0303030
Maître master 0.2500000
Maître Master 0.4705882
Maître &quot; 0.0029880
déplaisante &apos;s 0.0212766
Hélas Alas 1.0000000
endormait fallen 1.0000000
endormait had 0.0107527
endormait asleep 0.5000000
effet fact 0.6111111
effet truth 0.5000000
effet in 0.0052632
effet effect 0.7142857
décharge discharge 1.0000000
servi been 0.0416667
servi played 0.2500000
servi yet 0.1428571
règles according 1.0000000
règles to 0.0033784
règles rules 1.0000000
Thibaut Thibaut 1.0000000
ville town 1.0000000
ville refreshments 1.0000000
ville city 1.0000000
Célestins Célestins 1.0000000
chats cats 1.0000000
gravité gravity 1.0000000
vînt − 0.0072993
passa passed 0.2142857
journée day 0.0434783
faut necessary 0.5000000
faut must 0.3333333
faut you 0.0106383
faut ? 0.0072993
faut A 0.0454545
entourait also 0.1666667
entourait which 0.0166667
entourait surrounded 0.1666667
entourait him 0.0091743
entourait auditors 0.5000000
entourait were 0.0227273
horloge clock 1.0000000
pavé pavements 1.0000000
bouledogue dog 0.4000000
bouledogue bull 0.4000000
bouledogue − 0.0145985
étant directed 0.1428571
étant being 0.2000000
étant all 0.0238095
griffes claws 0.5000000
comédiens comedians 0.2500000
passantes passers 0.5000000
passantes − 0.0072993
passantes by 0.0212766
Les Laughter 0.5000000
Les Pots 1.0000000
Les The 0.0882353
Les Big 1.0000000
allumer light 0.3333333
allumer it 0.0075758
cause because 0.2000000
patiemment patiently 1.0000000
tirait letting 0.5000000
tirait held 0.2500000
basque NULL 0.0018692
soupir sigh 1.0000000
seuil threshold 0.5000000
Boudraque Boudraque 1.0000000
Martial distiches 0.5000000
denier even 0.1428571
assaillir assailed 0.2500000
choqué good 0.0384615
choqué by 0.0212766
choqué shocked 1.0000000
choqué deal 0.5000000
etc. etc 0.8333333
etc. . 0.0068776
plaie quick 0.3333333
nouait together 0.3333333
mois month 0.4285714
secours rescue 0.5000000
revenait had 0.0107527
revenait returned 0.3333333
geste wave 1.0000000
taille sort 0.3333333
taille waist 1.0000000
taille enjoy 0.3333333
jouer play 0.1818182
Marchand Marchand 0.1666667
tierra earth-- 0.2000000
hardiment NULL 0.0018692
papauté deserve 0.3333333
papauté pope 0.2000000
papauté be 0.0434783
Pouvez-vous ask 0.2500000
Pouvez-vous Can 0.5000000
Pouvez-vous you 0.0106383
comme enough 0.2500000
comme though 0.7000000
comme as 0.3529412
comme like 0.8333333
comme comrade 0.2000000
grand-salle Grand 0.5000000
grand-salle Hall 1.0000000
battu cudgelled 1.0000000
Guichard Guichard 1.0000000
chef chief 0.3333333
mont Menelean 0.5000000
avança advanced 0.2857143
observa remarks 1.0000000
observa &quot; 0.0019920
observa remarked 0.5000000
duc Duke 0.5000000
officier officer 0.5000000
couverte ragged 0.5000000
murmura &quot; 0.0009960
murmura murmured 1.0000000
Autour Around 0.5000000
sortir lucky 0.2500000
face his 0.0102564
face opposite 0.2500000
face earth 0.2500000
face face 0.2500000
Thunes Thunes 1.0000000
carrefours cross 0.2000000
carrefours roads 0.5000000
battrons beat 1.0000000
Dreux-Raguier Dreux 1.0000000
Dreux-Raguier Raguier 0.5000000
laissant admire 0.5000000
laissant to 0.0067568
laissant them 0.0571429
dominant trait 0.3333333
foule unknown 0.2222222
foule crowd 1.0000000
foule NULL 0.0009346
gaieté gayety 0.5000000
dissimuler fact 0.0555556
dressé erected 1.0000000
monnaie coins 1.0000000
fais your 0.0238095
fais do 0.0588235
fais call 0.3333333
entrer presented 0.3333333
entendu heard 0.2500000
cohue buzzing 1.0000000
cohue populace 0.2000000
courant running 0.3333333
noierais myself 0.3333333
noierais would 0.0476190
noierais gladly 0.2000000
noierais drown 0.5000000
noierais were 0.0227273
suite immediately 0.2500000
suite train 0.3333333
suite NULL 0.0009346
suite continuation 1.0000000
suite understood 0.3333333
suite instant 0.1428571
suite once 0.2222222
suite instantly 0.3333333
suite it 0.0075758
dignité dignity 1.0000000
jetez-moi me 0.0303030
jetez-moi toss 1.0000000
Agnès la 0.1428571
Agnès Agnes 1.0000000
cape ! 0.0040984
cape cloak 0.5000000
ces knaves 0.3333333
ces unbridled 0.5000000
ces the 0.0023810
ces incongruous 0.3333333
ces NULL 0.0009346
ces these 0.3636364
croix-Dieu of 0.0024038
croix-Dieu cross 0.2000000
croix-Dieu ? 0.0072993
croix-Dieu God 0.0833333
critique NULL 0.0009346
critique critical 1.0000000
lâchait clung 0.3333333
lâchait to 0.0033784
libre free 0.3333333
Charles Charles 1.0000000
resta speechless 0.3333333
resta remained 0.3333333
resta thoughtful 1.0000000
resta stopped 0.2500000
roi king 1.0000000
roi King 1.0000000
ignorées unknown 0.2222222
basoche clerks 0.5000000
basoche corporation 1.0000000
basoche of 0.0072115
basoche fraternity 0.5000000
basoche Law 1.0000000
lâchez-moi me 0.0303030
lâchez-moi yield 0.5000000
Peut-être Perhaps 0.5000000
poumons lungs 1.0000000
Messeigneurs Messeigneurs 1.0000000
oiseaux &apos;t 0.0322581
oiseaux wasn 0.5000000
oiseaux birds 0.5000000
tonnerre thunder 1.0000000
jours consecutive 0.5000000
jours day 0.0434783
jours days 0.5000000
espérances amorous 0.5000000
dites-vous you 0.0106383
dites-vous say 0.0555556
ébréchés pots 0.5000000
huées hooting 1.0000000
jatte iron 1.0000000
monseigneur Monsieur 0.0666667
monseigneur monseigneur 0.7500000
monseigneur Monseigneur 0.4000000
monseigneur length 0.1666667
passé passed 0.1428571
passé it 0.0075758
politesses your 0.0238095
politesses &apos;s 0.0212766
politesses politeness 0.3333333
boite limps 1.0000000
crédit favor 0.5000000
tambour tambourine 0.5714286
tambour NULL 0.0009346
inutile to 0.0067568
inutile add 0.4000000
inutile useless 1.0000000
Votre Has 0.5000000
Votre Your 0.5555556
surtout especially 1.0000000
surtout joy 0.5000000
surtout surtout 0.5000000
’ him 0.0550459
’ Egyptian 0.3333333
’ restrained 0.5000000
’ some 0.0714286
’ are 0.0909091
’ hear 0.4000000
’ Argot 0.5000000
’ to 0.0439189
’ then 0.0454545
’ stranger 0.5000000
’ have 0.1600000
’ is 0.0253165
’ He 0.0178571
’ boldly 0.4000000
’ entrance 0.4444444
’ other 0.3870968
’ , 0.0017050
’ was 0.0185185
’ one 0.0266667
’ only 0.0476190
’ man 0.0851064
’ usher 0.2727273
’ a 0.0036232
’ sign 0.1428571
’ student 0.3333333
’ soul 0.2500000
’ audience 0.3333333
’ interior 0.5000000
’ Archduke 0.5000000
’ friendship 0.2000000
’ embassy 0.1666667
’ hosier 0.1000000
’ that 0.0422535
’ neither 0.2500000
’ herself 0.5000000
’ bald 0.5000000
’ more 0.0416667
’ went 0.1250000
’ accents 0.5000000
’ it 0.3181818
’ the 0.0023810
’ &apos;m 0.5000000
’ NULL 0.4943925
’ estrade 0.5000000
’ insolence 0.5000000
’ himself 0.0909091
fourvoyé stolen 1.0000000
fourvoyé in 0.0052632
cessé ceased 0.3333333
cessé never 0.3333333
heureux fortunate 1.0000000
mériterais would 0.0952381
mériterais deserve 0.3333333
impression impression 0.3333333
impression produced 0.2500000
impression disagreeable 0.5000000
envoie NULL 0.0009346
arriva reached 0.3333333
apaisés been 0.0416667
apaisés stilled 1.0000000
allez are 0.0303030
allez going 0.1000000
par , 0.0008525
par most 0.2222222
par troubled 0.3333333
par arched 0.5000000
par from 0.0338983
par brow 0.3333333
par pluck 0.5000000
par heedlessness 0.5000000
par our 0.1666667
par in 0.0157895
par begun 0.3333333
par by 0.4255319
par about 0.1000000
répétant repeating 1.0000000
répétant from 0.0169492
bacchante bacchante 1.0000000
touchent touch 0.5000000
bergerettes songs 0.3333333
bergerettes bergerettes 0.5000000
amitié friendship 0.2000000
Il There 0.3636364
Il A 0.0454545
Il You 0.0526316
Il he 0.0134228
Il led 0.4000000
Il first 0.1428571
Il So 0.1111111
Il Assuming 1.0000000
Il He 0.7678571
Il It 0.1707317
Il We 0.3333333
Il Both 0.5000000
Il Silence 0.2500000
Il NULL 0.0065421
Il must 0.0666667
phrase musical 1.0000000
souleva was 0.0061728
souleva raised 0.2500000
assistance present 1.0000000
assistance those 0.2000000
succédé followed 0.2000000
vénérables venerable 1.0000000
barbu Jew 0.5000000
filles maids 0.2500000
filles girls 1.0000000
filles loose 0.2857143
filles played 0.2500000
parmi among 0.2000000
Coup Theatrical 1.0000000
boues on 0.0113636
boues mud 1.0000000
cuivre yellow 0.5000000
mur western 1.0000000
mur at 0.0112360
mur something 0.2000000
mur wall 0.5000000
Monsieur Bailiff 0.3333333
Monsieur Monsieur 0.6666667
mademoiselle Mademoiselle 0.2000000
mademoiselle mademoiselle 0.6666667
rôder him 0.0183486
rôder round 0.2000000
rôder prowling 0.6666667
trinquaient clinked 0.5000000
oculaire eye 0.2000000
oculaire witness 1.0000000
épousant marrying 0.5000000
les chimneys 0.5000000
les eyes 0.1500000
les thorns 0.5000000
les eight 0.5000000
les roads 0.5000000
les bells 0.2000000
les Messieurs 0.5000000
les NULL 0.0084112
les muscles 0.5000000
les styles 0.5000000
les of 0.0024038
les front 0.1428571
les voices 0.2500000
les clasped 0.2500000
les the 0.0678571
les targes 1.0000000
les honest 0.5000000
les tighter 0.3333333
les taverns 0.2500000
les his 0.0769231
les Parisians 0.5000000
les assailants 0.5000000
les mouths 0.5000000
les female 0.3333333
les quarrels 0.3333333
les purpose 0.3333333
les laying 0.5000000
les parts 0.4000000
les plebeian 0.5000000
les two 0.0555556
les applause 0.2857143
les blanks 0.3333333
les dagger 0.2500000
les their 0.0500000
les first 0.1428571
les were 0.0454545
les gypsies 0.5000000
les heads 0.5000000
les ears 0.2222222
les them 0.2571429
parterre audience 0.1333333
parterre among 0.4000000
Chaînettes Chains 1.0000000
attaqué ; 0.0206186
manque lacks 0.5000000
puis then 0.4090909
dois-je address 0.2500000
fièrement saluted 0.5000000
Ô Oh 0.0769231
pensive for 0.0133333
aurait ought 0.1666667
aurait would 0.0952381
aurait be 0.0434783
aurait university 0.3333333
intempestive unseasonable 1.0000000
dont points 0.3333333
dont , 0.0025575
dont manner 0.2500000
dont personage 0.2500000
dont whose 0.6000000
dont which 0.0500000
partit went 0.1250000
partit suddenly 0.0500000
mollement gently 0.2500000
casque on 0.0113636
casque a 0.0036232
casque hemlet 0.5000000
abbé abbé 1.0000000
abbé Abbé 1.0000000
bêler bleat 1.0000000
deux themselves 0.1666667
deux Marchand 0.1666667
deux NULL 0.0009346
deux two 0.8333333
deux plunge 0.3333333
deux dames 0.5000000
pont Pont 0.5000000
enfants children 1.0000000
Trouillefou Trouillefou 1.0000000
Trouillefou saying 0.1000000
écoutait were 0.0227273
écoutait was 0.0061728
écoutait staring 1.0000000
écoutait listened 0.2000000
écoutait listening 0.4000000
pattes hind 1.0000000
demander me 0.0303030
conception conception 0.5000000
conception it 0.0075758
conception &apos;s 0.0106383
Ta Your 0.1111111
lâcher lose 1.0000000
lâcher prize 0.5000000
lâcher slip 0.2500000
Lui He 0.0178571
tournèrent turned 0.0769231
jambes legs 0.5000000
pétulant frisky 1.0000000
arracher it 0.0075758
attrapait caught 1.0000000
osait neither 0.0500000
jeté thrown 1.0000000
Tandis While 0.4000000
plusieurs many 0.5000000
couteau knife 0.2000000
ouvrit opened 1.0000000
commencent have 0.0200000
commencent hardly 0.1666667
surgissaient welled 0.5000000
surgissaient up 0.1052632
enseigne sign 0.1428571
Cappa ~ 0.0869565
Cappa Cappa 1.0000000
Callebotte Callebotte 1.0000000
réveillée suddenly 0.0500000
réveillée though 0.1000000
On It 0.0731707
On One 0.3636364
On Both 0.5000000
On judge 0.2000000
On NULL 0.0018692
On The 0.0294118
On They 0.5454545
On &quot; 0.0009960
Châtelet Châtelet 1.0000000
las gay 0.1428571
las the 0.0011905
seulement even 0.1428571
quitte quits 0.5000000
Toutes All 0.4000000
laconisme laconics 1.0000000
laconisme again 0.0625000
vérité Really 0.5000000
vérité truth 0.1666667
pain bread 0.3333333
contentons-nous let 0.1428571
tournant her 0.0185185
tournant turning 0.5555556
suis &apos;m 0.5000000
suis am 0.3750000
suis exist 0.3333333
suis one 0.0133333
suis them 0.0285714
suis of 0.0024038
bientôt know 0.0384615
bientôt soon 0.3333333
en his 0.0153846
en having 0.1333333
en commented 0.2500000
en into 0.0909091
en below 0.5000000
en jerky 1.0000000
en , 0.0238704
en a 0.0144928
en and 0.0108303
en in 0.2000000
en awakened 0.5000000
en have 0.0400000
en cherished 0.5000000
en marching 1.0000000
en perceive 0.3333333
en did 0.2258065
en officer 0.5000000
en interfered 0.3333333
en grasshopper 0.2500000
en fact 0.1666667
en stopping 0.5000000
en to 0.0236486
en lucky 0.2500000
en as 0.0392157
en needed 0.2500000
en NULL 0.0149533
en on 0.0454545
en humiliating 0.5000000
en pains 0.3333333
en am 0.0625000
en aspects 0.3333333
en should 0.2857143
en himself 0.0303030
en same 0.1428571
en admired 1.0000000
en addressed 0.1333333
en you 0.0106383
en more 0.0833333
en phrase 0.5000000
en strike 0.4000000
en trot 0.5000000
en suspected 0.2500000
en cost 0.4000000
en made 0.0333333
en know 0.1153846
en blushing 0.5000000
en Galilee 0.5000000
en smile 0.1000000
en making 0.2000000
en continued 0.0833333
pieds feet 0.5000000
charivari concert 1.0000000
chantent jabbering 1.0000000
chantent down 0.1250000
Toute All 0.1000000
Toute I 0.0120482
Toute The 0.0098039
Toute When 0.3333333
Toute whole 0.2500000
Toute was 0.0061728
Toute very 0.0666667
encourager to 0.0033784
encourager urge 1.0000000
Andry Andry 1.0000000
enveloppait surrounded 0.1666667
enveloppait him 0.0091743
facitote facitote 1.0000000
répliqua retorted 0.1666667
attention of 0.0024038
attention attention 0.8000000
Charmolue Charmolue 1.0000000
vaillance valor 1.0000000
Vous You 0.3684211
Vous That 0.0666667
Vous So 0.1666667
Vous Do 0.1000000
Vous you 0.0106383
Vous isn 0.2000000
précipitèrent rushed 0.1666667
insouciance heedlessness 0.5000000
insouciance unconcern 1.0000000
craindre fear 0.4000000
craindre was 0.0123457
Ponceau Fountain 0.5000000
Ponceau were 0.0227273
Ponceau there 0.0434783
écolier One 0.1818182
écolier student 0.6666667
écolier scholar 1.0000000
écolier ( 0.1818182
entendre him 0.0091743
entendre NULL 0.0018692
entendre hear 0.0666667
entendre self 0.6666667
entendre &apos;s 0.0212766
entendre audible 0.5000000
entendre one 0.0266667
ravis delighted 0.4000000
défendre their 0.0250000
défendre defend 0.5000000
nuit night 0.6000000
1653 1653 1.0000000
étonné amazed 0.2500000
étonné himself 0.0303030
resté been 0.0833333
resté his 0.0102564
resté left 0.1818182
resté remained 0.2222222
sortit out 0.0714286
sortit stepped 0.3333333
sortit from 0.0169492
bizarre song 0.1666667
bizarre vagabonds 0.3333333
interrompu interrupted 0.1666667
Noël Noel 1.0000000
Noël good 0.0384615
Noël Good 0.3846154
soi course 0.1666667
soi own 0.1428571
soi his 0.0051282
archiduc here 0.0714286
archiduc Archduke 0.5000000
archiduc sends 1.0000000
archiduc archduke 0.3333333
recueillie fall 0.5000000
recueillie upon 0.0625000
violente gratifying 0.5000000
violente a 0.0036232
violente one 0.0133333
commençait begin 0.0909091
commençait begun 0.3333333
commençait beginning 0.1666667
commençait who 0.0163934
commençait to 0.0067568
commençait began 0.1333333
commençait had 0.0107527
commençait was 0.0061728
chapiteau capital 1.0000000
chapiteau in 0.0105263
honnêtes honest 0.5000000
incongrues words 0.0909091
incongrues incongruous 0.3333333
pan de 0.0333333
pan pan 1.0000000
pan NULL 0.0009346
pan ~ 0.0434783
Camarade You 0.0526316
Camarade unlucky 1.0000000
Camarade comrade 0.2000000
Camarade are 0.0303030
Relevez-moi up 0.0526316
Relevez-moi Pick 0.5000000
Relevez-moi that 0.0070423
Relevez-moi me 0.0303030
rendaient brass 0.5000000
boiteux man 0.0425532
boiteux lame 1.0000000
Miracles Miracles 0.7142857
fixant with 0.0178571
fixant impudent 0.2857143
monter higher 1.0000000
monter mount 0.6666667
monter to 0.0033784
gaillardement shouted 0.0714286
gaillardement boldly 0.2000000
formidable formidable 1.0000000
oblat monk 1.0000000
oblat lay 0.1428571
tourner turn 0.3333333
cul-de-jatte in 0.0105263
cul-de-jatte legless 1.0000000
cul-de-jatte bowl 0.6666667
cul-de-jatte cripple 0.5000000
cul-de-jatte the 0.0023810
aperçu noticed 1.0000000
criarde shrill 0.5000000
flamand Flemish 0.5000000
Vierge Virgin 1.0000000
matin morning 1.0000000
génie rare 0.4000000
génie genius 1.0000000
fou wild 0.3333333
fou fit 1.0000000
Perrette Perrette 0.5000000
au-dessus directly 0.5000000
au-dessus above 0.5000000
détourna round 0.1000000
pauvres poor 0.2857143
dévotion devotion 0.5000000
dévotion interested 1.0000000
mais but 0.7083333
patient victim 1.0000000
patient whom 0.1666667
argotiers thieves 1.0000000
argotiers slang 1.0000000
argotiers men 0.1111111
désappointé disappointed 1.0000000
ennui Quite 0.3333333
entier circle 0.2000000
auras have 0.0200000
effaçaient were 0.0454545
bois when 0.0526316
bois wood 0.3333333
bois Forest 1.0000000
considéra him 0.0091743
considéra for 0.0133333
considéra examined 0.5000000
oeuvre the 0.0011905
sonna House 0.3333333
sonna rang 0.5000000
Très Very 1.0000000
solive transverse 1.0000000
pierre gibbet 0.3333333
pierre into 0.0454545
pierre stone 1.0000000
Le ; 0.0206186
Le Poor 0.2500000
Le Captain 0.2500000
Le Loud 0.3333333
Le le 0.3333333
Le The 0.3529412
rayon feet 0.5000000
vivait lived 1.0000000
vivait had 0.0107527
vivait in 0.0052632
rangeaient gently 0.2500000
rangeaient along 0.2500000
rangeaient themselves 0.1666667
illusion illusions 1.0000000
intérieur interior 0.5000000
intérieur conscience 1.0000000
Gisquette Gisquette 1.0000000
voisines two 0.0555556
voisines neighbors 0.3333333
voisines female 0.3333333
croissant success 1.0000000
croissant increasing 0.5000000
altière haughty 1.0000000
Denis Master 0.0588235
Denis le 0.3333333
Denis Denis 1.0000000
siècle century 1.0000000
amour Yes 0.1666667
amour lovingly 0.3333333
amour a 0.0036232
amour lover 0.5000000
amour love 0.3333333
amour − 0.0145985
– NULL 0.0018692
– “ 1.0000000
– My 0.5000000
– Good 0.1538462
– emphasis 0.2000000
– Who 0.2000000
– &apos; 0.0322581
– &quot; 0.2241036
– Do 0.1000000
citoyens , 0.0008525
citoyens citizens 0.5000000
curieux curious 0.5000000
curieux , 0.0008525
difficile difficult 1.0000000
Mais but 0.0833333
Mais But 0.8260870
passer through 0.2222222
joyeuse joyous 0.3333333
joyeuse &apos;s 0.0212766
pensionnaire pensioner 0.5000000
certaine certain 0.5000000
gracieuses ideas 0.3333333
guet watch 1.0000000
guet ! 0.0040984
donnée you 0.0106383
donnée on 0.0113636
donnée gave 0.2500000
donnée it 0.0075758
nouveaux selected 0.3333333
retroussait was 0.0061728
retroussait up 0.0526316
difficulté difficulty 0.2000000
passeur ferryman 0.3333333
passeur cow 1.0000000
admirait its 0.1250000
liards-à-l NULL 0.0009346
nez face 0.1500000
Qu What 0.2500000
Qu Who 0.2000000
tourne twist 1.0000000
tourne &quot; 0.0009960
truande wench 0.3333333
truande vagabond 0.1111111
truande back 0.3333333
casse my 0.0344828
casse breaking 0.1666667
Jupiter Jupiter 1.0000000
articulée articulate 0.5000000
Entends-tu Do 0.1000000
Entends-tu you 0.0106383
Entends-tu hear 0.0666667
grande a 0.0072464
grande great 0.1666667
veux-tu you 0.0106383
veux-tu suppose 0.1666667
veux-tu thou 0.5000000
veux-tu want 0.1000000
veux-tu dost 1.0000000
veux-tu did 0.0322581
très handsome 0.1428571
très very 0.0666667
très whispered 0.3333333
très beautiful 0.3333333
que friendship 0.2000000
que those 0.1000000
que that 0.3098592
que exerting 1.0000000
que these 0.0909091
que equal 0.5000000
que NULL 0.0168224
que rogue 0.2500000
que am 0.0625000
que beheld 0.2222222
que horns 0.2857143
que aware 0.1538462
que vigorously 0.3333333
que than 0.2857143
que wood 0.3333333
que breaking 0.1666667
que are 0.0606061
que pensioner 0.5000000
que unable 0.2000000
que Are 0.3333333
que enormities 0.2500000
que what 0.1304348
que as 0.1372549
que while 0.3333333
que required 0.5000000
que realized 0.2500000
que allusions 0.5000000
que unless 0.3333333
que be 0.0434783
que gladly 0.2000000
que which 0.1166667
que only 0.0952381
sentait NULL 0.0009346
luronnes hearty 1.0000000
luronnes dames 0.5000000
luronnes are 0.0303030
ordonnance orders 0.5000000
ordonnance NULL 0.0009346
courroies drawn 0.5000000
courroies tighter 0.3333333
répéta repeated 0.1000000
archer archer 1.0000000
imposant foreheads 0.3333333
interdit was 0.0123457
interdit he 0.0067114
interdit confused 0.3333333
interdit speechless 0.3333333
interdit that 0.0070423
interdit so 0.0322581
Palais Courts 0.4000000
venu clinging 0.5000000
venu come 0.1250000
venu came 0.1818182
venu newcomer 0.5000000
venu step 0.0833333
unique sole 0.3333333
unique − 0.0145985
unique only 0.0952381
dirent said 0.0096154
seigneur seigneur 1.0000000
voulez mean 0.2500000
voulez want 0.2000000
voulez &apos;t 0.0322581
tailladait slashed 1.0000000
cuellos cuellos 1.0000000
faisait bestowed 0.5000000
faisait was 0.0123457
faisait made 0.0666667
faisait caused 0.5000000
faisait a 0.0036232
faisait making 0.2000000
faisait to 0.0033784
faisait reticence 0.2500000
faisait commented 0.2500000
faisait fond 0.5000000
faisait pace 0.2500000
confuse great 0.0833333
confuse confusion 0.5000000
confuse ; 0.0103093
têtes heads 0.5000000
insolence proceeding 1.0000000
insolence this 0.0204082
insolence insolence 0.5000000
insolence of 0.0024038
chanson obscene 1.0000000
recommençait suppose 0.1666667
recommençait again 0.0625000
recommençait begin 0.0909091
recommençait . 0.0013755
recommençait we 0.0909091
or heels 0.3333333
or hoof 0.5000000
or , 0.0008525
or gold 1.0000000
Buah Whew 1.0000000
NULL did 0.0322581
NULL along 0.2500000
NULL at 0.0674157
NULL whom 0.1666667
NULL aware 0.0769231
NULL in 0.0526316
NULL immediately 0.2500000
NULL is 0.0253165
NULL her 0.0555556
NULL Nevertheless 0.0625000
NULL while 0.1111111
NULL my 0.0689655
NULL deal 0.5000000
NULL not 0.0131579
NULL round 0.1000000
NULL jolly 1.0000000
NULL he 0.0402685
NULL remains 0.1666667
NULL were 0.0681818
NULL − 0.1824818
NULL tolerably 1.0000000
NULL audience 0.0666667
NULL grimace 0.2222222
NULL with 0.0535714
NULL and 0.0180505
NULL hand 0.0909091
NULL a 0.0688406
NULL forth 0.4000000
NULL was 0.0679012
NULL Margaritas 1.0000000
NULL ? 0.0145985
NULL meantime 0.5000000
NULL ~ 0.1304348
NULL from 0.0169492
NULL long 0.2500000
NULL off 0.0833333
NULL know 0.0384615
NULL going 0.1000000
NULL porcos 1.0000000
NULL following 0.3333333
NULL patient 0.6666667
NULL of 0.0649038
NULL on 0.0568182
NULL the 0.0523810
NULL you 0.0638298
NULL away 0.1250000
NULL means 0.5000000
NULL arrived 0.2000000
NULL begin 0.0909091
NULL toned 0.5000000
NULL we 0.0909091
NULL throng 0.6666667
NULL It 0.0487805
NULL little 0.1666667
NULL us 0.0909091
NULL shouted 0.0714286
NULL parts 0.2000000
NULL possible 0.3333333
NULL what 0.0434783
NULL to 0.0743243
NULL them 0.1142857
NULL Tours 1.0000000
NULL native 1.0000000
NULL this 0.0204082
NULL be 0.0652174
NULL kick 1.0000000
NULL low 0.1666667
NULL row 0.5000000
NULL sort 0.6666667
NULL between 0.1000000
NULL hearing 0.2500000
NULL his 0.0051282
NULL high 0.3333333
NULL tone 0.5000000
NULL timidly 1.0000000
NULL , 0.1798806
NULL monseigneur 0.2500000
NULL &apos; 0.0322581
NULL politeness 0.6666667
NULL lay 0.1428571
NULL they 0.0333333
NULL neither 0.0500000
NULL Within 1.0000000
NULL procession 0.3333333
NULL enter 0.2000000
NULL closing 0.5000000
NULL through 0.1111111
NULL well 0.2105263
NULL Frenchman 1.0000000
NULL triumph 0.2857143
NULL placed 0.1111111
NULL been 0.2083333
NULL most 0.1111111
NULL after 0.1666667
NULL words 0.0909091
NULL stentorian 1.0000000
NULL down 0.1250000
NULL shape 0.5000000
NULL should 0.1428571
NULL proceed 1.0000000
NULL during 0.1428571
NULL am 0.0625000
NULL unknown 0.1111111
NULL order 0.2000000
NULL quite 0.1428571
NULL . 0.0041265
NULL fear 0.2000000
NULL dog 0.2000000
NULL parties 1.0000000
NULL two 0.0555556
NULL as 0.0588235
NULL work 0.3333333
NULL ) 0.1111111
NULL The 0.0098039
NULL utmost 1.0000000
NULL I 0.0361446
NULL friend 0.2000000
NULL earthenware 1.0000000
NULL returning 1.0000000
NULL Where 0.3333333
NULL Flemish 0.0625000
NULL remained 0.1111111
NULL take 0.2666667
NULL air 0.5000000
NULL for 0.1066667
NULL girl 0.0588235
NULL exclaimed 0.1250000
NULL such 0.1666667
NULL much 0.1875000
NULL having 0.2666667
NULL ( 0.0909091
NULL sharper 0.5000000
NULL one 0.0666667
NULL last 0.2857143
NULL A 0.0454545
NULL me 0.0606061
NULL other 0.0967742
NULL that 0.0281690
NULL will 0.0526316
NULL : 0.2222222
NULL there 0.0869565
NULL swine 0.5000000
NULL She 0.0555556
NULL This 0.1052632
NULL side 0.3333333
NULL home 1.0000000
NULL You 0.0526316
NULL very 0.0666667
NULL step 0.0833333
NULL heart 0.1428571
NULL made 0.0666667
NULL too 0.0526316
NULL make 0.2500000
NULL year 0.3333333
NULL who 0.0327869
NULL it 0.0530303
NULL up 0.1052632
NULL shop 0.5000000
NULL dram 0.5000000
NULL want 0.1000000
NULL all 0.1428571
NULL but 0.1250000
NULL more 0.0416667
NULL an 0.0625000
NULL worry 1.0000000
NULL patience 1.0000000
NULL least 0.1000000
NULL ; 0.0103093
NULL got 1.0000000
NULL At 0.2000000
NULL began 0.0666667
NULL then 0.0909091
NULL don 0.0833333
NULL fell 0.2000000
NULL &quot; 0.1713147
NULL him 0.0825688
NULL good 0.0384615
NULL lively 0.5000000
NULL are 0.0606061
NULL said 0.0480769
NULL added 0.1111111
NULL part 0.3333333
NULL day 0.0434783
NULL man 0.0425532
NULL Do 0.1000000
NULL vagabonds 0.3333333
NULL had 0.1397849
NULL whose 0.4000000
NULL &apos;s 0.0851064
NULL again 0.0625000
NULL amazed 0.5000000
NULL come 0.2500000
NULL straps 1.0000000
NULL new 0.1428571
NULL level 0.5000000
NULL gallery 0.1666667
NULL himself 0.0909091
NULL &apos;t 0.0322581
NULL chance 0.3333333
NULL by 0.0212766
NULL shrieked 0.2500000
NULL say 0.2222222
NULL before 0.3000000
NULL That 0.0666667
NULL thoughtfully 1.0000000
NULL do 0.1764706
NULL out 0.1428571
courut ran 0.6000000
courut ! 0.0122951
buveurs beer-drinkers 0.3333333
attirèrent attracted 1.0000000
chapelle chapel 1.0000000
consens consent 1.0000000
consens you 0.0106383
gronde is 0.0126582
gronde scolding 1.0000000
foudre thunderbolt 1.0000000
annoncés successively 1.0000000
Bourgeois Bourgeois 1.0000000
arracha off 0.0833333
arracha tore 0.2000000
vu seen 0.3333333
cérémonie ceremony 0.5000000
cérémonie at 0.0112360
jeu into 0.0454545
voisine neighbor 0.2000000
est-ce , 0.0008525
est-ce are 0.0909091
est-ce &quot; 0.0049801
est-ce does 0.0909091
est-ce is 0.0886076
est-ce am 0.0625000
est-ce that 0.0070423
est-ce − 0.0072993
bel handsome 0.4285714
bel fine 0.0769231
bel a 0.0072464
chancelant old 0.1250000
osait-il trust 1.0000000
osait-il to 0.0033784
osait-il dare 0.3333333
rudement rough 0.5000000
rudement ceremony 0.5000000
rudement rudely 1.0000000
Marguerite Marguerite 1.0000000
lâchaient beggars 0.5000000
lâchaient loose 0.1428571
lâchaient their 0.0250000
soir evening 1.0000000
romantique romanticism 0.5000000
outrecuidance that 0.0140845
outrecuidance for 0.0266667
outrecuidance audacity 1.0000000
gravement gravely 1.0000000
Voyons see 0.0769231
Voyons &apos;s 0.0106383
Voyons Let 0.1428571
merveilleux thing 0.3333333
merveilleux a 0.0036232
merveilleux marvellous 1.0000000
volontiers enliven 0.5000000
volontiers gladly 0.4000000
volontiers fond 0.5000000
volontiers himself 0.0606061
bourgeois bourgeois 1.0000000
pape pope 0.6000000
pape perfect 1.0000000
pape Pope 1.0000000
objecta objected 1.0000000
; ; 0.4639175
; . 0.0027510
; difficulty 0.2000000
; conversation 0.1428571
; beer-drinkers 0.3333333
; walk 0.5000000
; , 0.0025575
; burgomasters 0.2500000
t take 0.0666667
t harden 0.3333333
t you 0.0106383
t does 0.1818182
t enroll 1.0000000
continuez continue 0.2500000
Bourbon Bourbon 1.0000000
sauterelle grasshopper 0.2500000
front , 0.0025575
front foreheads 0.3333333
front brow 0.3333333
front abreast 1.0000000
front brows 1.0000000
Châteaupers Châteaupers 1.0000000
incommensurables incommensurable 1.0000000
incommensurables presence 0.5000000
capitaine captain 0.8333333
capitaine Captain 0.5000000
hurlant howling 0.2500000
Caritatem ~ 0.0869565
Caritatem Caritatem 1.0000000
recommencez again 0.2500000
recommencez begin 0.1818182
Coppenole Coppenole 1.0000000
vient comes 0.4000000
vient to 0.0033784
réveillé roused 1.0000000
réveillé aroused 0.5000000
qui whom 0.3333333
qui begin 0.0909091
qui vied 0.8000000
qui Here 0.5000000
qui took 0.0833333
qui ghost 0.5000000
qui wearies 0.3333333
qui falling 0.5000000
qui men 0.1111111
qui lacks 0.1666667
qui creature 0.2500000
qui NULL 0.0065421
qui who 0.8196721
qui habituated 0.2500000
qui following 0.1666667
qui which 0.5833333
qui piercing 0.5000000
qui instruments 0.3333333
qui respect 0.4000000
qui overturned 0.3333333
manège movement 0.5000000
emporte take 0.0666667
moins one 0.0266667
moins continued 0.0833333
moins this 0.0408163
moins hung 0.1111111
moins less 0.6666667
moins least 0.6000000
moins of 0.0048077
moins unless 0.3333333
moins NULL 0.0018692
contenta contented 1.0000000
contenta himself 0.0606061
contenta with 0.0178571
croc supports 1.0000000
plus prettier 0.5000000
plus later 0.5000000
plus either 0.2500000
plus step 0.1666667
plus longer 0.6666667
plus closer 0.5000000
plus less 0.3333333
plus than 0.0714286
plus escape 0.2000000
plus confounding 0.2500000
plus the 0.0023810
plus knowing 0.2500000
plus grimaces 0.2857143
plus more 0.6250000
plus no 0.0357143
plus ever 0.0909091
plus handsomest 0.5000000
plus still 0.1000000
plus soles 0.2500000
plus NULL 0.0028037
quelqu Luckily 0.5000000
quelqu any 0.2500000
libertés liberties 1.0000000
donné it 0.0075758
donné certainly 0.1666667
donné given 0.5000000
indignait made 0.0333333
tut ceased 0.1666667
quatre for 0.0133333
quatre four 1.0000000
palefrenier groom 1.0000000
palefrenier who 0.0163934
palefrenier had 0.0107527
D Moreover 0.3750000
D Whence 1.0000000
D Yes 0.1666667
D As 0.1000000
venue age 0.3333333
venue arrived 0.2000000
venue come 0.1250000
venue creating 1.0000000
lacéra rent 0.1666667
lacéra tinsel 0.5000000
continua continued 0.1666667
continua &quot; 0.0009960
mains clasped 0.2500000
mains hands 1.0000000
mains NULL 0.0009346
plaisir pleasure 1.0000000
dévote bigoted 0.3333333
Gare Let 0.2857143
détrôné dethroned 1.0000000
amulette amulet 1.0000000
législation ancient 0.5000000
législation English 0.5000000
Que What 0.3750000
Que How 0.4000000
Que Deuce 0.5000000
déplaît displeases 0.5000000
maison house 0.5000000
expira ! 0.0040984
expira died 1.0000000
expira away 0.1250000
sourcil scowled 0.3333333
roula rolled 1.0000000
roula it 0.0075758
roula to 0.0033784
Nul No 0.1000000
estomac stomach 1.0000000
estomac having 0.0666667
redoublait redoubled 0.3333333
doigt at 0.0112360
doigt finger 1.0000000
compris understood 0.3333333
tellement so 0.0645161
fait is 0.0253165
fait NULL 0.0028037
fait contrive 0.5000000
fait invoked 0.5000000
fait over 0.0714286
fait been 0.0833333
fait wrote 0.5000000
algarade air 0.5000000
long length 0.1666667
poursuite continuance 1.0000000
réalisa fully 1.0000000
réalisa realized 0.2500000
réalisa too 0.1052632
&#91; NULL 0.0009346
&#91; ~ 0.0434783
&#91; earth-- 0.2000000
Truand A 0.0909091
Truand vagabond 0.2222222
Pendu Hung 1.0000000
escabeau stool 0.8000000
procureur procurator 0.5000000
procureur to 0.0067568
esprit spirit 1.0000000
esprit mind 0.5000000
esprit him 0.0091743
spectre spectre 1.0000000
inattendu incident 1.0000000
ou gray 1.0000000
ou target 0.5000000
ou NULL 0.0018692
ou or 0.6363636
amant lover 0.5000000
extase ecstasy 1.0000000
extase almost 0.3333333
religieux profound 0.2500000
faire NULL 0.0018692
faire invoked 0.5000000
faire form 1.0000000
faire to 0.0168919
faire done 0.1666667
faire and 0.0072202
tapisserie tapestry 0.6666667
afin NULL 0.0009346
reconnais recognize 0.4285714
reconnais him 0.0183486
Notre Our 1.0000000
chaque each 0.6666667
chaque every 1.0000000
attacher to 0.0067568
attacher attach 0.5000000
Non at 0.0224719
Non Not 0.6250000
Non so 0.0322581
Non No 0.8000000
pu manage 1.0000000
gaillarde &apos;s 0.0212766
« No 0.1000000
« NULL 0.0009346
« Give 0.5000000
« &quot; 0.1454183
« Hey 0.3333333
bienheureuse happy 1.0000000
Philippe Philippe 0.5000000
Philippe says 0.5000000
Ménaléen Mount 1.0000000
inconnu unheard 1.0000000
inconnu stranger 0.4000000
couraient here 0.0714286
couraient running 0.3333333
couraient about 0.1000000
largement reaped 1.0000000
redoublement causing 0.6666667
redoublement redoubled 0.3333333
En There 0.1818182
En Really 0.5000000
En So 0.1666667
En At 0.4000000
En In 0.3076923
En saying 0.3000000
ours Flemish 0.0625000
Bonjour Good 0.1538462
Bonjour − 0.0145985
Bonjour day 0.0869565
annuelle orgy 1.0000000
disparut disappeared 0.3333333
disparut poniard 0.5000000
fantastique fantastic 1.0000000
et sacred 0.1428571
et fine 0.0769231
et personage 0.2500000
et shuddered 0.2500000
et and 0.8519856
et NULL 0.0028037
et yet 0.1428571
et shouted 0.0714286
et diabolical 0.5000000
et sang 0.4000000
rentré under 0.3333333
rentré withdrawn 1.0000000
grands-blancs blanks 0.3333333
suis-je do 0.0588235
suis-je am 0.0625000
suis-je exist 0.3333333
suis-je I 0.0240964
Bien Well 0.3333333
Bien Good 0.0769231
Bien Quite 0.6666667
conseiller councillor 1.0000000
coûtait wood 0.3333333
coûtait cost 0.2000000
hui day 0.0869565
hui today 1.0000000
hui − 0.0218978
seul only 0.2380952
seul sole 0.6666667
seul one 0.0266667
seul might 0.5000000
promenant and 0.0036101
promenant speechless 0.3333333
vociféraient vociferated 1.0000000
excitées excited 0.5000000
sens sense 1.0000000
ouvertes open 0.3333333
Bellevigne de 0.1000000
Bellevigne Bellevigne 1.0000000
premiers first 0.1428571
premiers front 0.1428571
point hear 0.0666667
point culminating 1.0000000
point horse 0.1428571
point advance 0.5000000
À Help 1.0000000
À NULL 0.0018692
À To 0.3333333
À Down 0.4000000
À By 1.0000000
À to 0.0033784
À Hardly 0.3333333
À And 0.0322581
À At 0.1000000
À when 0.0526316
À From 0.4000000
sentit felt 0.3000000
jurant swearing 1.0000000
rue dark 0.5000000
rue Rue 1.0000000
souvenirs reminiscences 1.0000000
écarlate armchair 1.0000000
écarlate scarlet 0.1000000
première first 0.2857143
Margaritam Margaritam 1.0000000
Margaritam pearl 1.0000000
Margaritam ~ 0.0434783
forêts forests 1.0000000
vaches &apos;s 0.0106383
vaches ferryman 0.3333333
vaches , 0.0008525
aveugles blind 0.2857143
aveugles at 0.0112360
compagnon companion 1.0000000
plaît please 0.3529412
moult much 0.1250000
bancal bandy 1.0000000
bancal legged 1.0000000
bancal − 0.0145985
assemblée entire 0.2500000
assemblée an 0.0625000
rues purpose 0.1666667
ailleurs audience 0.0666667
ailleurs elsewhere 1.0000000
ailleurs the 0.0011905
ailleurs Moreover 0.1250000
ailleurs , 0.0025575
borgne − 0.0291971
borgne one 0.0533333
borgne man 0.0425532
borgne eyed 1.0000000
Benserade prepared 1.0000000
Benserade Benserade 1.0000000
quoi what 0.0652174
quoi for 0.0266667
quoi subject 0.3333333
quand even 0.1428571
quand when 0.4736842
Certainement Assuredly 1.0000000
Vois Just 0.4000000
Vois look 0.2000000
absolument insist 0.3333333
absolument on 0.0113636
couverts covered 0.6666667
lier enter 0.2000000
Quiconque one 0.0133333
Quiconque who 0.0163934
Quiconque Any 1.0000000
admirer admire 0.5000000
admirer him 0.0183486
caballero me 0.0303030
XI XI 1.0000000
XI . 0.0027510
soupé supped 0.5000000
regard her 0.0185185
regard glance 0.4285714
regard rather 0.2000000
regard indifferent 0.5000000
valait sight 0.4000000
nattes one 0.0133333
Nombril Nombrill 0.5000000
milieu middle 1.0000000
milieu spot 0.3333333
milieu the 0.0011905
milieu midst 0.7777778
pointe tip 0.3333333
témoin an 0.0312500
malade doublet 0.2500000
malade sickly 0.5000000
montrer &apos;s 0.0212766
montrer one 0.0266667
montrer only 0.0952381
montrer show 0.5000000
quinzième fifteenth 0.5000000
mangez do 0.0588235
mangez eat 1.0000000
nouveauté novelty 1.0000000
Son His 0.8000000
Son &quot; 0.0029880
Français − 0.0145985
mille thousand 1.0000000
mille a 0.0036232
comprar buy 0.5000000
confondre confound 1.0000000
confondre mingling 0.5000000
empara possession 0.2500000
dit pronounced 1.0000000
dit &quot; 0.0557769
dit suddenly 0.0500000
dit called 0.2000000
dit NULL 0.0009346
dit replied 0.0645161
dit says 0.5000000
dit said 0.6826923
sérénité serenity 1.0000000
assourdissant deafening 0.3333333
complètement from 0.0169492
complètement completely 1.0000000
Mesdamoiselles emphasis 0.2000000
Mesdamoiselles I 0.0120482
précisément directly 0.5000000
précisément come 0.1250000
grenouilles pond 0.5000000
T Will 0.1666667
muet dumb 1.0000000
asseoir himself 0.0303030
asseoir and 0.0036101
asseoir seat 0.5000000
asseoir lively 0.5000000
ta defence 0.2500000
ta your 0.1428571
éminence eminence 0.2666667
timidement inquired 0.3333333
timidement remarked 0.5000000
foi faith 1.0000000
Ho Ho 1.0000000
moment-là forth 0.2000000
moment-là moment 0.0500000
Jacques Jacques 1.0000000
truand a 0.0144928
truand vagabond 0.5555556
défensive defensive 1.0000000
pensa said 0.0096154
pensa thought 0.1428571
pensa &quot; 0.0009960
hypothèses hypotheses 1.0000000
figures figures 0.2500000
figures beamed 0.5000000
figures faces 0.1666667
écoutez . 0.0013755
écoutez listen 0.5000000
Ce It 0.2195122
Ce Then 0.0909091
Ce NULL 0.0009346
Ce What 0.0625000
Ce The 0.0196078
Ce This 0.2105263
Ce That 0.3333333
Ce &quot; 0.0029880
autres few 0.0769231
autres rest 0.3333333
autres other 0.0645161
autres advantages 0.2000000
Applaudissez Applaud 1.0000000
abord enjoined 0.3333333
a married 0.3333333
a advantages 0.2000000
a called 0.2000000
a NULL 0.0056075
a left 0.1818182
a has 0.6875000
a away 0.1250000
a it 0.0075758
a gave 0.2500000
a hungry 0.5000000
a sorcery 0.5000000
a overturned 0.3333333
lui-même affairs 1.0000000
lui-même astonished 0.2500000
nos our 0.2500000
retira retired 0.3333333
Vraiment Truly 1.0000000
fil thread 0.5000000
silence silent 0.5000000
silence silence 1.0000000
silence ensued 0.3333333
voûte vault 1.0000000
comment how 0.7500000
comment what 0.0217391
troupe troop 1.0000000
vivre live 0.3333333
vivre primitive 0.3333333
râpée threadbare 1.0000000
différent difference 0.3333333
différent a 0.0036232
différent responded 0.2000000
Tu &quot; 0.0009960
Tu You 0.4736842
Tu Don 1.0000000
Tu Do 0.1000000
folie mirth 1.0000000
Quatrelivres Quatrelivres 1.0000000
arrivé arrived 0.2000000
arrivé having 0.0666667
arrivé reached 0.3333333
arrivé arrives 1.0000000
reprendre resume 1.0000000
galante gallant 0.3333333
rétabli extent 1.0000000
rétabli some 0.0714286
rétabli to 0.0033784
déchirer tear 1.0000000
déchirer in 0.0052632
gaiement gayly 1.0000000
menear menear 1.0000000
menear poderse 0.5000000
menear Sin 1.0000000
Madame Madame 0.1666667
artillerie artillery 0.5000000
artillerie &apos;s 0.0106383
sotte stupid 0.2500000
devant before 0.2000000
devant front 0.4285714
devant opposite 0.2500000
devant , 0.0017050
devant of 0.0072115
devant dog 0.4000000
devant NULL 0.0009346
devant in 0.0210526
succès growing 1.0000000
succès her 0.0185185
asseyant herself 0.5000000
asseyant seating 0.5000000
secousse electric 0.3333333
La Esmeralda 0.0909091
La NULL 0.0009346
La la 0.0714286
La The 0.2254902
La Charity 0.5000000
La La 0.7500000
La &quot; 0.0019920
La pitch 0.5000000
fermant closing 0.5000000
litanie litany 1.0000000
retirer step 0.0833333
présence presence 0.5000000
lécher lick 1.0000000
Rouge Red 1.0000000
importunait troubled 0.3333333
importunait him 0.0183486
exclamation exclamation 1.0000000
lestement nimbly 1.0000000
faute abstain 0.3333333
faute mistake 1.0000000
Oh Oh 0.9230769
chantait singing 1.0000000
chantait sang 0.4000000
chantait chanted 1.0000000
chantait was 0.0061728
grimpe climb 1.0000000
grimpe &quot; 0.0009960
prise it 0.0075758
prise hold 0.5000000
prise his 0.0051282
prise their 0.0250000
prise prize 0.5000000
prise upon 0.0312500
grésiller sputter 1.0000000
espantar astound 1.0000000
brouhaha uproar 0.4000000
brouhaha there 0.0869565
savaient who 0.0327869
savaient aware 0.1538462
faiblesse weakness 1.0000000
souffla-t-il , 0.0008525
souffla-t-il whispered 0.3333333
apercevoir perceive 0.3333333
écrite written 0.3333333
sacrée not 0.0263158
sacrée sacred 0.1428571
éleva arose 0.6666667
bout hall 0.1250000
bout minute 1.0000000
bout end 0.5000000
rang row 0.5000000
chant song 0.5000000
ici NULL 0.0018692
ici here 0.2142857
ici firmly 0.5000000
abbés abbés 0.2500000
abbés invaded 0.5000000
bouchée dull-witted 1.0000000
langue language 1.0000000
langue tongue 0.2500000
langue beheld 0.1111111
prodigieuse prodigious 1.0000000
baissa with 0.0089286
baissa lowered 0.5000000
baissa bent 0.2500000
surnoms choice 0.5000000
surnoms a 0.0072464
davantage was 0.0061728
davantage needed 0.2500000
davantage all 0.0238095
davantage that 0.0070423
choc shock 0.5000000
peur was 0.0061728
peur afraid 0.5000000
peur as 0.0392157
peur fright 0.6666667
peur alarmed 0.3333333
douce reflection 0.2500000
douce sweet 1.0000000
douce soft 1.0000000
gêner weary 0.3333333
Mercier Mercier 1.0000000
amis mine 0.5000000
Guillaume Guillaume 1.0000000
dépêche make 0.2500000
dépêche haste 1.0000000
espadon sword 0.5000000
disposition NULL 0.0009346
toucherait been 0.0416667
toucherait probed 1.0000000
toucherait wound 0.5000000
toucherait has 0.0625000
ténébreuse street 1.0000000
ténébreuse narrow 1.0000000
devait was 0.0061728
Louis Louis 1.0000000
Harlay Harlay 1.0000000
Harlay de 0.0333333
for own 0.1428571
gardèrent grudge 0.3333333
saccadait wrath 0.3333333
saccadait rendered 0.2500000
arriver it 0.0151515
